<?xml version='1.0' encoding='utf-8'?>
<BIF VERSION="0.3">
  <NETWORK>
    <NAME>UNTITLED</NAME>
    <VARIABLE TYPE="nature">
      <NAME>Perpetrator Age</NAME>
      <OUTCOME>0</OUTCOME>
      <OUTCOME>1</OUTCOME>
      <OUTCOME>2</OUTCOME>
      <OUTCOME>3</OUTCOME>
      <OUTCOME>4</OUTCOME>
      <OUTCOME>5</OUTCOME>
      <OUTCOME>6</OUTCOME>
      <OUTCOME>7</OUTCOME>
      <OUTCOME>8</OUTCOME>
      <OUTCOME>9</OUTCOME>
      <OUTCOME>10</OUTCOME>
      <OUTCOME>11</OUTCOME>
      <OUTCOME>12</OUTCOME>
      <OUTCOME>13</OUTCOME>
      <OUTCOME>14</OUTCOME>
      <OUTCOME>15</OUTCOME>
      <OUTCOME>16</OUTCOME>
      <OUTCOME>17</OUTCOME>
      <OUTCOME>18</OUTCOME>
      <OUTCOME>19</OUTCOME>
      <OUTCOME>20</OUTCOME>
      <OUTCOME>21</OUTCOME>
      <OUTCOME>22</OUTCOME>
      <OUTCOME>23</OUTCOME>
      <OUTCOME>24</OUTCOME>
      <OUTCOME>25</OUTCOME>
      <OUTCOME>26</OUTCOME>
      <OUTCOME>27</OUTCOME>
      <OUTCOME>28</OUTCOME>
      <OUTCOME>29</OUTCOME>
      <OUTCOME>30</OUTCOME>
      <OUTCOME>31</OUTCOME>
      <OUTCOME>32</OUTCOME>
      <OUTCOME>33</OUTCOME>
      <OUTCOME>34</OUTCOME>
      <OUTCOME>35</OUTCOME>
      <OUTCOME>36</OUTCOME>
      <OUTCOME>37</OUTCOME>
      <OUTCOME>38</OUTCOME>
      <OUTCOME>39</OUTCOME>
      <OUTCOME>40</OUTCOME>
      <OUTCOME>41</OUTCOME>
      <OUTCOME>42</OUTCOME>
      <OUTCOME>43</OUTCOME>
      <OUTCOME>44</OUTCOME>
      <OUTCOME>45</OUTCOME>
      <OUTCOME>46</OUTCOME>
      <OUTCOME>47</OUTCOME>
      <OUTCOME>48</OUTCOME>
      <OUTCOME>49</OUTCOME>
      <OUTCOME>50</OUTCOME>
      <OUTCOME>51</OUTCOME>
      <OUTCOME>52</OUTCOME>
      <OUTCOME>53</OUTCOME>
      <OUTCOME>54</OUTCOME>
      <OUTCOME>55</OUTCOME>
      <OUTCOME>56</OUTCOME>
      <OUTCOME>57</OUTCOME>
      <OUTCOME>58</OUTCOME>
      <OUTCOME>59</OUTCOME>
      <OUTCOME>60</OUTCOME>
      <OUTCOME>61</OUTCOME>
      <OUTCOME>62</OUTCOME>
      <OUTCOME>63</OUTCOME>
      <OUTCOME>64</OUTCOME>
      <OUTCOME>65</OUTCOME>
      <OUTCOME>66</OUTCOME>
      <OUTCOME>67</OUTCOME>
      <OUTCOME>68</OUTCOME>
      <OUTCOME>69</OUTCOME>
      <OUTCOME>70</OUTCOME>
      <OUTCOME>71</OUTCOME>
      <OUTCOME>72</OUTCOME>
      <OUTCOME>73</OUTCOME>
      <OUTCOME>74</OUTCOME>
      <OUTCOME>75</OUTCOME>
      <OUTCOME>76</OUTCOME>
      <OUTCOME>77</OUTCOME>
      <OUTCOME>78</OUTCOME>
      <OUTCOME>79</OUTCOME>
      <OUTCOME>80</OUTCOME>
      <OUTCOME>81</OUTCOME>
      <OUTCOME>82</OUTCOME>
      <OUTCOME>83</OUTCOME>
      <OUTCOME>84</OUTCOME>
      <OUTCOME>85</OUTCOME>
      <OUTCOME>86</OUTCOME>
      <OUTCOME>87</OUTCOME>
      <OUTCOME>88</OUTCOME>
      <OUTCOME>89</OUTCOME>
      <OUTCOME>90</OUTCOME>
      <OUTCOME>91</OUTCOME>
      <OUTCOME>92</OUTCOME>
      <OUTCOME>93</OUTCOME>
      <OUTCOME>94</OUTCOME>
      <OUTCOME>95</OUTCOME>
      <OUTCOME>96</OUTCOME>
      <OUTCOME>97</OUTCOME>
      <OUTCOME>98</OUTCOME>
      <OUTCOME>99</OUTCOME>
      <PROPERTY />
    </VARIABLE>
    <VARIABLE TYPE="nature">
      <NAME>Perpetrator Race</NAME>
      <OUTCOME>Asian_Pacific Islander</OUTCOME>
      <OUTCOME>Black</OUTCOME>
      <OUTCOME>Native American_Alaska Native</OUTCOME>
      <OUTCOME>White</OUTCOME>
      <PROPERTY />
    </VARIABLE>
    <VARIABLE TYPE="nature">
      <NAME>Perpetrator Sex</NAME>
      <OUTCOME>Female</OUTCOME>
      <OUTCOME>Male</OUTCOME>
      <PROPERTY />
    </VARIABLE>
    <VARIABLE TYPE="nature">
      <NAME>Relationship</NAME>
      <OUTCOME>Acquaintance</OUTCOME>
      <OUTCOME>Boyfriend</OUTCOME>
      <OUTCOME>Boyfriend_Girlfriend</OUTCOME>
      <OUTCOME>Brother</OUTCOME>
      <OUTCOME>Common_Law Husband</OUTCOME>
      <OUTCOME>Common_Law Wife</OUTCOME>
      <OUTCOME>Daughter</OUTCOME>
      <OUTCOME>Employee</OUTCOME>
      <OUTCOME>Employer</OUTCOME>
      <OUTCOME>Ex_Husband</OUTCOME>
      <OUTCOME>Ex_Wife</OUTCOME>
      <OUTCOME>Family</OUTCOME>
      <OUTCOME>Father</OUTCOME>
      <OUTCOME>Friend</OUTCOME>
      <OUTCOME>Girlfriend</OUTCOME>
      <OUTCOME>Husband</OUTCOME>
      <OUTCOME>In_Law</OUTCOME>
      <OUTCOME>Mother</OUTCOME>
      <OUTCOME>Neighbor</OUTCOME>
      <OUTCOME>Sister</OUTCOME>
      <OUTCOME>Son</OUTCOME>
      <OUTCOME>Stepdaughter</OUTCOME>
      <OUTCOME>Stepfather</OUTCOME>
      <OUTCOME>Stepmother</OUTCOME>
      <OUTCOME>Stepson</OUTCOME>
      <OUTCOME>Stranger</OUTCOME>
      <OUTCOME>Wife</OUTCOME>
      <PROPERTY />
    </VARIABLE>
    <VARIABLE TYPE="nature">
      <NAME>Victim Age</NAME>
      <OUTCOME>0</OUTCOME>
      <OUTCOME>1</OUTCOME>
      <OUTCOME>2</OUTCOME>
      <OUTCOME>3</OUTCOME>
      <OUTCOME>4</OUTCOME>
      <OUTCOME>5</OUTCOME>
      <OUTCOME>6</OUTCOME>
      <OUTCOME>7</OUTCOME>
      <OUTCOME>8</OUTCOME>
      <OUTCOME>9</OUTCOME>
      <OUTCOME>10</OUTCOME>
      <OUTCOME>11</OUTCOME>
      <OUTCOME>12</OUTCOME>
      <OUTCOME>13</OUTCOME>
      <OUTCOME>14</OUTCOME>
      <OUTCOME>15</OUTCOME>
      <OUTCOME>16</OUTCOME>
      <OUTCOME>17</OUTCOME>
      <OUTCOME>18</OUTCOME>
      <OUTCOME>19</OUTCOME>
      <OUTCOME>20</OUTCOME>
      <OUTCOME>21</OUTCOME>
      <OUTCOME>22</OUTCOME>
      <OUTCOME>23</OUTCOME>
      <OUTCOME>24</OUTCOME>
      <OUTCOME>25</OUTCOME>
      <OUTCOME>26</OUTCOME>
      <OUTCOME>27</OUTCOME>
      <OUTCOME>28</OUTCOME>
      <OUTCOME>29</OUTCOME>
      <OUTCOME>30</OUTCOME>
      <OUTCOME>31</OUTCOME>
      <OUTCOME>32</OUTCOME>
      <OUTCOME>33</OUTCOME>
      <OUTCOME>34</OUTCOME>
      <OUTCOME>35</OUTCOME>
      <OUTCOME>36</OUTCOME>
      <OUTCOME>37</OUTCOME>
      <OUTCOME>38</OUTCOME>
      <OUTCOME>39</OUTCOME>
      <OUTCOME>40</OUTCOME>
      <OUTCOME>41</OUTCOME>
      <OUTCOME>42</OUTCOME>
      <OUTCOME>43</OUTCOME>
      <OUTCOME>44</OUTCOME>
      <OUTCOME>45</OUTCOME>
      <OUTCOME>46</OUTCOME>
      <OUTCOME>47</OUTCOME>
      <OUTCOME>48</OUTCOME>
      <OUTCOME>49</OUTCOME>
      <OUTCOME>50</OUTCOME>
      <OUTCOME>51</OUTCOME>
      <OUTCOME>52</OUTCOME>
      <OUTCOME>53</OUTCOME>
      <OUTCOME>54</OUTCOME>
      <OUTCOME>55</OUTCOME>
      <OUTCOME>56</OUTCOME>
      <OUTCOME>57</OUTCOME>
      <OUTCOME>58</OUTCOME>
      <OUTCOME>59</OUTCOME>
      <OUTCOME>60</OUTCOME>
      <OUTCOME>61</OUTCOME>
      <OUTCOME>62</OUTCOME>
      <OUTCOME>63</OUTCOME>
      <OUTCOME>64</OUTCOME>
      <OUTCOME>65</OUTCOME>
      <OUTCOME>66</OUTCOME>
      <OUTCOME>67</OUTCOME>
      <OUTCOME>68</OUTCOME>
      <OUTCOME>69</OUTCOME>
      <OUTCOME>70</OUTCOME>
      <OUTCOME>71</OUTCOME>
      <OUTCOME>72</OUTCOME>
      <OUTCOME>73</OUTCOME>
      <OUTCOME>74</OUTCOME>
      <OUTCOME>75</OUTCOME>
      <OUTCOME>76</OUTCOME>
      <OUTCOME>77</OUTCOME>
      <OUTCOME>78</OUTCOME>
      <OUTCOME>79</OUTCOME>
      <OUTCOME>80</OUTCOME>
      <OUTCOME>81</OUTCOME>
      <OUTCOME>82</OUTCOME>
      <OUTCOME>83</OUTCOME>
      <OUTCOME>84</OUTCOME>
      <OUTCOME>85</OUTCOME>
      <OUTCOME>86</OUTCOME>
      <OUTCOME>87</OUTCOME>
      <OUTCOME>88</OUTCOME>
      <OUTCOME>89</OUTCOME>
      <OUTCOME>90</OUTCOME>
      <OUTCOME>91</OUTCOME>
      <OUTCOME>92</OUTCOME>
      <OUTCOME>93</OUTCOME>
      <OUTCOME>94</OUTCOME>
      <OUTCOME>95</OUTCOME>
      <OUTCOME>96</OUTCOME>
      <OUTCOME>97</OUTCOME>
      <OUTCOME>98</OUTCOME>
      <OUTCOME>99</OUTCOME>
      <OUTCOME>998</OUTCOME>
      <PROPERTY />
    </VARIABLE>
    <VARIABLE TYPE="nature">
      <NAME>Victim Race</NAME>
      <OUTCOME>Asian_Pacific Islander</OUTCOME>
      <OUTCOME>Black</OUTCOME>
      <OUTCOME>Native American_Alaska Native</OUTCOME>
      <OUTCOME>White</OUTCOME>
      <PROPERTY />
    </VARIABLE>
    <VARIABLE TYPE="nature">
      <NAME>Victim Sex</NAME>
      <OUTCOME>Female</OUTCOME>
      <OUTCOME>Male</OUTCOME>
      <PROPERTY />
    </VARIABLE>
    <VARIABLE TYPE="nature">
      <NAME>Weapon</NAME>
      <OUTCOME>Blunt Object</OUTCOME>
      <OUTCOME>Drowning</OUTCOME>
      <OUTCOME>Drugs</OUTCOME>
      <OUTCOME>Explosives</OUTCOME>
      <OUTCOME>Fall</OUTCOME>
      <OUTCOME>Fire</OUTCOME>
      <OUTCOME>Firearm</OUTCOME>
      <OUTCOME>Gun</OUTCOME>
      <OUTCOME>Handgun</OUTCOME>
      <OUTCOME>Knife</OUTCOME>
      <OUTCOME>Poison</OUTCOME>
      <OUTCOME>Rifle</OUTCOME>
      <OUTCOME>Shotgun</OUTCOME>
      <OUTCOME>Strangulation</OUTCOME>
      <OUTCOME>Suffocation</OUTCOME>
      <PROPERTY />
    </VARIABLE>
    <DEFINITION>
      <FOR>Perpetrator Age</FOR>
      <GIVEN>Relationship</GIVEN>
      <TABLE>0.02584829086649094 8.367850717543199e-06 8.367850717543199e-06 1.6735701435086397e-05 2.5103552152629598e-05 1.6735701435086397e-05 4.1839253587715995e-05 5.0207104305259195e-05 6.694280574034559e-05 0.00010878205932806159 0.00018409271578595038 0.00034308187941927115 0.0007949458181666039 0.0022091125894314043 0.005146228191289067 0.012225429898330614 0.02220827580435965 0.03599849378687084 0.04775532404501904 0.05282624157985021 0.0517384209865696 0.0487176268775365 0.04768838123927869 0.04434960880297895 0.04097736496380905 0.04218233546713527 0.03588971172754278 0.03393163465963767 0.03238358227689218 0.02956361658508012 0.03081042634199406 0.025613991046399734 0.025044977197606795 0.022568093385214007 0.020911258943140453 0.021522112045521107 0.018032718296305594 0.017689636416886322 0.016016066273377684 0.015555834483912807 0.014744152964311117 0.012292372704070959 0.012752604493535836 0.011547633990209614 0.010309192084013222 0.010284088531860592 0.00855194343332915 0.007999665285971298 0.007439019287895904 0.007095937408476633 0.006652441320446843 0.005757081293669721 0.005313585205639931 0.004928664072632944 0.004426593029580352 0.00434291452240492 0.004217396761641772 0.003439186644910255 0.003071001213338354 0.0029705870047278355 0.002727919333919083 0.0022927910966068364 0.0022007447387138615 0.0018325593071419606 0.0017154093970963558 0.0016233630392033806 0.0013388561148069118 0.001305384711936739 0.001221706204761307 0.0009539349817999247 0.0011882348018911343 0.0007614744152964311 0.0007614744152964311 0.0007614744152964311 0.00044349608802978955 0.0005522781473578511 0.0005271745952052215 0.00035144973013681433 0.00032634617798418477 0.00032634617798418477 0.0003179783272666416 0.00017572486506840717 0.00016735701435086398 0.00016735701435086398 0.00018409271578595038 0.000125517760763148 0.00010041420861051839 8.367850717543199e-05 4.1839253587715995e-05 5.0207104305259195e-05 5.0207104305259195e-05 2.5103552152629598e-05 2.5103552152629598e-05 1.6735701435086397e-05 8.367850717543199e-06 8.367850717543199e-06 8.367850717543199e-06 0.0 0.0 2.5103552152629598e-05 0.01025787149166548 0.0 0.0 0.0 0.0 0.00014247043738424277 0.0 0.0 0.0 0.0 0.0 0.0 0.0 0.00014247043738424277 0.0011397634990739421 0.0028494087476848553 0.008405755805670323 0.012109987177660635 0.01951844992164126 0.02920643966376977 0.035760079783444934 0.030061262288075225 0.037897136344208576 0.03718478415728736 0.039321840718051004 0.03946431115543525 0.038894429405898275 0.03547513890867645 0.038467018093745545 0.03946431115543525 0.041886308590967376 0.03148596666191765 0.03319561191052856 0.03191337797407038 0.03234078928622311 0.031058555349764923 0.029491380538538253 0.027496794415158853 0.028066676164695825 0.021797976919789144 0.023507622168400057 0.02251032910671036 0.018378686422567316 0.01752386379826186 0.01795127511041459 0.018093745547798832 0.013677161988887306 0.013107280239350335 0.01538680723749822 0.01025787149166548 0.009260578429975781 0.009972930616896993 0.005983758370138197 0.005556347057985468 0.0044165835589115255 0.005698817495369711 0.003846701809374555 0.0022795269981478843 0.0021370565607636417 0.0022795269981478843 0.0022795269981478843 0.001282233936458185 0.0014247043738424277 0.0011397634990739421 0.0011397634990739421 0.0008548226243054566 0.0007123521869212138 0.0007123521869212138 0.0005698817495369711 0.0005698817495369711 0.0007123521869212138 0.00014247043738424277 0.0005698817495369711 0.00028494087476848553 0.00028494087476848553 0.00028494087476848553 0.00028494087476848553 0.0 0.00014247043738424277 0.0 0.0 0.00014247043738424277 0.0 0.00014247043738424277 0.0 0.0 0.0 0.0 0.0 0.0 0.0 0.0 0.0 0.0 0.0 0.0 0.0 0.0 0.0 0.0 0.011494252873563218 0.0 0.0 0.0 0.0 0.0 0.0 0.0 0.0 0.0 0.0 0.0 0.0 0.0 0.0 0.003284072249589491 0.005747126436781609 0.013957307060755337 0.034482758620689655 0.0451559934318555 0.03858784893267652 0.040229885057471264 0.040229885057471264 0.04433497536945813 0.035303776683087026 0.060755336617405585 0.055008210180623976 0.03694581280788178 0.042692939244663386 0.040229885057471264 0.04433497536945813 0.027093596059113302 0.030377668308702793 0.026272577996715927 0.022988505747126436 0.03201970443349754 0.021346469622331693 0.013957307060755337 0.024630541871921183 0.014778325123152709 0.015599343185550082 0.018883415435139574 0.009852216748768473 0.017241379310344827 0.014778325123152709 0.013136288998357963 0.013136288998357963 0.009852216748768473 0.008210180623973728 0.007389162561576354 0.0090311986863711 0.0090311986863711 0.005747126436781609 0.0049261083743842365 0.003284072249589491 0.0024630541871921183 0.003284072249589491 0.003284072249589491 0.005747126436781609 0.003284072249589491 0.0024630541871921183 0.0016420361247947454 0.004105090311986864 0.0024630541871921183 0.0 0.0024630541871921183 0.0 0.0008210180623973727 0.0 0.0 0.0 0.0008210180623973727 0.0008210180623973727 0.0 0.0 0.0 0.0 0.0 0.0 0.0 0.0 0.0 0.0 0.0 0.0 0.0 0.0 0.0 0.0 0.0 0.0 0.0 0.0 0.0 0.0 0.0 0.0 0.0 0.0 0.0 0.01102803738317757 0.0 0.00018691588785046728 0.0014953271028037382 0.0016822429906542056 0.00205607476635514 0.002429906542056075 0.00037383177570093456 0.002616822429906542 0.004672897196261682 0.003738317757009346 0.004672897196261682 0.00822429906542056 0.012897196261682243 0.02 0.027663551401869158 0.0308411214953271 0.02560747663551402 0.03719626168224299 0.034018691588785045 0.034205607476635515 0.03570093457943925 0.03663551401869159 0.03457943925233645 0.030654205607476635 0.029532710280373832 0.03327102803738318 0.0308411214953271 0.026355140186915888 0.029532710280373832 0.02560747663551402 0.020186915887850466 0.025981308411214953 0.021121495327102804 0.023177570093457944 0.021121495327102804 0.01925233644859813 0.018691588785046728 0.019813084112149534 0.018691588785046728 0.018878504672897197 0.015327102803738318 0.013644859813084113 0.012897196261682243 0.014392523364485982 0.013644859813084113 0.01102803738317757 0.011214953271028037 0.01177570093457944 0.010280373831775701 0.009345794392523364 0.006355140186915888 0.008411214953271028 0.006915887850467289 0.007476635514018692 0.008411214953271028 0.006168224299065421 0.004485981308411215 0.004485981308411215 0.00411214953271028 0.004485981308411215 0.0035514018691588786 0.003177570093457944 0.004299065420560748 0.0011214953271028037 0.002803738317757009 0.00205607476635514 0.001869158878504673 0.0016822429906542056 0.0011214953271028037 0.0007476635514018691 0.0007476635514018691 0.0014953271028037382 0.0014953271028037382 0.00037383177570093456 0.0005607476635514019 0.0014953271028037382 0.00037383177570093456 0.00018691588785046728 0.0 0.00018691588785046728 0.0 0.00037383177570093456 0.0 0.00018691588785046728 0.0 0.0 0.0 0.0 0.0 0.0 0.0 0.0 0.0 0.0 0.0 0.0 0.0 0.0 0.0 0.011572856391372961 0.0 0.0 0.0 0.0 0.0 0.0 0.0 0.0 0.0 0.0 0.0 0.0 0.0 0.0005260389268805891 0.0021041557075223566 0.0021041557075223566 0.005786428195686481 0.009468700683850605 0.0194634402945818 0.021567596002104155 0.017359284587059442 0.028406102051551814 0.0341925302472383 0.034718569174118884 0.03261441346659653 0.03314045239347712 0.041031036296685953 0.041557075223566546 0.03787480273540242 0.042609153077327724 0.03840084166228301 0.04050499736980537 0.029458179905312992 0.03577064702788006 0.033666491320357705 0.03103629668595476 0.03314045239347712 0.033666491320357705 0.026827985270910047 0.022619673855865333 0.02524986849026828 0.028406102051551814 0.015781167806417674 0.016307206733298264 0.011572856391372961 0.0194634402945818 0.015255128879537085 0.015781167806417674 0.01262493424513414 0.010520778537611783 0.010520778537611783 0.010520778537611783 0.00631246712256707 0.006838506049447659 0.004734350341925302 0.006838506049447659 0.004734350341925302 0.006838506049447659 0.004208311415044713 0.004734350341925302 0.003682272488164124 0.003682272488164124 0.0021041557075223566 0.0005260389268805891 0.0026301946344029457 0.0015781167806417674 0.0 0.0010520778537611783 0.0010520778537611783 0.0010520778537611783 0.0 0.0010520778537611783 0.0005260389268805891 0.0 0.0010520778537611783 0.0 0.0010520778537611783 0.0 0.0 0.0 0.0 0.0 0.0 0.0 0.0 0.0005260389268805891 0.0 0.0 0.0 0.0 0.0 0.0 0.0 0.0 0.0 0.0 0.0 0.0 0.0 0.016652433817250213 0.0 0.0 0.0 0.0 0.0 0.0 0.0 0.0 0.0 0.0 0.0 0.0 0.0004269854824935952 0.0 0.0004269854824935952 0.0008539709649871904 0.0034158838599487617 0.004269854824935952 0.0064047822374039285 0.011101622544833475 0.013663535439795047 0.017933390264730998 0.028181041844577284 0.02305721605465414 0.02775405636208369 0.03031596925704526 0.02860802732707088 0.03202391118701964 0.036293766011955594 0.037147736976942784 0.035866780529461996 0.034585824081981215 0.029035012809564473 0.037574722459436376 0.03842869342442357 0.034585824081981215 0.027327070879590094 0.032450896669513236 0.02775405636208369 0.025619128949615714 0.02860802732707088 0.02220324508966695 0.023484201537147736 0.030742954739538857 0.02134927412467976 0.018360375747224593 0.02134927412467976 0.018787361229718188 0.018787361229718188 0.007685738684884714 0.013663535439795047 0.011955593509820665 0.007685738684884714 0.00982066609735269 0.01067463706233988 0.008966695132365499 0.0064047822374039285 0.006831767719897523 0.009393680614859094 0.006831767719897523 0.0064047822374039285 0.0064047822374039285 0.003842869342442357 0.004269854824935952 0.006831767719897523 0.0012809564474807857 0.0034158838599487617 0.0029888983774551663 0.0025619128949615714 0.0034158838599487617 0.0017079419299743809 0.0017079419299743809 0.0008539709649871904 0.0012809564474807857 0.0004269854824935952 0.0004269854824935952 0.0004269854824935952 0.0012809564474807857 0.0008539709649871904 0.0004269854824935952 0.0017079419299743809 0.0004269854824935952 0.0004269854824935952 0.0004269854824935952 0.0008539709649871904 0.0 0.0 0.0 0.0 0.0 0.0 0.0 0.0 0.0 0.0 0.0 0.0 0.0 0.0 0.015399422521655439 0.00016041065126724414 0.00016041065126724414 0.0 0.0 0.0 0.0 0.0 0.0 0.0 0.0 0.0 0.0 0.001122874558870709 0.0025665704202759063 0.00465190888675008 0.011870388193776067 0.01588065447545717 0.02630734680782804 0.036252807186397173 0.04282964388835419 0.05534167468719923 0.05646454924606994 0.04924606993904395 0.04972730189284569 0.04732114212383702 0.04186717998075072 0.04154635867821623 0.03577157523259544 0.03609239653512993 0.03994225216554379 0.026788578761629774 0.028071863971767724 0.02743022136669875 0.03496952197625922 0.02550529355149182 0.020692974013474495 0.02277831247994867 0.016522297080526147 0.015720243824189926 0.01588065447545717 0.012672441450112287 0.01668270773179339 0.009785049727301893 0.009464228424767405 0.00930381777350016 0.007860121912094963 0.007539300609560475 0.005774783445620789 0.005935194096888034 0.007378889958293231 0.005133140840551813 0.004010266281681104 0.005614372794353545 0.0036894449791466154 0.002406159769008662 0.0025665704202759063 0.003208213025344883 0.003529034327879371 0.0028873917228103944 0.002406159769008662 0.0028873917228103944 0.0019249278152069298 0.0016041065126724415 0.002085338466474174 0.002085338466474174 0.0017645171639396856 0.0017645171639396856 0.0012832852101379532 0.001122874558870709 0.0008020532563362208 0.0003208213025344883 0.001122874558870709 0.0008020532563362208 0.00048123195380173246 0.0008020532563362208 0.00048123195380173246 0.00048123195380173246 0.0006416426050689766 0.0003208213025344883 0.00016041065126724414 0.0012832852101379532 0.00016041065126724414 0.00048123195380173246 0.00048123195380173246 0.00016041065126724414 0.00048123195380173246 0.0 0.0003208213025344883 0.00016041065126724414 0.00016041065126724414 0.0 0.00016041065126724414 0.0 0.0003208213025344883 0.0 0.00016041065126724414 0.0 0.0 0.0 0.011627906976744186 0.0 0.0 0.0 0.0 0.0 0.0 0.0 0.0 0.0 0.0 0.0 0.0029069767441860465 0.0029069767441860465 0.0 0.0029069767441860465 0.005813953488372093 0.0029069767441860465 0.011627906976744186 0.011627906976744186 0.03197674418604651 0.014534883720930232 0.01744186046511628 0.03197674418604651 0.01744186046511628 0.046511627906976744 0.020348837209302327 0.03197674418604651 0.02616279069767442 0.023255813953488372 0.02616279069767442 0.03488372093023256 0.02616279069767442 0.014534883720930232 0.011627906976744186 0.020348837209302327 0.020348837209302327 0.02616279069767442 0.02616279069767442 0.020348837209302327 0.020348837209302327 0.0436046511627907 0.02616279069767442 0.020348837209302327 0.023255813953488372 0.01744186046511628 0.011627906976744186 0.011627906976744186 0.040697674418604654 0.01744186046511628 0.011627906976744186 0.014534883720930232 0.01744186046511628 0.01744186046511628 0.005813953488372093 0.01744186046511628 0.014534883720930232 0.011627906976744186 0.020348837209302327 0.005813953488372093 0.0 0.0 0.0 0.00872093023255814 0.01744186046511628 0.0029069767441860465 0.00872093023255814 0.005813953488372093 0.005813953488372093 0.0029069767441860465 0.005813953488372093 0.0 0.0 0.014534883720930232 0.005813953488372093 0.0 0.0 0.0 0.0 0.0 0.005813953488372093 0.0029069767441860465 0.0 0.0029069767441860465 0.0 0.0 0.0 0.0 0.0 0.0 0.0 0.0 0.0 0.0 0.0 0.0 0.0 0.0 0.0 0.0 0.010482180293501049 0.0 0.0 0.0 0.0 0.0 0.0 0.0 0.0 0.0 0.0 0.0 0.0 0.0 0.0 0.0020964360587002098 0.008385744234800839 0.018867924528301886 0.023060796645702306 0.039832285115303984 0.018867924528301886 0.025157232704402517 0.020964360587002098 0.03563941299790356 0.033542976939203356 0.033542976939203356 0.039832285115303984 0.03563941299790356 0.029350104821802937 0.041928721174004195 0.025157232704402517 0.016771488469601678 0.03563941299790356 0.027253668763102725 0.027253668763102725 0.016771488469601678 0.0440251572327044 0.031446540880503145 0.020964360587002098 0.020964360587002098 0.023060796645702306 0.018867924528301886 0.008385744234800839 0.020964360587002098 0.014675052410901468 0.025157232704402517 0.010482180293501049 0.012578616352201259 0.012578616352201259 0.0041928721174004195 0.027253668763102725 0.025157232704402517 0.010482180293501049 0.014675052410901468 0.008385744234800839 0.014675052410901468 0.008385744234800839 0.008385744234800839 0.016771488469601678 0.010482180293501049 0.0020964360587002098 0.0020964360587002098 0.0 0.0020964360587002098 0.0041928721174004195 0.0020964360587002098 0.0020964360587002098 0.0 0.0 0.0 0.0041928721174004195 0.0 0.0 0.0 0.0 0.0 0.0 0.0 0.0 0.0 0.0 0.0 0.0020964360587002098 0.0 0.0 0.0 0.0 0.0 0.0 0.0 0.0 0.0 0.0 0.0 0.0 0.0 0.0 0.0 0.0 0.0 0.005008347245409015 0.0 0.0 0.0 0.0 0.0 0.0 0.0 0.0 0.0 0.0 0.0 0.0 0.0 0.0 0.001669449081803005 0.0 0.0 0.00333889816360601 0.001669449081803005 0.005008347245409015 0.008347245409015025 0.011686143572621035 0.021702838063439065 0.01669449081803005 0.03672787979966611 0.038397328881469114 0.02003338898163606 0.02671118530884808 0.045075125208681135 0.045075125208681135 0.04340567612687813 0.04674457429048414 0.04340567612687813 0.041736227045075125 0.038397328881469114 0.04006677796327212 0.028380634390651086 0.04340567612687813 0.02337228714524207 0.0333889816360601 0.04006677796327212 0.028380634390651086 0.03005008347245409 0.02003338898163606 0.02003338898163606 0.01001669449081803 0.02337228714524207 0.015025041736227046 0.015025041736227046 0.01335559265442404 0.01335559265442404 0.00667779632721202 0.01335559265442404 0.005008347245409015 0.015025041736227046 0.011686143572621035 0.0 0.008347245409015025 0.008347245409015025 0.005008347245409015 0.00667779632721202 0.00333889816360601 0.001669449081803005 0.0 0.005008347245409015 0.00667779632721202 0.0 0.0 0.0 0.0 0.0 0.0 0.0 0.0 0.0 0.0 0.005008347245409015 0.0 0.0 0.0 0.0 0.0 0.0 0.0 0.0 0.0 0.0 0.0 0.0 0.0 0.0 0.0 0.0 0.0 0.0 0.0 0.0 0.0 0.0 0.010554089709762533 0.0005277044854881266 0.0 0.0 0.0 0.0 0.0 0.0 0.0 0.0 0.0 0.0 0.0 0.0 0.0 0.0 0.0 0.0 0.0005277044854881266 0.0005277044854881266 0.0021108179419525065 0.005804749340369393 0.008970976253298154 0.01108179419525066 0.0158311345646438 0.01424802110817942 0.02216358839050132 0.0158311345646438 0.025329815303430078 0.026385224274406333 0.027968337730870714 0.031134564643799472 0.03324538258575198 0.02955145118733509 0.03641160949868074 0.04063324538258575 0.030606860158311346 0.04116094986807388 0.0316622691292876 0.03007915567282322 0.03218997361477573 0.03535620052770449 0.029023746701846966 0.03430079155672823 0.033773087071240104 0.036939313984168866 0.026385224274406333 0.025329815303430078 0.029023746701846966 0.023746701846965697 0.016886543535620052 0.025857519788918207 0.015303430079155673 0.014775725593667546 0.014775725593667546 0.010026385224274407 0.01108179419525066 0.007387862796833773 0.01108179419525066 0.008443271767810026 0.006860158311345646 0.0079155672823219 0.005804749340369393 0.008443271767810026 0.00474934036939314 0.0021108179419525065 0.0021108179419525065 0.0079155672823219 0.0036939313984168864 0.0021108179419525065 0.0015831134564643799 0.0015831134564643799 0.0021108179419525065 0.0005277044854881266 0.0021108179419525065 0.0010554089709762533 0.0010554089709762533 0.0005277044854881266 0.0005277044854881266 0.0 0.0 0.0005277044854881266 0.0 0.0015831134564643799 0.0005277044854881266 0.0 0.0 0.0 0.0005277044854881266 0.0 0.0 0.0 0.0 0.0 0.0 0.0 0.0 0.0 0.0 0.0 0.01576652130157665 0.0 0.0 0.00011181930001118193 0.0003354579000335458 0.00011181930001118193 0.0007827351000782735 0.001453650900145365 0.0007827351000782735 0.0010063737001006373 0.0008945544000894555 0.00290730180029073 0.007044615900704461 0.009951917700995192 0.015990159901599015 0.023705691602370568 0.026948451302694847 0.033210332103321034 0.040366767304036676 0.04662864810466286 0.04070222520407022 0.03936039360393604 0.038913116403891314 0.03690036900369004 0.035223079503522305 0.03667673040366767 0.033210332103321034 0.03198031980319803 0.02952029520295203 0.025942077602594208 0.025942077602594208 0.024041149502404116 0.021692944202169294 0.023929330202392934 0.02146930560214693 0.02035111260203511 0.01845018450184502 0.01621379850162138 0.01397741250139774 0.014312870401431288 0.01162920720116292 0.015095605501509561 0.01274740020127474 0.01162920720116292 0.010287375601028737 0.011741026501174102 0.0092810019009281 0.012635580901263557 0.009504640500950463 0.008610086100861008 0.00749189310074919 0.007603712400760371 0.008050989600805098 0.006150061500615006 0.005590965000559097 0.0072682545007268255 0.005367326400536733 0.004137314100413732 0.005031868500503187 0.004360952700436095 0.003578217600357822 0.0026836632002683663 0.003578217600357822 0.00346639830034664 0.00290730180029073 0.0033545790003354577 0.00290730180029073 0.002571843900257184 0.0021245667002124566 0.00290730180029073 0.0027954825002795484 0.0016772895001677288 0.0006709158000670916 0.0020127474002012745 0.001789108800178911 0.0016772895001677288 0.0013418316001341832 0.0008945544000894555 0.00011181930001118193 0.00044727720004472774 0.0005590965000559097 0.0005590965000559097 0.0005590965000559097 0.0005590965000559097 0.0006709158000670916 0.0007827351000782735 0.0005590965000559097 0.00022363860002236387 0.0 0.0003354579000335458 0.00011181930001118193 0.00011181930001118193 0.00011181930001118193 0.0 0.00011181930001118193 0.0 0.00011181930001118193 0.00011181930001118193 0.0 0.0 0.011078998073217727 0.0 0.0 0.0004816955684007707 0.00024084778420038535 0.0 0.0 0.00024084778420038535 0.0009633911368015414 0.0004816955684007707 0.002167630057803468 0.0016859344894026974 0.006021194605009634 0.01083815028901734 0.021435452793834298 0.04046242774566474 0.05659922928709056 0.05804431599229287 0.04407514450867052 0.049132947976878616 0.04263005780346821 0.04841040462427745 0.03636801541425819 0.04335260115606936 0.03998073217726397 0.03227360308285164 0.029624277456647398 0.03058766859344894 0.03227360308285164 0.026252408477842003 0.02842003853564547 0.024566473988439308 0.02288053949903661 0.02288053949903661 0.019990366088631986 0.014932562620423893 0.018304431599229287 0.014691714836223507 0.012283236994219654 0.012764932562620424 0.014932562620423893 0.014210019267822735 0.012042389210019268 0.011801541425818882 0.008188824662813102 0.00674373795761079 0.009152215799614644 0.006021194605009634 0.008670520231213872 0.006984585741811176 0.0050578034682080926 0.004816955684007707 0.0050578034682080926 0.0036127167630057803 0.004335260115606936 0.003371868978805395 0.0024084778420038534 0.0026493256262042388 0.0019267822736030828 0.001445086705202312 0.002890173410404624 0.0009633911368015414 0.00024084778420038535 0.0009633911368015414 0.0004816955684007707 0.0009633911368015414 0.00024084778420038535 0.000722543352601156 0.0004816955684007707 0.00024084778420038535 0.0 0.00024084778420038535 0.0004816955684007707 0.00024084778420038535 0.0 0.0 0.0 0.0 0.0 0.0 0.0 0.0 0.0 0.0 0.0 0.0 0.0 0.0 0.0 0.0 0.0 0.0 0.0 0.0 0.0 0.0 0.0 0.0 0.0 0.0 0.012776010027962588 0.0 0.0 0.0 9.642271719217047e-05 0.0001446340757882557 0.0001446340757882557 0.0002410567929804262 0.0002410567929804262 0.00043390222736476716 0.0012534953234982161 0.0019284543438434095 0.0037604859704946487 0.007713817375373638 0.013450969048307782 0.021116575065085335 0.028155433420113778 0.035290714492334396 0.041558191109825476 0.04575257930768489 0.04657217240381834 0.044113393115417995 0.04102786616526854 0.04025648442773117 0.0375566483463504 0.03664063253302478 0.03557998264391091 0.03341047150708707 0.032928357921126215 0.029167871950631568 0.029939253688168934 0.025793076848905604 0.023816411146466106 0.02280397261594832 0.020104136534567545 0.021502265933854015 0.02044161604474014 0.017452511811782857 0.017597145887571112 0.01610259377109247 0.01528300067495902 0.01316170089673127 0.011811782856040884 0.012631375952174333 0.010172596663773984 0.01113682383569569 0.01002796258798573 0.009931539870793558 0.009642271719217048 0.00800308552695015 0.006604956127663678 0.006219265258894996 0.006219265258894996 0.006315687976087166 0.005785363031530229 0.004772924501012439 0.004097965480667245 0.0038086973290907336 0.004242599556455501 0.003278372384533796 0.003278372384533796 0.0026998360813807734 0.003278372384533796 0.0026998360813807734 0.002651624722784688 0.0022659338540160063 0.001590974833670813 0.001832031626651239 0.0013499180406903867 0.0009160158133256195 0.0009642271719217047 0.0008678044547295343 0.0006267476617491081 0.0009642271719217047 0.0004821135859608524 0.0004821135859608524 0.00043390222736476716 0.00033747951017259667 0.00043390222736476716 0.0003856908687686819 0.00019284543438434094 9.642271719217047e-05 0.00033747951017259667 9.642271719217047e-05 0.0 0.0001446340757882557 9.642271719217047e-05 9.642271719217047e-05 4.8211358596085236e-05 0.0 0.0 0.0001446340757882557 4.8211358596085236e-05 4.8211358596085236e-05 0.0 0.0 4.8211358596085236e-05 0.0 0.0 4.8211358596085236e-05 0.011393060590367685 0.0 0.0 0.0 0.0 0.0 0.0 0.0 0.0 0.0 6.47332988089073e-05 6.47332988089073e-05 0.0001941998964267219 0.0001294665976178146 0.0010357327809425167 0.0018772656654583119 0.00576126359399275 0.009774728120145003 0.014823925427239771 0.02136198860693941 0.026540652511651993 0.031784049715173485 0.035603314344899016 0.0354738477472812 0.03890471258415329 0.03657431382703263 0.03269031589849819 0.03476178146038322 0.03553858104609011 0.03605644743656137 0.03502071465561885 0.031525116519937856 0.030424650440186433 0.031525116519937856 0.02848265147591921 0.02906525116519938 0.026281719316416364 0.02731745209735888 0.0256991196271362 0.026475919212843087 0.022656654583117556 0.022462454686690832 0.019549456240290006 0.020002589331952356 0.01993785603314345 0.01702485758674262 0.014953392024857588 0.016636457793889177 0.015277058518902124 0.011846193682030036 0.01197566027964785 0.01197566027964785 0.010227861211807354 0.008738995339202485 0.008544795442775763 0.008221128948731227 0.006538063179699637 0.0067969963749352665 0.005696530295183843 0.0054375970999482135 0.0036250647332988087 0.0033661315380631796 0.002977731745209736 0.0026540652511651995 0.0036250647332988087 0.0015535991714137752 0.001747799067840497 0.001747799067840497 0.0013593992749870534 0.0016183324702226825 0.001294665976178146 0.0009709994821336096 0.001294665976178146 0.0005178663904712584 0.000647332988089073 0.0004531330916623511 0.0007120662868979803 0.0003236664940445365 0.0005178663904712584 0.0004531330916623511 0.0004531330916623511 0.0003236664940445365 0.0001941998964267219 0.0001294665976178146 6.47332988089073e-05 0.0001941998964267219 0.0001294665976178146 0.0001294665976178146 0.0 6.47332988089073e-05 6.47332988089073e-05 0.0 0.0 0.0 0.0 0.0 0.0 0.0 6.47332988089073e-05 0.0 0.01174674027957242 0.0 0.0 0.0 0.00011746740279572419 0.0 0.0 0.0 0.0 0.0 0.0 0.0 0.0 0.0 0.00011746740279572419 0.0008222718195700693 0.0007048044167743451 0.0019969458475273113 0.005286033125807588 0.007400446376130624 0.007165511570539175 0.013861153529895453 0.01656290379419711 0.020791730294843182 0.02502055679548925 0.025138024198284977 0.029131915893339598 0.027604839656995183 0.02936685069893105 0.03230353576882415 0.032890872782802776 0.03312580758839422 0.034652883824738634 0.03418301421355574 0.0330083401855985 0.03371314460237284 0.030658992129684013 0.031598731352049804 0.028192176670973804 0.029131915893339598 0.02748737225419946 0.0252554916010807 0.02924938329613532 0.02384588276753201 0.02102666510043463 0.02302361094796194 0.020791730294843182 0.02161400211441325 0.019734523669681665 0.01632796898860566 0.017267708210971455 0.014683425349465524 0.014918360155056971 0.013626218724304006 0.014565957946669799 0.011159403265593797 0.007165511570539175 0.01151180547398097 0.010572066251615176 0.00927992482086221 0.007165511570539175 0.0054035005286033125 0.0046986961118289676 0.004581228709033243 0.0054035005286033125 0.003993891695054623 0.004933630917420416 0.0036414894866674498 0.004111359097850347 0.004581228709033243 0.002936685069893105 0.0027017502643016562 0.0011746740279572419 0.001879478444731587 0.0009397392223657935 0.0023493480559144838 0.001292141430752966 0.0017620110419358627 0.0009397392223657935 0.0008222718195700693 0.0014096088335486903 0.00046986961118289676 0.0008222718195700693 0.00035240220838717257 0.00046986961118289676 0.00035240220838717257 0.00035240220838717257 0.00046986961118289676 0.0 0.0 0.00011746740279572419 0.00035240220838717257 0.0 0.0 0.0 0.00011746740279572419 0.0 0.0 0.0 0.0 0.00823162077774624 0.0 0.0 0.0 0.0 0.0 0.0 0.0 0.0 0.0 0.0002838489923360772 0.0 0.0 0.0005676979846721544 0.0005676979846721544 0.002838489923360772 0.003973885892705081 0.004257734885041158 0.007663922793074085 0.015611694578484247 0.017030939540164634 0.02639795628725518 0.025830258302583026 0.02838489923360772 0.033210332103321034 0.036048822026681804 0.027817201248935566 0.02952029520295203 0.03491342605733749 0.03349418109565711 0.03803576497303435 0.029804144195288106 0.028101050241271644 0.031223389156968494 0.028101050241271644 0.026965654271927333 0.02554640931024695 0.0286687482259438 0.019869429463525403 0.02157252341754187 0.020720976440533636 0.022424070394550098 0.02043712744819756 0.01958558047118933 0.015611694578484247 0.01958558047118933 0.012773204655123474 0.015043996593812092 0.01419244961680386 0.015611694578484247 0.013340902639795628 0.012489355662787397 0.008799318762418393 0.010502412716434857 0.012205506670451319 0.010786261708770934 0.00908316775475447 0.01107011070110701 0.007663922793074085 0.00908316775475447 0.010502412716434857 0.008799318762418393 0.009367016747090548 0.004825432869713313 0.009367016747090548 0.006244677831393698 0.006528526823729776 0.00510928186204939 0.006244677831393698 0.004541583877377235 0.0036900369003690036 0.0036900369003690036 0.002554640931024695 0.005393130854385467 0.0022707919386886176 0.001419244961680386 0.003973885892705081 0.0017030939540164632 0.0008515469770082316 0.0 0.0011353959693443088 0.0017030939540164632 0.001419244961680386 0.0008515469770082316 0.0002838489923360772 0.0005676979846721544 0.0 0.0002838489923360772 0.0 0.0005676979846721544 0.0005676979846721544 0.0 0.0 0.0 0.0 0.0 0.0 0.0 0.0 0.0 0.011267605633802818 0.0 0.00025608194622279127 0.00025608194622279127 0.0 0.0 0.0 0.0 0.0005121638924455825 0.00025608194622279127 0.0005121638924455825 0.0012804097311139564 0.002560819462227913 0.009475032010243278 0.01741357234314981 0.028169014084507043 0.034571062740076826 0.03969270166453265 0.03636363636363636 0.03380281690140845 0.037387964148527526 0.029449423815621 0.03149807938540333 0.031241997439180536 0.03149807938540333 0.0325224071702945 0.029449423815621 0.02970550576184379 0.02560819462227913 0.029449423815621 0.022791293213828424 0.02560819462227913 0.021510883482714467 0.01971830985915493 0.022023047375160053 0.024583866837387964 0.021254801536491678 0.022535211267605635 0.020486555697823303 0.014596670934699104 0.016901408450704224 0.014340588988476313 0.016133162612035852 0.01638924455825864 0.018437900128040974 0.01741357234314981 0.01357234314980794 0.013316261203585146 0.009218950064020487 0.012548015364916773 0.011523687580025609 0.008450704225352112 0.00793854033290653 0.009731113956466069 0.009731113956466069 0.008962868117797696 0.00793854033290653 0.006914212548015365 0.004353393085787452 0.0058898847631242 0.0058898847631242 0.005377720870678617 0.004353393085787452 0.003585147247119078 0.00204865556978233 0.00204865556978233 0.001024327784891165 0.0012804097311139564 0.0015364916773367477 0.0005121638924455825 0.0005121638924455825 0.0005121638924455825 0.00025608194622279127 0.0005121638924455825 0.0007682458386683739 0.0 0.0005121638924455825 0.0 0.00025608194622279127 0.0 0.0 0.0 0.0 0.0 0.0 0.0 0.0 0.0 0.0 0.0 0.0 0.0 0.0 0.0 0.0 0.0 0.0 0.0 0.0 0.0 0.007605820105820105 0.0 0.0 0.0 0.0 0.00016534391534391533 0.00033068783068783067 0.0006613756613756613 0.000496031746031746 0.0006613756613756613 0.0013227513227513227 0.0018187830687830687 0.0033068783068783067 0.00744047619047619 0.011078042328042327 0.016534391534391533 0.022321428571428572 0.029596560846560847 0.03257275132275132 0.027281746031746032 0.027943121693121693 0.03290343915343916 0.027612433862433863 0.036044973544973546 0.03141534391534392 0.026455026455026454 0.02976190476190476 0.025297619047619048 0.02595899470899471 0.022817460317460316 0.024305555555555556 0.025793650793650792 0.026455026455026454 0.023148148148148147 0.02199074074074074 0.01984126984126984 0.018187830687830687 0.02166005291005291 0.017691798941798943 0.018849206349206348 0.015376984126984126 0.016203703703703703 0.018022486772486773 0.015376984126984126 0.011904761904761904 0.016865079365079364 0.011904761904761904 0.01488095238095238 0.011739417989417989 0.010747354497354497 0.012235449735449735 0.013227513227513227 0.009259259259259259 0.00992063492063492 0.007605820105820105 0.009093915343915343 0.008928571428571428 0.007109788359788359 0.008597883597883597 0.006944444444444444 0.006613756613756613 0.006779100529100529 0.006283068783068783 0.008432539682539682 0.006117724867724867 0.006779100529100529 0.006448412698412698 0.004298941798941799 0.005125661375661375 0.004794973544973545 0.004464285714285714 0.0036375661375661374 0.00496031746031746 0.0021494708994708994 0.00248015873015873 0.0036375661375661374 0.003472222222222222 0.0016534391534391533 0.0023148148148148147 0.0013227513227513227 0.0011574074074074073 0.000496031746031746 0.000496031746031746 0.00033068783068783067 0.000496031746031746 0.00016534391534391533 0.00033068783068783067 0.0 0.00033068783068783067 0.00016534391534391533 0.000496031746031746 0.0 0.0 0.00016534391534391533 0.0 0.00016534391534391533 0.0 0.0 0.0 0.00016534391534391533 0.014598540145985401 0.0 0.0008110300081103001 0.0056772100567721 0.004866180048661801 0.008110300081103 0.012165450121654502 0.0056772100567721 0.0113544201135442 0.012976480129764802 0.008110300081103 0.009732360097323601 0.0170316301703163 0.0227088402270884 0.05271695052716951 0.038118410381184104 0.0454176804541768 0.047850770478507706 0.025952960259529603 0.035685320356853206 0.023519870235198703 0.027575020275750203 0.038929440389294405 0.027575020275750203 0.024330900243309004 0.0267639902676399 0.017842660178426603 0.021086780210867802 0.017842660178426603 0.016220600162206 0.012976480129764802 0.012165450121654502 0.019464720194647202 0.012976480129764802 0.013787510137875101 0.013787510137875101 0.010543390105433901 0.0072992700729927005 0.0113544201135442 0.0170316301703163 0.012165450121654502 0.014598540145985401 0.0032441200324412004 0.010543390105433901 0.012165450121654502 0.008110300081103 0.010543390105433901 0.008110300081103 0.004866180048661801 0.0024330900243309003 0.0113544201135442 0.0040551500405515 0.012165450121654502 0.0056772100567721 0.0072992700729927005 0.008110300081103 0.008921330089213302 0.009732360097323601 0.0056772100567721 0.012976480129764802 0.0040551500405515 0.004866180048661801 0.0040551500405515 0.0056772100567721 0.004866180048661801 0.0072992700729927005 0.0032441200324412004 0.0024330900243309003 0.0008110300081103001 0.0040551500405515 0.0032441200324412004 0.0016220600162206002 0.006488240064882401 0.0016220600162206002 0.0008110300081103001 0.0024330900243309003 0.0016220600162206002 0.0016220600162206002 0.0016220600162206002 0.0024330900243309003 0.0008110300081103001 0.0 0.0 0.0040551500405515 0.0 0.0024330900243309003 0.0 0.0008110300081103001 0.0016220600162206002 0.0 0.0 0.0 0.0 0.0 0.0 0.0 0.0 0.0 0.0 0.0 0.01611565351344946 0.0 0.0 0.0 0.0 0.0 0.0 0.0 0.0 0.0 0.00011849745230477545 0.0 0.00035549235691432633 0.0005924872615238773 0.0028439388553146107 0.005332385353714895 0.0062803649721530986 0.015523166251925584 0.02263301339021211 0.034719753525299206 0.043133072638938265 0.04194809811589051 0.04360706244815737 0.044555042066595565 0.04325157009124304 0.04254058537741438 0.042777580282023935 0.036378717857566065 0.03365327645455623 0.028320891100841333 0.02429197772247897 0.0265434293162697 0.024054982817869417 0.021803531224078684 0.02239601848560256 0.022040526128688235 0.022159023580993007 0.01955207963028795 0.016234150965754236 0.017063633131887666 0.019196587273373623 0.013864201919658727 0.013864201919658727 0.013745704467353952 0.013627207015049176 0.0130347197535253 0.008768811470553382 0.009953785993601137 0.008650314018248608 0.010783268159734566 0.010546273255125015 0.00651735987676265 0.009479796184382036 0.006635857329067425 0.008413319113639057 0.00805782675672473 0.006635857329067425 0.007228344590591303 0.006872852233676976 0.005806375162933997 0.006872852233676976 0.004858395544495794 0.005332385353714895 0.005450882806019671 0.0059248726152387726 0.004028913378362365 0.0033179286645337127 0.0037919184737528143 0.004976892996800568 0.004265908282971916 0.003199431212228937 0.0036734210214480387 0.0036734210214480387 0.002488446498400284 0.0014219694276573053 0.0017774617845716318 0.0014219694276573053 0.001066477070742979 0.001066477070742979 0.0018959592368764072 0.0008294821661334282 0.00130347197535253 0.0005924872615238773 0.0005924872615238773 0.001066477070742979 0.0005924872615238773 0.0007109847138286527 0.0004739898092191018 0.0008294821661334282 0.0 0.0 0.0 0.0 0.0 0.0 0.0 0.0 0.0 0.0 0.0 0.005738880918220947 0.0 0.0 0.0 0.0 0.0 0.0 0.0 0.0 0.0 0.0 0.0014347202295552368 0.0 0.0 0.0 0.0 0.0 0.0028694404591104736 0.010043041606886656 0.024390243902439025 0.03873744619799139 0.035868005738880916 0.03156384505021521 0.047345767575322814 0.043041606886657105 0.03730272596843615 0.028694404591104734 0.04160688665710186 0.03012912482065997 0.03012912482065997 0.02295552367288379 0.03730272596843615 0.027259684361549498 0.03730272596843615 0.021520803443328552 0.028694404591104734 0.024390243902439025 0.007173601147776184 0.02295552367288379 0.024390243902439025 0.028694404591104734 0.01721664275466284 0.01721664275466284 0.018651362984218076 0.024390243902439025 0.018651362984218076 0.018651362984218076 0.01291248206599713 0.027259684361549498 0.021520803443328552 0.020086083213773313 0.0 0.00860832137733142 0.005738880918220947 0.005738880918220947 0.007173601147776184 0.0 0.005738880918220947 0.0014347202295552368 0.018651362984218076 0.007173601147776184 0.0 0.00430416068866571 0.00860832137733142 0.0014347202295552368 0.007173601147776184 0.0028694404591104736 0.005738880918220947 0.00430416068866571 0.0014347202295552368 0.0 0.0 0.0 0.0 0.0 0.0 0.0028694404591104736 0.0 0.0 0.00430416068866571 0.0 0.0014347202295552368 0.0014347202295552368 0.0014347202295552368 0.0 0.0 0.0014347202295552368 0.0 0.0028694404591104736 0.0 0.0 0.0 0.0 0.0 0.0 0.0 0.0 0.0 0.0 0.0 0.006828528072837633 0.0 0.0 0.0 0.0 0.0 0.0 0.0 0.0007587253414264037 0.0007587253414264037 0.0 0.006069802731411229 0.007587253414264037 0.015933232169954476 0.030349013657056147 0.05614567526555387 0.07587253414264036 0.07056145675265554 0.06752655538694992 0.057663125948406675 0.048558421851289835 0.05386949924127466 0.044764795144157814 0.036418816388467376 0.042488619119878605 0.03414264036418816 0.02276176024279211 0.027314112291350532 0.02503793626707132 0.01896813353566009 0.012139605462822459 0.013657056145675266 0.014415781487101669 0.018209408194233688 0.024279210925644917 0.014415781487101669 0.012139605462822459 0.010622154779969651 0.015933232169954476 0.011380880121396054 0.006828528072837633 0.010622154779969651 0.005311077389984826 0.006828528072837633 0.006069802731411229 0.00834597875569044 0.006069802731411229 0.006828528072837633 0.006069802731411229 0.005311077389984826 0.006069802731411229 0.0015174506828528073 0.0015174506828528073 0.0030349013657056147 0.0 0.004552352048558422 0.0 0.002276176024279211 0.0030349013657056147 0.002276176024279211 0.0007587253414264037 0.0015174506828528073 0.0015174506828528073 0.0007587253414264037 0.0 0.0007587253414264037 0.0007587253414264037 0.0 0.002276176024279211 0.0 0.0 0.0007587253414264037 0.0007587253414264037 0.0 0.0 0.0 0.0 0.0 0.0 0.0 0.0 0.0 0.0 0.0 0.0 0.0 0.0 0.0 0.0 0.0 0.0 0.0 0.0 0.0 0.0 0.0 0.0 0.0 0.0 0.0 0.009950248756218905 0.0 0.0 0.0 0.0 0.0 0.0 0.0 0.0 0.0 0.0 0.0 0.004975124378109453 0.004975124378109453 0.06965174129353234 0.0845771144278607 0.07462686567164178 0.07960199004975124 0.05472636815920398 0.05472636815920398 0.024875621890547265 0.07960199004975124 0.029850746268656716 0.03482587064676617 0.01990049751243781 0.01990049751243781 0.014925373134328358 0.03482587064676617 0.004975124378109453 0.004975124378109453 0.014925373134328358 0.004975124378109453 0.03482587064676617 0.004975124378109453 0.004975124378109453 0.029850746268656716 0.01990049751243781 0.0 0.004975124378109453 0.01990049751243781 0.029850746268656716 0.0 0.0 0.004975124378109453 0.014925373134328358 0.0 0.009950248756218905 0.004975124378109453 0.009950248756218905 0.009950248756218905 0.0 0.009950248756218905 0.0 0.0 0.0 0.0 0.004975124378109453 0.014925373134328358 0.0 0.009950248756218905 0.004975124378109453 0.0 0.0 0.0 0.0 0.004975124378109453 0.0 0.0 0.0 0.0 0.0 0.0 0.0 0.0 0.004975124378109453 0.009950248756218905 0.0 0.0 0.0 0.0 0.0 0.004975124378109453 0.0 0.0 0.0 0.0 0.0 0.0 0.0 0.0 0.0 0.0 0.0 0.0 0.0 0.0 0.0 0.0 0.0 0.0 0.0071877807726864335 0.0 0.0 0.0 0.0 0.0 0.0 0.0 0.0 0.0 0.0008984725965858042 0.0 0.0 0.0017969451931716084 0.0008984725965858042 0.004492362982929021 0.005390835579514825 0.008984725965858042 0.01078167115902965 0.028751123090745734 0.034141958670260555 0.039532794249775384 0.0440251572327044 0.031446540880503145 0.039532794249775384 0.031446540880503145 0.025157232704402517 0.02336028751123091 0.019766397124887692 0.027852650494159928 0.02605570530098832 0.011680143755615454 0.022461814914645103 0.020664869721473494 0.01078167115902965 0.0215633423180593 0.014375561545372867 0.0215633423180593 0.025157232704402517 0.020664869721473494 0.022461814914645103 0.017070979335130278 0.017969451931716084 0.02425876010781671 0.008984725965858042 0.014375561545372867 0.009883198562443846 0.014375561545372867 0.018867924528301886 0.018867924528301886 0.014375561545372867 0.018867924528301886 0.018867924528301886 0.01078167115902965 0.008086253369272238 0.008984725965858042 0.016172506738544475 0.017070979335130278 0.01078167115902965 0.008984725965858042 0.011680143755615454 0.014375561545372867 0.008984725965858042 0.0071877807726864335 0.009883198562443846 0.0026954177897574125 0.006289308176100629 0.006289308176100629 0.008984725965858042 0.008984725965858042 0.004492362982929021 0.004492362982929021 0.004492362982929021 0.0026954177897574125 0.0017969451931716084 0.0026954177897574125 0.0017969451931716084 0.0008984725965858042 0.0008984725965858042 0.0026954177897574125 0.0008984725965858042 0.0 0.0017969451931716084 0.0008984725965858042 0.0008984725965858042 0.0 0.0008984725965858042 0.0 0.0 0.0008984725965858042 0.0 0.0 0.0 0.0 0.0 0.0008984725965858042 0.0 0.0 0.0 0.0 0.07168450074696658 1.2145798161126159e-05 1.2145798161126159e-05 0.0 1.2145798161126159e-05 0.0 0.0 3.6437394483378475e-05 0.0 0.0 0.00010931218345013543 0.00015789537609464007 0.0004979777246061725 0.0018704529168134284 0.005805691521018304 0.014744998967607156 0.027996064761395795 0.04242527297681367 0.058324122769727815 0.05684233539407042 0.06256300632796084 0.048680359029793646 0.0458746796545735 0.041210693160701056 0.03697180960246803 0.043700581783731915 0.03393536006218649 0.03279365503504063 0.029514289531536564 0.02662358956918854 0.033874631071380855 0.023186328689589836 0.022251102231183123 0.019943400580569152 0.018437321608589508 0.021012230818748253 0.01656686869177608 0.014368479224612245 0.013178191004821881 0.011902882197903634 0.01289883764711598 0.010068866675573586 0.009206515006133629 0.008514204510949436 0.0076639986396706055 0.007481811667253714 0.00597573269527407 0.005489900768829024 0.005137672622156365 0.004518236915938931 0.004627549099389066 0.0037773432281102354 0.0037044684391434783 0.0030485953384426657 0.002842116769703521 0.0027935335770590164 0.0024898886230308626 0.002064785687391447 0.002064785687391447 0.0017004117425576623 0.001457495779335139 0.001603245357268653 0.001372475192207256 0.0011781424216292375 0.0014210583848517605 0.0011052676326624804 0.0009716638528900926 0.0009595180547289665 0.0006801646970230648 0.0007894768804732003 0.0007166020915064434 0.0005951441098951817 0.0004736861282839202 0.0005587067154118033 0.00046154033012279404 0.0003279365503504063 0.0003279365503504063 0.00027935335770590166 0.00025506176138364933 0.00018218697241689238 0.00021862436690027085 0.00019433277057801854 0.00018218697241689238 6.072899080563079e-05 4.8583192644504636e-05 6.072899080563079e-05 0.0 4.8583192644504636e-05 8.50205871278831e-05 4.8583192644504636e-05 1.2145798161126159e-05 2.4291596322252318e-05 1.2145798161126159e-05 1.2145798161126159e-05 0.0 0.0 0.0 0.0 0.0 8.50205871278831e-05 0.010440206092380005 0.0 0.0 4.519569736961041e-05 0.0 0.0 0.0 0.0 0.0 0.0 0.0 0.0 0.0 0.0 0.0 0.0 4.519569736961041e-05 0.00018078278947844165 0.000542348368435325 0.002079002079002079 0.004203199855373769 0.006191810539636627 0.0086775738949652 0.011479707131881045 0.015592515592515593 0.01631564675042936 0.01744553918466962 0.021151586368977675 0.020518846605803127 0.022733435776914036 0.025625960408569105 0.026484678658591703 0.02824731085600651 0.026575070053330922 0.026032721684895597 0.02955798607972521 0.027524179698092743 0.02747898400072313 0.029332007592877157 0.027704962487571184 0.029196420500768327 0.02729820121124469 0.025174003434873 0.024586459369068066 0.023230588447979754 0.02512880773750339 0.021151586368977675 0.021422760553195336 0.021106390671608063 0.02060923800054235 0.020202476724215854 0.017852300460996114 0.01631564675042936 0.014914580131971436 0.013739492000361566 0.014146253276688059 0.01315194793455663 0.011118141552924161 0.00989785772394468 0.011796077013468317 0.012202838289794812 0.009807466329205459 0.00768326855283377 0.007864051342312212 0.009400705052878966 0.008948748079182861 0.007502485763355328 0.008541986802856368 0.007864051342312212 0.00655337611859351 0.00551387507909247 0.007186115881768056 0.006824550302811172 0.006101419144897406 0.006327397631745458 0.0055590707764620806 0.005333092289614029 0.006688963210702341 0.005604266473831691 0.004926331013287535 0.005378287986983639 0.0050619181053963664 0.0043387869474826 0.003977221368525716 0.003163698815872729 0.0035252643948296123 0.0024857633553285728 0.003163698815872729 0.00221458917111091 0.0014914580131971437 0.0017174365000451957 0.0006327397631745458 0.0008587182500225979 0.0004971526710657146 0.00013558709210883125 0.00018078278947844165 9.039139473922083e-05 4.519569736961041e-05 0.00018078278947844165 0.00018078278947844165 </TABLE>
    </DEFINITION>
    <DEFINITION>
      <FOR>Perpetrator Race</FOR>
      <GIVEN>Relationship</GIVEN>
      <GIVEN>Victim Race</GIVEN>
      <TABLE>0.6666666666666666 0.11637572734829593 0.0024937655860349127 0.2144638403990025 0.0015569464976567169 0.9427075142326927 0.0010536910640707073 0.05468184820557984 0.007123775601068566 0.08726625111308994 0.560106856634016 0.3455031166518255 0.005280540369078051 0.12367286772526263 0.008489914727669658 0.8625566771779897 0.6666666666666666 0.07142857142857142 0.0 0.2619047619047619 0.0015095967220185465 0.9572999784343326 0.002587880094888937 0.03860254474875997 0.0 0.0 0.8 0.2 0.008370044052863436 0.06740088105726873 0.011894273127753305 0.9123348017621146 0.4 0.1 0.0 0.5 0.0 0.9254807692307693 0.002403846153846154 0.07211538461538461 0.0 0.0 0.7 0.3 0.010230179028132993 0.11764705882352941 0.008951406649616368 0.8631713554987213 0.96 0.0 0.0 0.04 0.0 0.9953231292517006 0.0 0.00467687074829932 0.0 0.0 0.9891304347826086 0.010869565217391304 0.0 0.004551820728291317 0.0007002801120448179 0.9947478991596639 0.3333333333333333 0.3333333333333333 0.0 0.3333333333333333 0.0 0.971718636693256 0.0007251631617113851 0.02755620014503263 0.0 0.0 0.8888888888888888 0.1111111111111111 0.00392156862745098 0.054901960784313725 0.01568627450980392 0.9254901960784314 0.6086956521739131 0.13043478260869565 0.0 0.2608695652173913 0.0 0.9785330948121646 0.0017889087656529517 0.01967799642218247 0.0 0.2608695652173913 0.5217391304347826 0.21739130434782608 0.0025466893039049238 0.07640067911714771 0.0025466893039049238 0.9185059422750425 0.8810810810810811 0.02702702702702703 0.005405405405405406 0.08648648648648649 0.0014071294559099437 0.9690431519699813 0.00046904315196998124 0.029080675422138838 0.028985507246376812 0.0 0.927536231884058 0.043478260869565216 0.0018191268191268192 0.015852390852390853 0.0033783783783783786 0.978950103950104 0.7142857142857143 0.14285714285714285 0.0 0.14285714285714285 0.0 0.6727272727272727 0.0 0.32727272727272727 0.0 0.0 0.0 1.0 0.014598540145985401 0.1678832116788321 0.0036496350364963502 0.8138686131386861 0.47619047619047616 0.09523809523809523 0.0 0.42857142857142855 0.0 0.7727272727272727 0.0 0.22727272727272727 0.25 0.25 0.25 0.25 0.019417475728155338 0.18689320388349515 0.0048543689320388345 0.7888349514563107 0.6 0.2 0.0 0.2 0.0 0.9560439560439561 0.0 0.04395604395604396 0.0 0.0 0.8333333333333334 0.16666666666666666 0.009852216748768473 0.0024630541871921183 0.007389162561576354 0.9802955665024631 0.6944444444444444 0.0 0.0 0.3055555555555556 0.0027472527472527475 0.9807692307692307 0.0 0.016483516483516484 0.0 0.09090909090909091 0.7272727272727273 0.18181818181818182 0.008086253369272238 0.04245283018867924 0.0047169811320754715 0.944743935309973 0.89171974522293 0.01910828025477707 0.0 0.08917197452229299 0.0002457002457002457 0.9803439803439803 0.0004914004914004914 0.01891891891891892 0.0 0.017341040462427744 0.9132947976878613 0.06936416184971098 0.0026414263702399295 0.020030816640986132 0.004182258419546555 0.9731454985692274 0.92 0.02 0.02 0.04 0.0008984725965858042 0.9892183288409704 0.0008984725965858042 0.008984725965858042 0.0 0.0 1.0 0.0 0.0013550135501355014 0.0047425474254742545 0.0016937669376693768 0.9922086720867209 0.7296416938110749 0.05537459283387622 0.016286644951140065 0.1986970684039088 0.0011184292282838326 0.9315272772461787 0.0012426991425375916 0.06611159438299988 0.013043478260869565 0.06086956521739131 0.5956521739130435 0.33043478260869563 0.00649777924000658 0.0676098042441191 0.008307287382793222 0.9175851291330811 0.5666666666666667 0.11666666666666667 0.0 0.31666666666666665 0.0009385265133740028 0.9682465196308463 0.00031284217112466763 0.03050211168465509 0.010309278350515464 0.13402061855670103 0.5721649484536082 0.28350515463917525 0.006774909473192384 0.11493984347622942 0.004905968928863451 0.8733792781217148 0.7692307692307693 0.01282051282051282 0.02564102564102564 0.19230769230769232 0.002084574151280524 0.9639666468135795 0.0008933889219773674 0.033055390113162594 0.0 0.017543859649122806 0.8070175438596491 0.17543859649122806 0.0061752988047808766 0.013944223107569721 0.004581673306772908 0.9752988047808765 0.8648648648648649 0.0 0.0 0.13513513513513514 0.0 0.9787018255578094 0.0 0.02129817444219067 0.0 0.0 0.6071428571428571 0.39285714285714285 0.0032854209445585215 0.022587268993839837 0.004517453798767967 0.9696098562628337 0.855072463768116 0.014492753623188406 0.0 0.13043478260869565 0.0 0.9918887601390498 0.0 0.008111239860950173 0.0 0.0 0.9565217391304348 0.043478260869565216 0.0023728813559322033 0.009152542372881356 0.002033898305084746 0.9864406779661017 0.390625 0.15625 0.0 0.453125 0.004817987152034261 0.8870449678800857 0.0005353319057815846 0.1076017130620985 0.0 0.15555555555555556 0.4888888888888889 0.35555555555555557 0.005158437730287398 0.11643330876934414 0.005649717514124294 0.8727585359862442 0.9696969696969697 0.0 0.0 0.030303030303030304 0.002352941176470588 0.9929411764705882 0.0 0.004705882352941176 0.0 0.0 0.9411764705882353 0.058823529411764705 0.006596306068601583 0.00395778364116095 0.0 0.9894459102902374 0.8963730569948186 0.02072538860103627 0.0 0.08290155440414508 0.0013573125212080082 0.9636918900576857 0.0006786562606040041 0.03427214116050221 0.0 0.01282051282051282 0.9358974358974359 0.05128205128205128 0.003447615399348784 0.016663474430185787 0.002873012832790653 0.9770158973376748 0.5882352941176471 0.11764705882352941 0.0 0.29411764705882354 0.0 0.9710144927536232 0.0 0.028985507246376812 0.0 0.0 0.6666666666666666 0.3333333333333333 0.006382978723404255 0.027659574468085105 0.010638297872340425 0.9553191489361702 1.0 0.0 0.0 0.0 0.0 0.9745222929936306 0.0021231422505307855 0.02335456475583864 0.0 0.0 0.8181818181818182 0.18181818181818182 0.006024096385542169 0.01927710843373494 0.00963855421686747 0.9650602409638555 0.75 0.0 0.0 0.25 0.0 1.0 0.0 0.0 0.0 0.0 1.0 0.0 0.012422360248447204 0.024844720496894408 0.0 0.9627329192546584 0.25 0.0 0.0 0.75 0.0 0.9667458432304038 0.0 0.0332541567695962 0.0 0.0 0.7777777777777778 0.2222222222222222 0.004418262150220913 0.042709867452135494 0.005891016200294551 0.946980854197349 0.2903918411164788 0.36178207192699946 0.005904455179817499 0.34192163177670426 0.008291723407474656 0.7746103797851415 0.0013012558632168256 0.21579664094416703 0.014754098360655738 0.25901639344262295 0.1885245901639344 0.5377049180327869 0.011278436398590195 0.26850368471643704 0.006579087899177614 0.7136387909857952 0.7467320261437909 0.04411764705882353 0.0016339869281045752 0.20751633986928106 0.0002031694433157253 0.9750101584721658 0.000609508329947176 0.024177163754571313 0.006993006993006993 0.06993006993006994 0.6433566433566433 0.27972027972027974 0.0043771657851541124 0.031126512249984802 0.0015806432001945407 0.9629156787646665 </TABLE>
    </DEFINITION>
    <DEFINITION>
      <FOR>Perpetrator Sex</FOR>
      <GIVEN>Relationship</GIVEN>
      <GIVEN>Victim Sex</GIVEN>
      <TABLE>0.13476996750470327 0.8652300324952967 0.058520654348593625 0.9414793456514063 0.125 0.875 0.97411933860532 0.025880661394680086 0.9788359788359788 0.021164021164021163 0.001943634596695821 0.9980563654033042 0.046511627906976744 0.9534883720930233 0.08868032943880483 0.9113196705611952 0.07692307692307693 0.9230769230769231 0.9804025423728814 0.019597457627118644 0.002178649237472767 0.9978213507625272 0.2978723404255319 0.7021276595744681 0.4510370622237334 0.5489629377762666 0.4034090909090909 0.5965909090909091 0.16901408450704225 0.8309859154929577 0.05128205128205128 0.9487179487179487 0.15384615384615385 0.8461538461538461 0.040214477211796246 0.9597855227882037 0.23809523809523808 0.7619047619047619 0.967128027681661 0.0328719723183391 0.0011242270938729624 0.9988757729061271 0.02586206896551724 0.9741379310344828 0.17134524243528984 0.8286547575647102 0.10451612903225807 0.895483870967742 0.07661290322580645 0.9233870967741935 0.1098872950819672 0.8901127049180327 0.17499161917532685 0.8250083808246731 0.059068641252322765 0.9409313587476772 0.004296668429402433 0.9957033315705975 0.084375 0.915625 0.2916666666666667 0.7083333333333334 0.9893073541641915 0.010692645835808482 0.08733087330873308 0.9126691266912669 0.07601476014760147 0.9239852398523986 0.15786532550991897 0.8421346744900811 0.09202453987730061 0.9079754601226994 0.129928894634777 0.870071105365223 0.05732059542323928 0.9426794045767607 0.20225694444444445 0.7977430555555556 0.04938271604938271 0.9506172839506173 0.18870967741935485 0.8112903225806452 0.3720424606727203 0.6279575393272797 0.07518796992481203 0.924812030075188 0.09375 0.90625 0.0975609756097561 0.9024390243902439 0.13155833985904464 0.8684416601409554 0.12280701754385964 0.8771929824561403 0.06666666666666667 0.9333333333333333 0.0 1.0 0.06017191977077364 0.9398280802292264 0.05030053780449225 0.9496994621955077 0.02798901853122855 0.9720109814687714 0.0015786052558269105 0.9984213947441731 0.07653061224489796 0.923469387755102 </TABLE>
    </DEFINITION>
    <DEFINITION>
      <FOR>Relationship</FOR>
      <GIVEN>Victim Age</GIVEN>
      <TABLE>0.07565101691693595 0.00038015586390420075 0.00038015586390420075 0.0024710131153773047 0.0 0.0009503896597605018 0.3744535259456377 0.00019007793195210037 0.0 0.0 0.00019007793195210037 0.042767534689222585 0.001520623455616803 0.01007413039346132 0.004942026230754609 0.00038015586390420075 0.00038015586390420075 0.0011404675917126021 0.0034214027751378064 0.0022809351834252043 0.44649306215548373 0.008553506937844516 0.00038015586390420075 0.00019007793195210037 0.009884052461509219 0.009693974529557118 0.003231324843185706 0.1641041732036398 0.0012550988390335738 0.0 0.005334170065892689 0.0 0.00031377470975839345 0.28930028239723876 0.00031377470975839345 0.0 0.0 0.0 0.061813617822403515 0.0034515218073423283 0.01537496077816128 0.004079071226859115 0.0006275494195167869 0.00031377470975839345 0.0015688735487919673 0.005020395356134295 0.005334170065892689 0.3529965484781927 0.023533103231879512 0.0006275494195167869 0.0 0.028239723878255414 0.029494822717288986 0.006903043614684657 0.19812925170068027 0.0008503401360544217 0.0 0.01020408163265306 0.0 0.0 0.23001700680272108 0.0008503401360544217 0.0 0.0 0.0017006802721088435 0.08545918367346939 0.0 0.023809523809523808 0.002551020408163265 0.0008503401360544217 0.0017006802721088435 0.00510204081632653 0.008928571428571428 0.00977891156462585 0.28656462585034015 0.031462585034013606 0.0008503401360544217 0.0 0.0548469387755102 0.036139455782312924 0.01020408163265306 0.17218543046357615 0.001986754966887417 0.0006622516556291391 0.01456953642384106 0.0 0.0006622516556291391 0.22847682119205298 0.0013245033112582781 0.0 0.0 0.0 0.0781456953642384 0.003973509933774834 0.019205298013245033 0.009271523178807948 0.004635761589403974 0.0013245033112582781 0.003973509933774834 0.01456953642384106 0.012582781456953643 0.2814569536423841 0.03642384105960265 0.0006622516556291391 0.0 0.0456953642384106 0.05562913907284768 0.012582781456953643 0.15217391304347827 0.002717391304347826 0.0 0.014492753623188406 0.0 0.0018115942028985507 0.25 0.0 0.0 0.0 0.002717391304347826 0.08786231884057971 0.0018115942028985507 0.009057971014492754 0.010869565217391304 0.002717391304347826 0.0018115942028985507 0.004528985507246377 0.020833333333333332 0.010869565217391304 0.2871376811594203 0.026268115942028984 0.0 0.0 0.03351449275362319 0.057065217391304345 0.021739130434782608 0.13696969696969696 0.0012121212121212121 0.0012121212121212121 0.013333333333333334 0.0 0.0036363636363636364 0.24848484848484848 0.0 0.0 0.0 0.0012121212121212121 0.08121212121212121 0.006060606060606061 0.020606060606060607 0.006060606060606061 0.0024242424242424242 0.0024242424242424242 0.0012121212121212121 0.01818181818181818 0.019393939393939394 0.28484848484848485 0.024242424242424242 0.0 0.0 0.030303030303030304 0.06666666666666667 0.030303030303030304 0.11206896551724138 0.0014367816091954023 0.0 0.03017241379310345 0.0 0.0014367816091954023 0.23850574712643677 0.0 0.0 0.0 0.0028735632183908046 0.07902298850574713 0.0028735632183908046 0.022988505747126436 0.011494252873563218 0.0028735632183908046 0.004310344827586207 0.004310344827586207 0.02442528735632184 0.01867816091954023 0.24281609195402298 0.020114942528735632 0.0 0.0 0.027298850574712645 0.1278735632183908 0.02442528735632184 0.15141955835962145 0.0 0.0015772870662460567 0.031545741324921134 0.0 0.0031545741324921135 0.24290220820189273 0.0 0.0 0.0 0.0015772870662460567 0.07413249211356467 0.0015772870662460567 0.026813880126182965 0.00946372239747634 0.006309148264984227 0.0015772870662460567 0.0015772870662460567 0.033123028391167195 0.022082018927444796 0.22870662460567823 0.011041009463722398 0.0015772870662460567 0.0 0.02050473186119874 0.09779179810725552 0.031545741324921134 0.13644214162348878 0.0 0.0 0.0535405872193437 0.0 0.0017271157167530224 0.22279792746113988 0.0 0.0 0.0 0.0034542314335060447 0.08635578583765112 0.0 0.03626943005181347 0.010362694300518135 0.0 0.0034542314335060447 0.0051813471502590676 0.04145077720207254 0.024179620034542316 0.2158894645941278 0.015544041450777202 0.0 0.0 0.013816925734024179 0.09499136442141623 0.03454231433506045 0.1264957264957265 0.0 0.0 0.0547008547008547 0.0 0.0017094017094017094 0.18974358974358974 0.0 0.0 0.0 0.0 0.10085470085470086 0.0 0.05982905982905983 0.006837606837606838 0.0017094017094017094 0.0017094017094017094 0.010256410256410256 0.035897435897435895 0.03247863247863248 0.17606837606837608 0.018803418803418803 0.0 0.0 0.010256410256410256 0.14017094017094017 0.03247863247863248 0.1568627450980392 0.0032679738562091504 0.0 0.05555555555555555 0.0 0.0 0.14705882352941177 0.0016339869281045752 0.0 0.0 0.0016339869281045752 0.07352941176470588 0.006535947712418301 0.07679738562091504 0.014705882352941176 0.0016339869281045752 0.0032679738562091504 0.0016339869281045752 0.0457516339869281 0.032679738562091505 0.17320261437908496 0.0196078431372549 0.0 0.0 0.0196078431372549 0.13562091503267973 0.029411764705882353 0.1875 0.0 0.0 0.0703125 0.0 0.0 0.128125 0.0 0.0 0.0 0.003125 0.084375 0.003125 0.0984375 0.0046875 0.0015625 0.0015625 0.0078125 0.0484375 0.028125 0.1453125 0.0140625 0.0015625 0.0 0.009375 0.134375 0.028125 0.2422857142857143 0.001142857142857143 0.0 0.05714285714285714 0.0 0.0 0.09028571428571429 0.0 0.0 0.0 0.0 0.053714285714285714 0.004571428571428572 0.144 0.014857142857142857 0.001142857142857143 0.004571428571428572 0.004571428571428572 0.04114285714285714 0.03428571428571429 0.10285714285714286 0.021714285714285714 0.001142857142857143 0.001142857142857143 0.010285714285714285 0.14514285714285713 0.024 0.3148148148148148 0.003367003367003367 0.0008417508417508417 0.04208754208754209 0.0008417508417508417 0.0 0.05134680134680135 0.0 0.0 0.0 0.0025252525252525255 0.05723905723905724 0.0016835016835016834 0.1675084175084175 0.016835016835016835 0.0 0.005050505050505051 0.0016835016835016834 0.027777777777777776 0.029461279461279462 0.0563973063973064 0.010101010101010102 0.0008417508417508417 0.0 0.012626262626262626 0.18181818181818182 0.015151515151515152 0.3477130977130977 0.0010395010395010396 0.0015592515592515593 0.036382536382536385 0.0 0.0010395010395010396 0.02338877338877339 0.0 0.0 0.0 0.0 0.0446985446985447 0.002079002079002079 0.17463617463617465 0.036382536382536385 0.0010395010395010396 0.004677754677754678 0.0005197505197505198 0.02338877338877339 0.016112266112266113 0.03170478170478171 0.010914760914760915 0.0010395010395010396 0.0 0.012474012474012475 0.21725571725571727 0.011954261954261955 0.3859424920127795 0.0012779552715654952 0.0 0.028115015974440896 0.0003194888178913738 0.0006389776357827476 0.022364217252396165 0.0 0.0 0.0 0.0003194888178913738 0.02875399361022364 0.0 0.14217252396166133 0.043450479233226834 0.0006389776357827476 0.0038338658146964857 0.0006389776357827476 0.015654952076677317 0.010223642172523962 0.018849840255591055 0.007987220447284345 0.0 0.0 0.0025559105431309905 0.27987220447284344 0.006389776357827476 0.4217074217074217 0.003003003003003003 0.000429000429000429 0.02059202059202059 0.0 0.0023595023595023596 0.012441012441012441 0.0 0.0 0.0 0.000429000429000429 0.025525525525525526 0.0006435006435006435 0.11969111969111969 0.04011154011154011 0.000429000429000429 0.003003003003003003 0.000858000858000858 0.010725010725010725 0.009009009009009009 0.014586014586014585 0.005148005148005148 0.0002145002145002145 0.0 0.003861003861003861 0.3005148005148005 0.004719004719004719 0.4337892898719441 0.006257275902211874 0.0016006984866123398 0.015279394644935973 0.00014551804423748544 0.002328288707799767 0.005966239813736903 0.00043655413271245633 0.00043655413271245633 0.0 0.0005820721769499418 0.020081490104772993 0.001018626309662398 0.09342258440046566 0.04569266589057043 0.0 0.002619324796274738 0.0005820721769499418 0.010768335273573923 0.00480209545983702 0.013969732246798603 0.0027648428405122236 0.00014551804423748544 0.0002910360884749709 0.0037834691501746217 0.32537834691501744 0.007857974388824214 0.4448913917940467 0.007700264337432479 0.0020687277324445467 0.012987012987012988 0.0009194345477531318 0.002183657050913688 0.004022526146419952 0.00022985863693828295 0.00011492931846914148 0.00011492931846914148 0.0010343638662222733 0.01850362027353178 0.0004597172738765659 0.08332375589012757 0.051603263992644526 0.0010343638662222733 0.0034478795540742444 0.0004597172738765659 0.009883921388346166 0.004022526146419952 0.008159981611309045 0.0019537984139754053 0.00011492931846914148 0.0 0.0036777381910125273 0.32456039535685555 0.01252729571313642 0.45190545103714425 0.009551374819102749 0.0015436565364206464 0.01698022190062711 0.0013506994693680656 0.004438012542209358 0.002894356005788712 0.0003859141341051616 0.0 0.0001929570670525808 0.000964785335262904 0.018041485769416304 0.000482392667631452 0.07284129281234925 0.04852870236372407 0.0015436565364206464 0.004245055475156778 0.0002894356005788712 0.011770381090207428 0.0026049204052098407 0.009261939218523878 0.0007718282682103232 0.0001929570670525808 0.0 0.002701398938736131 0.3207911239749156 0.015726000964785335 0.43809078146934954 0.013196069255966308 0.002526906878802059 0.01357042583060365 0.0022461394478240524 0.00627047262517548 0.0018717828731867104 0.0011230697239120262 0.00028076743097800656 0.00037435657463734206 0.0014974262985493682 0.018437061300889096 0.00018717828731867103 0.06832007487131493 0.055872718764623304 0.0031820308844174076 0.005240992044922789 0.00028076743097800656 0.011043518951801591 0.0020589611605053813 0.009078146934955546 0.0010294805802526907 0.00037435657463734206 0.0 0.003275620028076743 0.3181094992980814 0.022461394478240523 0.44448529411764703 0.015992647058823528 0.0019301470588235295 0.012959558823529413 0.0019301470588235295 0.004871323529411765 0.002113970588235294 0.00045955882352941176 0.0 0.0 0.002849264705882353 0.016911764705882352 0.00045955882352941176 0.07205882352941176 0.053952205882352944 0.00505514705882353 0.005698529411764706 9.191176470588235e-05 0.011397058823529411 0.0023897058823529414 0.006525735294117647 0.0008272058823529412 0.00045955882352941176 0.0 0.0019301470588235295 0.3081801470588235 0.026470588235294117 0.42392857142857143 0.014821428571428572 0.0029464285714285716 0.017589285714285714 0.003125 0.0064285714285714285 0.0032142857142857142 0.0004464285714285714 0.00026785714285714287 8.928571428571429e-05 0.0024107142857142856 0.01794642857142857 0.0004464285714285714 0.06955357142857142 0.05517857142857143 0.0067857142857142855 0.006875 0.00017857142857142857 0.012232142857142856 0.0016071428571428571 0.009017857142857143 0.0015178571428571428 0.00026785714285714287 0.0 0.0026785714285714286 0.30776785714285715 0.03267857142857143 0.4305115436849253 0.02272521502942508 0.002716161158895428 0.015663196016296968 0.0025350837483023993 0.006337709370755998 0.002806699864191942 0.00018107741059302852 0.0002716161158895428 0.0007243096423721141 0.00425531914893617 0.018832050701674968 0.0006337709370755998 0.06618379357175193 0.05006790402897238 0.009687641466727025 0.008420099592575826 9.053870529651426e-05 0.013309189678587597 0.0018107741059302852 0.008148483476686284 0.00018107741059302852 0.00036215482118605704 0.00018107741059302852 0.0015391579900407425 0.28981439565414213 0.042009959257582614 0.4177591817759182 0.0200836820083682 0.0020455602045560206 0.015899581589958158 0.004370060437006044 0.007531380753138075 0.002510460251046025 0.0006508600650860065 0.00046490004649000463 0.00046490004649000463 0.00399814039981404 0.019339841933984192 0.00037192003719200374 0.0696420269642027 0.05634588563458856 0.01208740120874012 0.011622501162250116 0.00046490004649000463 0.012831241283124128 0.0020455602045560206 0.007717340771734077 0.00046490004649000463 0.00046490004649000463 0.00018596001859600187 0.001487680148768015 0.28368200836820084 0.04546722454672245 0.4212630622444343 0.021535665606542482 0.0028169014084507044 0.015084052703316675 0.0047251249432076325 0.00745115856428896 0.0021808268968650612 0.0007269422989550204 0.0001817355747387551 0.0013630168105406633 0.004543389368468878 0.01753748296228987 9.086778736937755e-05 0.06578827805542935 0.05324852339845525 0.011540208995910949 0.009904588823262154 0.0001817355747387551 0.012085415720127215 0.0017264879600181735 0.00708768741481145 0.0006360745115856429 0.00027260336210813266 9.086778736937755e-05 0.0015447523852794185 0.28559745570195366 0.05079509313948205 0.40881048775785617 0.024580682475419318 0.0035666088297667247 0.016387121650279547 0.005880084827453248 0.009446693657219974 0.00192789666473877 0.000771158665895508 0.000578368999421631 0.000963948332369385 0.004144977829188355 0.01735106998264893 0.000385579332947754 0.06603046076730287 0.05349913244650087 0.0167727009832273 0.011470985155195682 0.000192789666473877 0.01224214382109119 0.002313475997686524 0.00771158665895508 0.000192789666473877 0.0008675534991324465 9.63948332369385e-05 0.0016387121650279545 0.2782918835550415 0.05388471177944862 0.40065080333536707 0.025015253203172667 0.0037624567825910106 0.01606670734187513 0.006711409395973154 0.007829977628635347 0.0011185682326621924 0.0007118161480577588 0.0009151921903599756 0.0018303843807199512 0.004779336994102094 0.016168395363026236 0.0001016880211511084 0.06375838926174497 0.053792963188936345 0.017998779743746186 0.01149074639007525 0.0 0.015659955257270694 0.0023388244864754933 0.008338417734390889 0.0008135041692088672 0.0013219442749644091 0.0002033760423022168 0.0022371364653243847 0.2747610331502949 0.06162294081757169 0.40529661016949153 0.026165254237288136 0.0031779661016949155 0.01885593220338983 0.006461864406779661 0.009745762711864408 0.00211864406779661 0.0015889830508474577 0.0007415254237288136 0.001271186440677966 0.007097457627118644 0.018326271186440677 0.000423728813559322 0.06260593220338984 0.053813559322033896 0.02044491525423729 0.008580508474576271 0.000423728813559322 0.01451271186440678 0.0028601694915254237 0.00625 0.001059322033898305 0.0014830508474576272 0.0 0.001694915254237288 0.26440677966101694 0.06059322033898305 0.39456510110195786 0.026318604899967905 0.0040654755536535785 0.01765272279875896 0.005670268535358939 0.010163688884133947 0.0033165721621910772 0.0011768481865839307 0.0007489033914625013 0.00160479298170536 0.006954102920723227 0.017545736599978604 0.00021397239756071467 0.059805285118219746 0.05434898898042152 0.026211618701187548 0.010377661281694662 0.00021397239756071467 0.01561998502193217 0.0020327377768267893 0.00599122713170001 0.000641917192682144 0.0011768481865839307 0.00010698619878035734 0.0014978067829250026 0.26564673157162727 0.06633144324382155 0.39154430907008225 0.026137665312923046 0.004686035613870665 0.015724252837654898 0.007810059356451109 0.010101010101010102 0.002499218994064355 0.0006248047485160887 0.001353743621784859 0.0019785483703009476 0.007289388732687702 0.01988961782776216 0.0007289388732687702 0.06164740185358742 0.05602415911694262 0.024783921691138185 0.014058106841611996 0.0008330729980214516 0.013953972716859315 0.001353743621784859 0.006039779235655524 0.00010413412475268145 0.0021868166198063107 0.00031240237425804435 0.0016661459960429033 0.25679475164011245 0.06987399770904926 0.3840855106888361 0.026365795724465558 0.003681710213776722 0.017339667458432306 0.007125890736342043 0.009501187648456057 0.0024940617577197148 0.00035629453681710216 0.00166270783847981 0.0026128266033254156 0.006294536817102138 0.015320665083135392 0.0019002375296912114 0.0666270783847981 0.05831353919239905 0.028503562945368172 0.013776722090261283 0.0021377672209026127 0.014726840855106888 0.0022565320665083135 0.007957244655581949 0.0007125890736342043 0.0019002375296912114 0.00047505938242280285 0.0014251781472684087 0.2496437054631829 0.07280285035629454 0.37172591206735267 0.02736202057998129 0.0038587464920486437 0.0156688493919551 0.006548175865294668 0.009003741814780168 0.0033910196445275957 0.0012862488306828812 0.00035079513564078576 0.004326473339569691 0.008652946679139382 0.017539756782039288 0.001520112254443405 0.062324602432179604 0.060336763330215155 0.032039289055191766 0.014382600561272217 0.001403180542563143 0.017539756782039288 0.001987839101964453 0.007132834424695977 0.0007015902712815715 0.0035079513564078577 0.00035079513564078576 0.0026894293732460245 0.24520579981290927 0.07916276894293732 0.3762846865364851 0.024665981500513873 0.0050102774922918805 0.0170863309352518 0.008735868448098663 0.010277492291880781 0.003211716341212744 0.0006423432682425488 0.0014131551901336073 0.0024409044193216857 0.007708119218910586 0.018756423432682426 0.0025693730729701952 0.06243576567317575 0.052415210688591986 0.03455806783144913 0.012846865364850977 0.0019270298047276465 0.015287769784172662 0.0028263103802672147 0.007708119218910586 0.0005138746145940391 0.0034686536485097636 0.0006423432682425488 0.002183967112024666 0.23753854059609456 0.0868448098663926 0.3599642081043078 0.02646043717244024 0.004985299757126422 0.015083727470279943 0.008947973923047425 0.010609740508756231 0.0019174229835101624 0.00051131279560271 0.000766969193404065 0.002940048574715582 0.010993225105458264 0.021091652818611785 0.0031957049725169374 0.06084622267672248 0.05969576888661639 0.032468362520772086 0.011760194298862329 0.0035791895692189697 0.017384635050492137 0.002173079381311517 0.007030550939537262 0.00102262559120542 0.003834845967020325 0.00051131279560271 0.0014061101879074523 0.24338489070688993 0.0874344880480634 0.3567588829159565 0.029107119444080242 0.0047200734233643635 0.017831388488265373 0.007342336436344565 0.01363576766749705 0.0018355841090861413 0.0005244526025960404 0.0015733578077881212 0.0020978104103841614 0.009702373148026747 0.018749180542808445 0.004195620820768323 0.056771994231021375 0.05965648354529959 0.035662776976530745 0.008915694244132686 0.004326733971417333 0.018749180542808445 0.002753376163629212 0.009309033696079716 0.0007866789038940606 0.005244526025960404 0.0007866789038940606 0.002491149862331192 0.2404615182902845 0.08601022682575063 0.3640875912408759 0.03021897810218978 0.0037956204379562043 0.016788321167883213 0.009343065693430658 0.008759124087591242 0.0018978102189781021 0.0005839416058394161 0.001605839416058394 0.003357664233576642 0.011094890510948904 0.018102189781021898 0.0070072992700729924 0.056496350364963505 0.053722627737226275 0.039708029197080295 0.011386861313868613 0.004963503649635037 0.018102189781021898 0.002627737226277372 0.005547445255474452 0.0010218978102189782 0.005401459854014599 0.0008759124087591241 0.00145985401459854 0.22978102189781022 0.09226277372262774 0.3512136649685346 0.02846868444710818 0.006442912795924483 0.020377584656877435 0.008840275696733593 0.010638297872340425 0.003146538807311957 0.0014983518130056938 0.0 0.0037458795325142342 0.009439616421935871 0.018879232843871743 0.009139946059334731 0.059184896613724905 0.05738687443811807 0.037758465687743485 0.011387473778843273 0.00719208870242733 0.017680551393467185 0.001648186994306263 0.005843572070722206 0.0005993407252022775 0.006143242433323344 0.0007491759065028469 0.0025471980821096794 0.22475277195085405 0.09529517530716212 0.3526729559748428 0.030817610062893082 0.0042452830188679245 0.017767295597484276 0.00990566037735849 0.009591194968553459 0.002830188679245283 0.0014150943396226414 0.0009433962264150943 0.003459119496855346 0.009119496855345912 0.019339622641509433 0.011477987421383647 0.055031446540880505 0.05471698113207547 0.040566037735849055 0.013522012578616353 0.007232704402515723 0.017452830188679245 0.00220125786163522 0.009276729559748427 0.0004716981132075472 0.006603773584905661 0.00110062893081761 0.0015723270440251573 0.22452830188679246 0.09213836477987421 0.3522319973932877 0.024600847181492344 0.004724666014988596 0.01596611274030629 0.009612251547735418 0.008634734441186055 0.002606712284131639 0.0009775171065493646 0.0019550342130987292 0.004561746497230368 0.011893124796350603 0.01857282502443793 0.011730205278592375 0.061909416748126424 0.06158357771260997 0.04121863799283154 0.011078527207559466 0.008960573476702509 0.014825676115998696 0.002280873248615184 0.007168458781362007 0.0009775171065493646 0.005213424568263278 0.0008145975887911372 0.0008145975887911372 0.2179863147605083 0.09710003258390355 0.3337785940891635 0.02671564534980798 0.004341292369343797 0.01452663215895809 0.010519285356486892 0.010018367006177992 0.002838537318417098 0.0006678911337451996 0.0016697278343629988 0.004007346802471197 0.011688094840540992 0.021205543496410083 0.014693604942394389 0.059776256470195355 0.05510101853397896 0.04458173317749207 0.010853230923359493 0.012022040407413592 0.01619635999332109 0.0013357822674903992 0.005677074636834196 0.0001669727834362999 0.006011020203706796 0.0008348639171814994 0.0020036734012355987 0.23092335949240275 0.09784605109367173 0.3395598298501942 0.029221379692990566 0.005363417791751433 0.018864434991677455 0.009247272054743851 0.007212872202700203 0.0027741816164231553 0.0012946180876641392 0.002034399852043647 0.004438690586277048 0.010171999260218235 0.018679489550582577 0.01424079896430553 0.05529868688736823 0.05104494174218605 0.04383206953948585 0.011466617347882374 0.011651562788977252 0.019234325873867208 0.0018494544109487702 0.004993526909561679 0.000739781764379508 0.007027926761605327 0.0018494544109487702 0.001664508969853893 0.2276678379877936 0.09857592010356944 0.31968417186926185 0.028277634961439587 0.0058758721997796545 0.02001468968049945 0.010282776349614395 0.009364671318398824 0.0029379360998898272 0.0014689680499449136 0.002570694087403599 0.0038560411311053984 0.007528461255967683 0.020381931692985678 0.019096584649283876 0.05637164891663606 0.05637164891663606 0.043885420492104296 0.012853470437017995 0.012486228424531766 0.01964744766801322 0.00348879911861917 0.008079324274697026 0.0005508630187293427 0.008997429305912597 0.001836210062431142 0.0023870730811604846 0.2236503856041131 0.09805361733382299 0.32691125230580037 0.03279360524697684 0.0038942406230784996 0.012707522033203526 0.00942816150850584 0.009633121541299446 0.0022545603607296576 0.0010248001639680262 0.0020496003279360524 0.0028694404591104736 0.010248001639680262 0.020905923344947737 0.022135683541709368 0.060053289608526336 0.058003689280590284 0.048165607706497235 0.013117442098790736 0.013937282229965157 0.018651362984218076 0.00430416068866571 0.00430416068866571 0.0014347202295552368 0.010452961672473868 0.001639680262348842 0.0012297601967616314 0.21315843410534946 0.09469153515064563 0.314992203163288 0.03608821563822678 0.0051236355535754065 0.020271775451102696 0.008019603475161506 0.010024504343951883 0.0026732011583871684 0.0017821341055914458 0.003341501447983961 0.0028959679215860993 0.00957897081755402 0.022722209846290933 0.02383604366228559 0.05457785698373803 0.050568055246157276 0.044998886166184006 0.014479839607930497 0.014257072844731567 0.019826241924704835 0.0022276676319893073 0.003787034974381822 0.0011138338159946536 0.008019603475161506 0.0011138338159946536 0.0028959679215860993 0.2160837603029628 0.10470037870349744 0.31032215647600264 0.031996493534955074 0.0041639272408503175 0.021696252465483234 0.009423624808240192 0.008766162612316459 0.0019723865877712033 0.0017532325224632918 0.0026298487836949377 0.0021915406530791147 0.01051939513477975 0.02542187157571773 0.024545255314486085 0.05851413543721236 0.058075827306596536 0.04426912119219811 0.015559938636861713 0.01775147928994083 0.018847249616480384 0.0035064650449265836 0.005698005698005698 0.0015340784571553803 0.007232084155161078 0.0013149243918474688 0.0013149243918474688 0.21367521367521367 0.0973044049967127 0.3116222760290557 0.03728813559322034 0.005811138014527845 0.012348668280871672 0.00847457627118644 0.010169491525423728 0.0026634382566585956 0.001937046004842615 0.0036319612590799033 0.00387409200968523 0.012106537530266344 0.024455205811138015 0.02857142857142857 0.051573849878934624 0.05520581113801453 0.04648910411622276 0.013801452784503633 0.021307506053268765 0.016707021791767553 0.0029055690072639223 0.005811138014527845 0.0007263922518159806 0.007990314769975786 0.00024213075060532688 0.0012106537530266344 0.21404358353510897 0.0990314769975787 0.3202747392520987 0.03154413635207327 0.005850928516916815 0.013736962604935132 0.012465021622996692 0.00839481048079369 0.002035105571101501 0.0017807173747138134 0.0017807173747138134 0.0027982701602645636 0.009412363266344441 0.01933350292546426 0.03103535995929789 0.05087763927753752 0.04680742813533452 0.049096921902823706 0.013736962604935132 0.021877384889341135 0.022894937674891886 0.003307046553039939 0.005596540320529127 0.0007631645891630628 0.008140422284406004 0.0015263291783261257 0.0017807173747138134 0.21673874332230986 0.09641312643093361 0.32109589041095893 0.02904109589041096 0.006575342465753425 0.016712328767123287 0.006301369863013699 0.008767123287671232 0.002191780821917808 0.0032876712328767125 0.0030136986301369864 0.0038356164383561643 0.007123287671232876 0.021917808219178082 0.027123287671232878 0.0536986301369863 0.05013698630136986 0.04657534246575343 0.016164383561643837 0.020821917808219178 0.02219178082191781 0.00410958904109589 0.004931506849315068 0.000273972602739726 0.010958904109589041 0.002465753424657534 0.0013698630136986301 0.21616438356164383 0.09315068493150686 0.30689655172413793 0.0353448275862069 0.00603448275862069 0.016091954022988506 0.007758620689655172 0.007183908045977011 0.0034482758620689655 0.0014367816091954023 0.003735632183908046 0.0034482758620689655 0.010344827586206896 0.02442528735632184 0.031609195402298854 0.04942528735632184 0.04827586206896552 0.05517241379310345 0.014367816091954023 0.02385057471264368 0.02327586206896552 0.004022988505747126 0.003735632183908046 0.0008620689655172414 0.008908045977011494 0.0017241379310344827 0.0014367816091954023 0.20402298850574713 0.10316091954022988 0.3050115207373272 0.029089861751152073 0.007488479262672811 0.016417050691244238 0.008928571428571428 0.007488479262672811 0.0017281105990783411 0.0008640552995391706 0.004896313364055299 0.000576036866359447 0.008064516129032258 0.025921658986175114 0.03945852534562212 0.05616359447004608 0.03456221198156682 0.05414746543778802 0.015841013824884793 0.03168202764976959 0.0244815668202765 0.004032258064516129 0.004032258064516129 0.001152073732718894 0.009216589861751152 0.000576036866359447 0.0002880184331797235 0.21745391705069125 0.09043778801843318 0.2964616970113363 0.03160425970456888 0.006526966678117485 0.018206801786327723 0.010305736860185504 0.005152868430092752 0.0010305736860185502 0.0020611473720371005 0.0034352456200618343 0.0034352456200618343 0.007557540364136035 0.02782548952250086 0.03503950532463071 0.05565097904500172 0.03881827550669873 0.05152868430092752 0.014084507042253521 0.03023016145654414 0.024733768464445208 0.0013740982480247338 0.004465819306080384 0.0013740982480247338 0.008588114050154586 0.00034352456200618345 0.0020611473720371005 0.22088629336997595 0.09721745104774991 0.29260127217944426 0.02879142952795447 0.009373953799799129 0.016069635085369936 0.010713090056913292 0.007030465349849347 0.0016739203213927017 0.002343488449949782 0.0036826247070639436 0.002343488449949782 0.010378305992634751 0.023434884499497825 0.043187144291931705 0.05691329092735186 0.03080013391362571 0.04586541680616003 0.016404419149648478 0.0381653833277536 0.022095748242383664 0.004352192835621024 0.0036826247070639436 0.0 0.013056578506863073 0.0013391362571141614 0.002678272514228323 0.21392701707398729 0.09909608302644794 0.29705882352941176 0.028308823529411765 0.006985294117647059 0.011029411764705883 0.009558823529411765 0.0058823529411764705 0.001838235294117647 0.0014705882352941176 0.0022058823529411764 0.003676470588235294 0.008455882352941176 0.027205882352941177 0.04264705882352941 0.054044117647058826 0.034926470588235295 0.05330882352941176 0.01838235294117647 0.039338235294117646 0.023529411764705882 0.0055147058823529415 0.003676470588235294 0.0 0.011029411764705883 0.0022058823529411764 0.0011029411764705882 0.2275735294117647 0.07904411764705882 0.29906542056074764 0.02453271028037383 0.005451713395638629 0.015965732087227413 0.00895638629283489 0.0050623052959501555 0.002336448598130841 0.0027258566978193145 0.0027258566978193145 0.002336448598130841 0.005841121495327103 0.033099688473520246 0.044003115264797506 0.0630841121495327 0.03271028037383177 0.05179127725856698 0.01440809968847352 0.0397196261682243 0.02336448598130841 0.002336448598130841 0.005451713395638629 0.000778816199376947 0.012850467289719626 0.001557632398753894 0.001557632398753894 0.21690031152647976 0.08138629283489096 0.28995337007206445 0.02967359050445104 0.005934718100890208 0.0105977108944468 0.008902077151335312 0.005510809665112336 0.00211954217888936 0.00211954217888936 0.0038151759220008477 0.005086901229334464 0.00423908435777872 0.025858414582450192 0.04578211106401017 0.05214073760067826 0.02840186519711742 0.048749470114455275 0.01949978804578211 0.05256464603645612 0.03052140737600678 0.005086901229334464 0.005086901229334464 0.0 0.012293344637558287 0.001271725307333616 0.001695633743111488 0.2043238660449343 0.09877066553624417 0.26912811387900354 0.025355871886120998 0.0066725978647686835 0.01112099644128114 0.010676156583629894 0.005782918149466192 0.002224199288256228 0.0013345195729537367 0.0035587188612099642 0.0026690391459074734 0.005338078291814947 0.03336298932384341 0.045373665480427046 0.061832740213523134 0.03603202846975089 0.06361209964412812 0.017348754448398576 0.042704626334519574 0.024466192170818506 0.005338078291814947 0.0017793594306049821 0.00044483985765124553 0.009786476868327402 0.0017793594306049821 0.00044483985765124553 0.22019572953736655 0.09163701067615658 0.2850532161036557 0.02174919018972698 0.0018509949097639982 0.012031466913465988 0.012494215640906987 0.006478482184173994 0.0023137436372049976 0.0018509949097639982 0.0018509949097639982 0.002776492364645997 0.005090236001850995 0.03378065710319297 0.04812586765386395 0.04997686256362795 0.02313743637204998 0.05969458583988894 0.015270708005552984 0.044423877834335955 0.03007866728366497 0.006015733456732994 0.005552984729291994 0.0013882461823229986 0.011105969458583989 0.0018509949097639982 0.0013882461823229986 0.2077741786210088 0.10689495603887089 0.3003701745108408 0.026441036488630356 0.008989952406134321 0.014278159703860392 0.008989952406134321 0.004230565838180857 0.0037017451084082496 0.0015864621893178213 0.005817028027498678 0.0026441036488630354 0.004759386567953464 0.028027498677948175 0.053410893707033315 0.04389212057112639 0.02168164992067689 0.06240084611316764 0.023268112109994712 0.0449497620306716 0.02908514013749339 0.004759386567953464 0.004230565838180857 0.0 0.015864621893178214 0.0015864621893178213 0.0021152829190904283 0.2025383395029085 0.08038075092543628 0.2723358449946179 0.023681377825618945 0.008611410118406888 0.011840688912809472 0.003767491926803014 0.007534983853606028 0.002691065662002153 0.005920344456404736 0.006458557588805167 0.002152852529601722 0.00968783638320775 0.03552206673842842 0.04790096878363832 0.043595263724434875 0.01991388589881593 0.04843918191603875 0.01829924650161464 0.05005382131324004 0.0263724434876211 0.004843918191603875 0.0032292787944025836 0.0 0.00914962325080732 0.001076426264800861 0.0016146393972012918 0.24058127018299247 0.09472551130247578 0.28324697754749567 0.024179620034542316 0.0034542314335060447 0.010362694300518135 0.0069084628670120895 0.0034542314335060447 0.0028785261945883708 0.004029936672423719 0.0034542314335060447 0.002302820955670697 0.0034542314335060447 0.037996545768566495 0.061600460564191134 0.04548071387449626 0.02072538860103627 0.05008635578583765 0.018998272884283247 0.05641911341393207 0.031088082901554404 0.0057570523891767415 0.0011514104778353484 0.0005757052389176742 0.011514104778353483 0.0005757052389176742 0.0 0.21531375935521013 0.09499136442141623 0.2903629536921151 0.02065081351689612 0.0037546933667083854 0.015644555694618274 0.009386733416770964 0.004380475594493116 0.0012515644555694619 0.0031289111389236545 0.005632040050062578 0.004380475594493116 0.0037546933667083854 0.040675844806007506 0.06445556946182729 0.04630788485607009 0.016270337922403004 0.05506883604505632 0.014392991239048811 0.04505632040050062 0.03128911138923655 0.006257822277847309 0.0018773466833541927 0.0 0.008760951188986232 0.0012515644555694619 0.0012515644555694619 0.204630788485607 0.10012515644555695 0.2604990870359099 0.018259281801582473 0.0036518563603164943 0.016433353621424222 0.0036518563603164943 0.006086427267194157 0.004869141813755326 0.0018259281801582471 0.0030432136335970784 0.00426049908703591 0.006086427267194157 0.04564820450395618 0.05112598904443092 0.05112598904443092 0.018867924528301886 0.0505173463177115 0.020693852708460133 0.05538648813146683 0.02799756542909312 0.0036518563603164943 0.004869141813755326 0.0006086427267194157 0.007303712720632989 0.002434570906877663 0.002434570906877663 0.2245891661594644 0.10407790626902008 0.28492773571920166 0.017894012388162423 0.0034411562284927736 0.009635237439779766 0.01032346868547832 0.0055058499655884375 0.0020646937370956643 0.0027529249827942187 0.0020646937370956643 0.0020646937370956643 0.006194081211286993 0.05505849965588438 0.05437026841018582 0.044735030970406056 0.021335168616655197 0.042670337233310394 0.018582243633860976 0.055746730901582935 0.035788024776324846 0.0034411562284927736 0.0027529249827942187 0.0 0.015141087405368204 0.0020646937370956643 0.0 0.21541637990364762 0.08602890571231935 0.2610350076103501 0.02359208523592085 0.00989345509893455 0.00837138508371385 0.00837138508371385 0.0015220700152207 0.0030441400304414 0.0015220700152207 0.00837138508371385 0.00076103500761035 0.00380517503805175 0.0502283105022831 0.0487062404870624 0.0395738203957382 0.01750380517503805 0.05859969558599695 0.0243531202435312 0.05098934550989345 0.04185692541856925 0.00532724505327245 0.00532724505327245 0.0 0.0076103500761035 0.0015220700152207 0.00076103500761035 0.21993911719939116 0.0974124809741248 0.2745236414961186 0.016231474947071278 0.0056457304163726185 0.008468595624558928 0.009174311926605505 0.0035285815102328866 0.0035285815102328866 0.0035285815102328866 0.004234297812279464 0.0007057163020465773 0.004940014114326041 0.043754410726887794 0.059280169371912494 0.0374029640084686 0.016937191249117856 0.04163726182074806 0.024700070571630206 0.056457304163726185 0.04234297812279464 0.0056457304163726185 0.002117148906139732 0.0 0.011997177134791814 0.002117148906139732 0.0 0.1990119971771348 0.12208892025405788 0.24682395644283123 0.022686025408348458 0.010889292196007259 0.009981851179673321 0.0054446460980036296 0.0054446460980036296 0.0018148820326678765 0.003629764065335753 0.0027223230490018148 0.003629764065335753 0.0054446460980036296 0.056261343012704176 0.05989110707803993 0.05172413793103448 0.014519056261343012 0.0426497277676951 0.015426497277676952 0.056261343012704176 0.030852994555353903 0.0054446460980036296 0.0018148820326678765 0.0 0.013611615245009074 0.0018148820326678765 0.0 0.20417422867513613 0.12704174228675136 0.23927958833619212 0.014579759862778732 0.008576329331046312 0.007718696397941681 0.005145797598627788 0.008576329331046312 0.0008576329331046312 0.0008576329331046312 0.006003430531732418 0.0017152658662092624 0.0017152658662092624 0.04974271012006861 0.06689536878216124 0.038593481989708404 0.011149228130360206 0.04631217838765009 0.0137221269296741 0.07632933104631218 0.045454545454545456 0.007718696397941681 0.002572898799313894 0.0008576329331046312 0.012006861063464836 0.0008576329331046312 0.0008576329331046312 0.20668953687821612 0.12521440823327615 0.26384976525821596 0.008450704225352112 0.0 0.014084507042253521 0.0028169014084507044 0.005633802816901409 0.003755868544600939 0.0009389671361502347 0.004694835680751174 0.003755868544600939 0.004694835680751174 0.059154929577464786 0.0647887323943662 0.03286384976525822 0.014084507042253521 0.04507042253521127 0.018779342723004695 0.06009389671361502 0.03380281690140845 0.008450704225352112 0.0018779342723004694 0.0 0.010328638497652582 0.0009389671361502347 0.0 0.2 0.13708920187793427 0.2607361963190184 0.017382413087934562 0.002044989775051125 0.007157464212678937 0.006134969325153374 0.003067484662576687 0.0010224948875255625 0.0010224948875255625 0.003067484662576687 0.003067484662576687 0.0 0.06646216768916155 0.06646216768916155 0.034764826175869123 0.014314928425357873 0.041922290388548056 0.017382413087934562 0.0541922290388548 0.03578732106339468 0.006134969325153374 0.0010224948875255625 0.0 0.010224948875255624 0.0010224948875255625 0.0010224948875255625 0.2198364008179959 0.12474437627811862 0.2332657200811359 0.009127789046653144 0.0010141987829614604 0.010141987829614604 0.005070993914807302 0.002028397565922921 0.002028397565922921 0.0010141987829614604 0.0030425963488843813 0.002028397565922921 0.0030425963488843813 0.07302231237322515 0.07403651115618662 0.0436105476673428 0.013184584178498986 0.034482758620689655 0.015212981744421906 0.0537525354969574 0.060851926977687626 0.005070993914807302 0.002028397565922921 0.0 0.004056795131845842 0.0010141987829614604 0.0010141987829614604 0.21703853955375255 0.12981744421906694 0.23135964912280702 0.01206140350877193 0.003289473684210526 0.008771929824561403 0.0 0.0021929824561403508 0.0010964912280701754 0.0 0.0043859649122807015 0.0010964912280701754 0.005482456140350877 0.06140350877192982 0.05263157894736842 0.03728070175438596 0.01206140350877193 0.043859649122807015 0.021929824561403508 0.0668859649122807 0.05263157894736842 0.003289473684210526 0.003289473684210526 0.0010964912280701754 0.01864035087719298 0.0 