<?xml version='1.0' encoding='utf-8'?>
<BIF VERSION="0.3">
  <NETWORK>
    <NAME>UNTITLED</NAME>
    <VARIABLE TYPE="nature">
      <NAME>Perpetrator Age</NAME>
      <OUTCOME>2</OUTCOME>
      <OUTCOME>3</OUTCOME>
      <OUTCOME>4</OUTCOME>
      <OUTCOME>5</OUTCOME>
      <OUTCOME>6</OUTCOME>
      <OUTCOME>7</OUTCOME>
      <OUTCOME>8</OUTCOME>
      <OUTCOME>9</OUTCOME>
      <OUTCOME>10</OUTCOME>
      <OUTCOME>11</OUTCOME>
      <OUTCOME>12</OUTCOME>
      <OUTCOME>13</OUTCOME>
      <OUTCOME>14</OUTCOME>
      <OUTCOME>15</OUTCOME>
      <OUTCOME>16</OUTCOME>
      <OUTCOME>17</OUTCOME>
      <OUTCOME>18</OUTCOME>
      <OUTCOME>19</OUTCOME>
      <OUTCOME>20</OUTCOME>
      <OUTCOME>21</OUTCOME>
      <OUTCOME>22</OUTCOME>
      <OUTCOME>23</OUTCOME>
      <OUTCOME>24</OUTCOME>
      <OUTCOME>25</OUTCOME>
      <OUTCOME>26</OUTCOME>
      <OUTCOME>27</OUTCOME>
      <OUTCOME>28</OUTCOME>
      <OUTCOME>29</OUTCOME>
      <OUTCOME>30</OUTCOME>
      <OUTCOME>31</OUTCOME>
      <OUTCOME>32</OUTCOME>
      <OUTCOME>33</OUTCOME>
      <OUTCOME>34</OUTCOME>
      <OUTCOME>35</OUTCOME>
      <OUTCOME>36</OUTCOME>
      <OUTCOME>37</OUTCOME>
      <OUTCOME>38</OUTCOME>
      <OUTCOME>39</OUTCOME>
      <OUTCOME>40</OUTCOME>
      <OUTCOME>41</OUTCOME>
      <OUTCOME>42</OUTCOME>
      <OUTCOME>43</OUTCOME>
      <OUTCOME>44</OUTCOME>
      <OUTCOME>45</OUTCOME>
      <OUTCOME>46</OUTCOME>
      <OUTCOME>47</OUTCOME>
      <OUTCOME>48</OUTCOME>
      <OUTCOME>49</OUTCOME>
      <OUTCOME>50</OUTCOME>
      <OUTCOME>51</OUTCOME>
      <OUTCOME>52</OUTCOME>
      <OUTCOME>53</OUTCOME>
      <OUTCOME>54</OUTCOME>
      <OUTCOME>55</OUTCOME>
      <OUTCOME>56</OUTCOME>
      <OUTCOME>57</OUTCOME>
      <OUTCOME>58</OUTCOME>
      <OUTCOME>59</OUTCOME>
      <OUTCOME>60</OUTCOME>
      <OUTCOME>61</OUTCOME>
      <OUTCOME>62</OUTCOME>
      <OUTCOME>63</OUTCOME>
      <OUTCOME>64</OUTCOME>
      <OUTCOME>65</OUTCOME>
      <OUTCOME>66</OUTCOME>
      <OUTCOME>67</OUTCOME>
      <OUTCOME>68</OUTCOME>
      <OUTCOME>69</OUTCOME>
      <OUTCOME>70</OUTCOME>
      <OUTCOME>71</OUTCOME>
      <OUTCOME>72</OUTCOME>
      <OUTCOME>73</OUTCOME>
      <OUTCOME>74</OUTCOME>
      <OUTCOME>75</OUTCOME>
      <OUTCOME>76</OUTCOME>
      <OUTCOME>77</OUTCOME>
      <OUTCOME>78</OUTCOME>
      <OUTCOME>79</OUTCOME>
      <OUTCOME>80</OUTCOME>
      <OUTCOME>81</OUTCOME>
      <OUTCOME>82</OUTCOME>
      <OUTCOME>83</OUTCOME>
      <OUTCOME>84</OUTCOME>
      <OUTCOME>85</OUTCOME>
      <OUTCOME>86</OUTCOME>
      <OUTCOME>87</OUTCOME>
      <OUTCOME>88</OUTCOME>
      <OUTCOME>89</OUTCOME>
      <OUTCOME>90</OUTCOME>
      <OUTCOME>91</OUTCOME>
      <OUTCOME>92</OUTCOME>
      <OUTCOME>93</OUTCOME>
      <OUTCOME>94</OUTCOME>
      <OUTCOME>95</OUTCOME>
      <OUTCOME>96</OUTCOME>
      <OUTCOME>97</OUTCOME>
      <OUTCOME>98</OUTCOME>
      <OUTCOME>99</OUTCOME>
      <PROPERTY />
    </VARIABLE>
    <VARIABLE TYPE="nature">
      <NAME>Perpetrator Race</NAME>
      <OUTCOME>Asian_Pacific Islander</OUTCOME>
      <OUTCOME>Black</OUTCOME>
      <OUTCOME>Native American_Alaska Native</OUTCOME>
      <OUTCOME>White</OUTCOME>
      <PROPERTY />
    </VARIABLE>
    <VARIABLE TYPE="nature">
      <NAME>Perpetrator Sex</NAME>
      <OUTCOME>Female</OUTCOME>
      <OUTCOME>Male</OUTCOME>
      <PROPERTY />
    </VARIABLE>
    <VARIABLE TYPE="nature">
      <NAME>Relationship</NAME>
      <OUTCOME>Acquaintance</OUTCOME>
      <OUTCOME>Boyfriend</OUTCOME>
      <OUTCOME>Boyfriend_Girlfriend</OUTCOME>
      <OUTCOME>Brother</OUTCOME>
      <OUTCOME>Common_Law Husband</OUTCOME>
      <OUTCOME>Common_Law Wife</OUTCOME>
      <OUTCOME>Daughter</OUTCOME>
      <OUTCOME>Employee</OUTCOME>
      <OUTCOME>Employer</OUTCOME>
      <OUTCOME>Ex_Husband</OUTCOME>
      <OUTCOME>Ex_Wife</OUTCOME>
      <OUTCOME>Family</OUTCOME>
      <OUTCOME>Father</OUTCOME>
      <OUTCOME>Friend</OUTCOME>
      <OUTCOME>Girlfriend</OUTCOME>
      <OUTCOME>Husband</OUTCOME>
      <OUTCOME>In_Law</OUTCOME>
      <OUTCOME>Mother</OUTCOME>
      <OUTCOME>Neighbor</OUTCOME>
      <OUTCOME>Sister</OUTCOME>
      <OUTCOME>Son</OUTCOME>
      <OUTCOME>Stepdaughter</OUTCOME>
      <OUTCOME>Stepfather</OUTCOME>
      <OUTCOME>Stepmother</OUTCOME>
      <OUTCOME>Stepson</OUTCOME>
      <OUTCOME>Stranger</OUTCOME>
      <OUTCOME>Wife</OUTCOME>
      <PROPERTY />
    </VARIABLE>
    <VARIABLE TYPE="nature">
      <NAME>Victim Age</NAME>
      <OUTCOME>0</OUTCOME>
      <OUTCOME>1</OUTCOME>
      <OUTCOME>2</OUTCOME>
      <OUTCOME>3</OUTCOME>
      <OUTCOME>4</OUTCOME>
      <OUTCOME>5</OUTCOME>
      <OUTCOME>6</OUTCOME>
      <OUTCOME>7</OUTCOME>
      <OUTCOME>8</OUTCOME>
      <OUTCOME>9</OUTCOME>
      <OUTCOME>10</OUTCOME>
      <OUTCOME>11</OUTCOME>
      <OUTCOME>12</OUTCOME>
      <OUTCOME>13</OUTCOME>
      <OUTCOME>14</OUTCOME>
      <OUTCOME>15</OUTCOME>
      <OUTCOME>16</OUTCOME>
      <OUTCOME>17</OUTCOME>
      <OUTCOME>18</OUTCOME>
      <OUTCOME>19</OUTCOME>
      <OUTCOME>20</OUTCOME>
      <OUTCOME>21</OUTCOME>
      <OUTCOME>22</OUTCOME>
      <OUTCOME>23</OUTCOME>
      <OUTCOME>24</OUTCOME>
      <OUTCOME>25</OUTCOME>
      <OUTCOME>26</OUTCOME>
      <OUTCOME>27</OUTCOME>
      <OUTCOME>28</OUTCOME>
      <OUTCOME>29</OUTCOME>
      <OUTCOME>30</OUTCOME>
      <OUTCOME>31</OUTCOME>
      <OUTCOME>32</OUTCOME>
      <OUTCOME>33</OUTCOME>
      <OUTCOME>34</OUTCOME>
      <OUTCOME>35</OUTCOME>
      <OUTCOME>36</OUTCOME>
      <OUTCOME>37</OUTCOME>
      <OUTCOME>38</OUTCOME>
      <OUTCOME>39</OUTCOME>
      <OUTCOME>40</OUTCOME>
      <OUTCOME>41</OUTCOME>
      <OUTCOME>42</OUTCOME>
      <OUTCOME>43</OUTCOME>
      <OUTCOME>44</OUTCOME>
      <OUTCOME>45</OUTCOME>
      <OUTCOME>46</OUTCOME>
      <OUTCOME>47</OUTCOME>
      <OUTCOME>48</OUTCOME>
      <OUTCOME>49</OUTCOME>
      <OUTCOME>50</OUTCOME>
      <OUTCOME>51</OUTCOME>
      <OUTCOME>52</OUTCOME>
      <OUTCOME>53</OUTCOME>
      <OUTCOME>54</OUTCOME>
      <OUTCOME>55</OUTCOME>
      <OUTCOME>56</OUTCOME>
      <OUTCOME>57</OUTCOME>
      <OUTCOME>58</OUTCOME>
      <OUTCOME>59</OUTCOME>
      <OUTCOME>60</OUTCOME>
      <OUTCOME>61</OUTCOME>
      <OUTCOME>62</OUTCOME>
      <OUTCOME>63</OUTCOME>
      <OUTCOME>64</OUTCOME>
      <OUTCOME>65</OUTCOME>
      <OUTCOME>66</OUTCOME>
      <OUTCOME>67</OUTCOME>
      <OUTCOME>68</OUTCOME>
      <OUTCOME>69</OUTCOME>
      <OUTCOME>70</OUTCOME>
      <OUTCOME>71</OUTCOME>
      <OUTCOME>72</OUTCOME>
      <OUTCOME>73</OUTCOME>
      <OUTCOME>74</OUTCOME>
      <OUTCOME>75</OUTCOME>
      <OUTCOME>76</OUTCOME>
      <OUTCOME>77</OUTCOME>
      <OUTCOME>78</OUTCOME>
      <OUTCOME>79</OUTCOME>
      <OUTCOME>80</OUTCOME>
      <OUTCOME>81</OUTCOME>
      <OUTCOME>82</OUTCOME>
      <OUTCOME>83</OUTCOME>
      <OUTCOME>84</OUTCOME>
      <OUTCOME>85</OUTCOME>
      <OUTCOME>86</OUTCOME>
      <OUTCOME>87</OUTCOME>
      <OUTCOME>88</OUTCOME>
      <OUTCOME>89</OUTCOME>
      <OUTCOME>90</OUTCOME>
      <OUTCOME>91</OUTCOME>
      <OUTCOME>92</OUTCOME>
      <OUTCOME>93</OUTCOME>
      <OUTCOME>94</OUTCOME>
      <OUTCOME>95</OUTCOME>
      <OUTCOME>96</OUTCOME>
      <OUTCOME>97</OUTCOME>
      <OUTCOME>98</OUTCOME>
      <OUTCOME>99</OUTCOME>
      <PROPERTY />
    </VARIABLE>
    <VARIABLE TYPE="nature">
      <NAME>Victim Race</NAME>
      <OUTCOME>Asian_Pacific Islander</OUTCOME>
      <OUTCOME>Black</OUTCOME>
      <OUTCOME>Native American_Alaska Native</OUTCOME>
      <OUTCOME>White</OUTCOME>
      <PROPERTY />
    </VARIABLE>
    <VARIABLE TYPE="nature">
      <NAME>Victim Sex</NAME>
      <OUTCOME>Female</OUTCOME>
      <OUTCOME>Male</OUTCOME>
      <PROPERTY />
    </VARIABLE>
    <VARIABLE TYPE="nature">
      <NAME>Weapon</NAME>
      <OUTCOME>Blunt Object</OUTCOME>
      <OUTCOME>Drowning</OUTCOME>
      <OUTCOME>Drugs</OUTCOME>
      <OUTCOME>Explosives</OUTCOME>
      <OUTCOME>Fall</OUTCOME>
      <OUTCOME>Fire</OUTCOME>
      <OUTCOME>Firearm</OUTCOME>
      <OUTCOME>Gun</OUTCOME>
      <OUTCOME>Handgun</OUTCOME>
      <OUTCOME>Knife</OUTCOME>
      <OUTCOME>Poison</OUTCOME>
      <OUTCOME>Rifle</OUTCOME>
      <OUTCOME>Shotgun</OUTCOME>
      <OUTCOME>Strangulation</OUTCOME>
      <OUTCOME>Suffocation</OUTCOME>
      <PROPERTY />
    </VARIABLE>
    <DEFINITION>
      <FOR>Perpetrator Age</FOR>
      <GIVEN>Perpetrator Sex</GIVEN>
      <GIVEN>Victim Sex</GIVEN>
      <TABLE>0.0 0.0 0.0 0.0 0.0002889338341519792 0.0 0.0 0.0011557353366079169 0.0005778676683039584 0.001444669170759896 0.0020225368390638545 0.005200809014735626 0.011846287200231146 0.013579890205143023 0.022247905229702398 0.031493787922565734 0.02947125108350188 0.04189540595203698 0.046518347298468654 0.03813926610806125 0.04276220745449292 0.04882981797168449 0.040450736781277086 0.04478474429355678 0.03929500144466917 0.04102860444958105 0.034672060098237506 0.033516324761629586 0.03582779543484542 0.026004045073678126 0.026292978907830108 0.02542617740537417 0.024270442068766253 0.027159780410286046 0.01849176538572667 0.016469228546662815 0.019936434556486565 0.019647500722334586 0.01444669170759896 0.016180294712510836 0.015313493210054898 0.01097948569777521 0.015313493210054898 0.00722334585379948 0.007512279687951459 0.010112684195319271 0.005489742848887605 0.010112684195319271 0.0066454781854955215 0.006067610517191563 0.004911875180583647 0.004622941346431667 0.004911875180583647 0.005489742848887605 0.004622941346431667 0.002600404507367813 0.002600404507367813 0.004045073678127709 0.0034672060098237503 0.0023114706732158337 0.003178272175671771 0.0011557353366079169 0.0020225368390638545 0.001444669170759896 0.0020225368390638545 0.0011557353366079169 0.0008668015024559376 0.0005778676683039584 0.0011557353366079169 0.001444669170759896 0.0002889338341519792 0.0008668015024559376 0.0011557353366079169 0.0005778676683039584 0.0011557353366079169 0.0005778676683039584 0.0008668015024559376 0.0 0.0008668015024559376 0.0005778676683039584 0.0008668015024559376 0.0 0.0 0.0005778676683039584 0.0002889338341519792 0.0 0.0005778676683039584 0.0 0.0 0.0 0.0 0.0 0.0 0.0 0.0 0.0 0.0 0.0 0.0 0.0 0.00013598041881968996 6.799020940984498e-05 0.00013598041881968996 6.799020940984498e-05 0.0 6.799020940984498e-05 0.00013598041881968996 0.00033995104704922493 0.0010198531411476747 0.0020397062822953495 0.004011422355180854 0.007682893663312483 0.011354364971444111 0.01461789502311667 0.020533043241773186 0.026108240413380474 0.03127549632852869 0.029847701930921948 0.031071525700299158 0.03508294805548001 0.03712265433777536 0.03766657601305412 0.03909437041066086 0.03766657601305412 0.03576285014957846 0.03474299700843079 0.03875441936361164 0.03317922219200435 0.032975251563774816 0.029847701930921948 0.029643731302692412 0.02923579004623334 0.027196083763937992 0.026652162088659233 0.024680446015773728 0.0210089747076421 0.019717160728855043 0.020125101985314114 0.01978515093826489 0.01760946423714985 0.014889855860756052 0.015229806907805276 0.014005983138428066 0.013054120206690237 0.013598041881968996 0.010606472667935817 0.011150394343214578 0.009314658689148762 0.007954854500951862 0.008226815338591242 0.007886864291542018 0.007410932825673103 0.005439216752787599 0.005167255915148218 0.006663040522164808 0.004827304868098994 0.0044193636116399235 0.003875441936361164 0.0031955398422627143 0.0021756867011150393 0.0025156377481642643 0.0023796573293445745 0.0024476475387544194 0.0014957846070165896 0.0015637748164264347 0.0019717160728855046 0.0014957846070165896 0.0012918139787870546 0.0007478923035082948 0.0010878433505575197 0.0005439216752787598 0.0008838727223279848 0.0009518629317378297 0.0007478923035082948 0.00033995104704922493 0.00047593146586891486 0.0005439216752787598 0.00033995104704922493 0.00047593146586891486 0.00013598041881968996 0.0 0.0 0.00020397062822953495 0.00013598041881968996 0.0 0.0 6.799020940984498e-05 0.0 0.0 0.0 0.0 0.0 0.0 0.0 0.0 0.0 0.0 0.00020134614278317898 0.00011505493873324512 0.00017258240809986768 0.00011505493873324512 0.00017258240809986768 0.00023010987746649024 0.00023010987746649024 0.0004314560202496692 0.00034516481619973537 0.0008341483058160272 0.001955933958465167 0.003998159120980268 0.007766208364494046 0.013518955301156302 0.017919806707702927 0.022550767991716045 0.02582983374561353 0.028706207213944658 0.030863487315193006 0.03149628947822585 0.03327964102859115 0.03425760800782374 0.03402749813035724 0.03048955876430996 0.03201403670252546 0.03152505321290917 0.03178392682505896 0.030403267560260024 0.029396536846344128 0.027987113846861877 0.026318817235229823 0.02444917448081459 0.026117471092446644 0.024075245929931544 0.02358626244031525 0.022349421848932866 0.021946729563366508 0.021515273543116838 0.019616867054018293 0.017689696830236436 0.01725824080998677 0.016913075993787035 0.017919806707702927 0.013403900362423057 0.014036702525455904 0.013518955301156302 0.012483460852557096 0.012339642179140539 0.011217856526491399 0.01009607087384226 0.00923315883334292 0.008255191854110338 0.008111373180693781 0.007047114997411264 0.007536098487027556 0.00583903814071219 0.006586895242478284 0.005925329344762124 0.004976126100212852 0.004084450325030202 0.00425703273313007 0.005119944773629408 0.004285796467813381 0.003164010815164241 0.003998159120980268 0.003164010815164241 0.002991428407064373 0.0027900822642811943 0.002559972386814704 0.003164010815164241 0.002358626244031525 0.0023298625093482136 0.002070988897198412 0.0020997526318817235 0.002070988897198412 0.001639532876948743 0.001754587815681988 0.0015532416728988093 0.0017258240809986769 0.0012656043260656964 0.001524477938215498 0.0010642581832825174 0.0013806592647989415 0.0010067307139158949 0.0008629120404993384 0.0006903296323994707 0.0004889834896162918 0.0006040384283495369 0.00014381867341655642 0.00028763734683311283 0.00014381867341655642 8.629120404993384e-05 8.629120404993384e-05 5.752746936662256e-05 2.876373468331128e-05 5.752746936662256e-05 5.752746936662256e-05 1.0175527855507505e-05 8.140422284406004e-05 5.0877639277537524e-05 6.105316713304502e-05 0.00011193080641058255 8.140422284406004e-05 0.00013228186212159757 0.0002238616128211651 0.00030526583566522515 0.0006105316713304503 0.001231238870516408 0.0027982701602645636 0.00672602391249046 0.01341134571355889 0.023057746120580005 0.03451539048588145 0.04750953955736454 0.050012719409819384 0.05414398371915543 0.048404986008649196 0.04716357161027728 0.04354108369371661 0.040142457389977106 0.045566013736962604 0.03812770287458662 0.03449503943017044 0.034362757568048845 0.029722716865937422 0.03531925718646655 0.026731111676418215 0.025276011193080643 0.023831086237598574 0.02177562961078606 0.023301958789112186 0.01872297125413381 0.01793945560925973 0.01630119562452302 0.01500890358687357 0.01496820147545154 0.012770287458661917 0.011488170948867973 0.011111676418214195 0.009931315186975324 0.010104299160518951 0.008221826507250063 0.00835410836937166 0.00737725769524294 0.007367082167387433 0.006695497328923938 0.0058916306283388455 0.005688120071228695 0.005026710760620707 0.00452810989570084 0.004874077842788095 0.004467056728567794 0.003653014500127194 0.003795471890104299 0.0030526583566522513 0.0029610786059526837 0.0025540574917323837 0.0026965148817094885 0.002299669295344696 0.002136860849656576 0.0018722971254133808 0.0016586110404477232 0.0015568557618926481 0.001455100483337573 0.0012719409819384382 0.0013431696769269906 0.001088781480539303 0.001149834647672348 0.0009666751462732129 0.0007122869498855253 0.0006919358941745103 0.0005800050877639277 0.0003866700585092852 0.0004578987534978377 0.00037649453065377765 0.00032561689137624016 0.0002035105571101501 0.0002340371406766726 0.00015263291783261258 0.0001933350292546426 9.157975069956754e-05 6.105316713304502e-05 7.122869498855254e-05 9.157975069956754e-05 7.122869498855254e-05 3.052658356652251e-05 1.0175527855507505e-05 0.0 0.0 1.0175527855507505e-05 2.035105571101501e-05 2.035105571101501e-05 0.0 0.0 2.035105571101501e-05 </TABLE>
    </DEFINITION>
    <DEFINITION>
      <FOR>Perpetrator Race</FOR>
      <GIVEN>Relationship</GIVEN>
      <TABLE>0.010912678438399742 0.468057261360662 0.010409326111905289 0.510620734089033 0.009087731562390773 0.6144704648724222 0.0129325410695561 0.3635092624956309 0.015873015873015872 0.3380952380952381 0.012698412698412698 0.6333333333333333 0.01098901098901099 0.3890923890923891 0.017501017501017502 0.5824175824175825 0.001976284584980237 0.6976284584980237 0.011857707509881422 0.2885375494071146 0.007594936708860759 0.47341772151898737 0.005063291139240506 0.5139240506329114 0.03508771929824561 0.2749809305873379 0.011060259344012205 0.6788710907704043 0.03184713375796178 0.22929936305732485 0.0 0.7388535031847133 0.06302521008403361 0.20588235294117646 0.004201680672268907 0.726890756302521 0.016556291390728478 0.31125827814569534 0.009933774834437087 0.6622516556291391 0.02358490566037736 0.21933962264150944 0.009433962264150943 0.7476415094339622 0.022222222222222223 0.40185185185185185 0.021957671957671957 0.553968253968254 0.02107598447032723 0.2545757071547421 0.00887409872434831 0.7154742096505824 0.01849092980457453 0.3648234160021032 0.011830689685391289 0.604854964507931 0.022163258935539255 0.41064460746059 0.009676915873263617 0.5575152177306072 0.01250868658790827 0.3764188093583507 0.005327773917072041 0.605744730136669 0.0199203187250996 0.2818725099601594 0.009462151394422311 0.6887450199203188 0.02155688622754491 0.18982035928143712 0.008982035928143712 0.7796407185628742 0.009489528795811518 0.31839005235602097 0.007198952879581152 0.6649214659685864 0.04852320675105485 0.32489451476793246 0.002109704641350211 0.6244725738396625 0.03007518796992481 0.30306535569693466 0.010699826489300174 0.6561596298438404 0.025806451612903226 0.25806451612903225 0.00967741935483871 0.7064516129032258 0.009146341463414634 0.33384146341463417 0.010670731707317074 0.6463414634146342 0.03529411764705882 0.2235294117647059 0.011764705882352941 0.7294117647058823 0.007462686567164179 0.3824626865671642 0.011194029850746268 0.5988805970149254 0.020723550871503852 0.3794588569112282 0.005700243210376976 0.594117349006891 0.029015120555782592 0.2203718839395178 0.006334286881896199 0.7442787086228034 </TABLE>
    </DEFINITION>
    <DEFINITION>
      <FOR>Perpetrator Sex</FOR>
      <GIVEN>Relationship</GIVEN>
      <GIVEN>Victim Sex</GIVEN>
      <TABLE>0.13700648202710666 0.8629935179728934 0.05916649175587117 0.9408335082441288 0.10869565217391304 0.8913043478260869 0.9737122557726465 0.026287744227353464 0.9871794871794872 0.01282051282051282 0.0018115942028985507 0.9981884057971014 0.061224489795918366 0.9387755102040817 0.08222591362126246 0.9177740863787376 0.08333333333333333 0.9166666666666666 0.991 0.009 0.0008665511265164644 0.9991334488734835 0.3548387096774194 0.6451612903225806 0.45131313131313133 0.5486868686868687 0.4217687074829932 0.5782312925170068 0.07692307692307693 0.9230769230769231 0.05343511450381679 0.9465648854961832 0.16666666666666666 0.8333333333333334 0.04081632653061224 0.9591836734693877 0.06666666666666667 0.9333333333333333 0.9721254355400697 0.027874564459930314 0.0025380710659898475 0.9974619289340102 0.05 0.95 0.1793478260869565 0.8206521739130435 0.0952914798206278 0.9047085201793722 0.08571428571428572 0.9142857142857143 0.11484098939929328 0.8851590106007067 0.18892307692307692 0.811076923076923 0.05691804618843246 0.9430819538115676 0.0052614795918367345 0.9947385204081632 0.17037037037037037 0.8296296296296296 0.19736842105263158 0.8026315789473685 0.9924546097618486 0.00754539023815138 0.08181818181818182 0.9181818181818182 0.07334183673469388 0.9266581632653061 0.1423927178153446 0.8576072821846554 0.09090909090909091 0.9090909090909091 0.12112676056338029 0.8788732394366198 0.04475703324808184 0.9552429667519181 0.21973094170403587 0.7802690582959642 0.10714285714285714 0.8928571428571429 0.2081447963800905 0.7918552036199095 0.3827618164967563 0.6172381835032438 0.066006600660066 0.933993399339934 0.14285714285714285 0.8571428571428571 0.15789473684210525 0.8421052631578947 0.12872841444270017 0.8712715855572999 0.17105263157894737 0.8289473684210527 0.1111111111111111 0.8888888888888888 0.0 1.0 0.0611439842209073 0.9388560157790927 0.050644783118405624 0.9493552168815944 0.028460249382225127 0.9715397506177749 0.0016797900262467192 0.9983202099737533 0.1520912547528517 0.8479087452471483 </TABLE>
    </DEFINITION>
    <DEFINITION>
      <FOR>Relationship</FOR>
      <GIVEN>Victim Age</GIVEN>
      <TABLE>0.061605206073752715 0.0008676789587852494 0.0004338394793926247 0.0026030368763557484 0.0 0.0013015184381778742 0.3878524945770065 0.0 0.0 0.0 0.0004338394793926247 0.03774403470715835 0.0026030368763557484 0.010845986984815618 0.004338394793926247 0.0004338394793926247 0.0004338394793926247 0.0017353579175704988 0.003036876355748373 0.0026030368763557484 0.4516268980477223 0.00737527114967462 0.0 0.0 0.010412147505422993 0.0078091106290672455 0.0039045553145336228 0.15511811023622046 0.0007874015748031496 0.0 0.005511811023622047 0.0 0.0007874015748031496 0.2905511811023622 0.0 0.0 0.0 0.0 0.06456692913385827 0.004724409448818898 0.024409448818897637 0.004724409448818898 0.0015748031496062992 0.0 0.0015748031496062992 0.007086614173228346 0.0031496062992125984 0.3251968503937008 0.03700787401574803 0.0 0.0 0.03385826771653543 0.03228346456692913 0.007086614173228346 0.1772771792360431 0.0 0.0 0.0068560235063663075 0.0 0.0 0.24681684622918706 0.0009794319294809011 0.0 0.0 0.0019588638589618022 0.08031341821743389 0.0 0.03330068560235064 0.002938295788442703 0.0 0.0019588638589618022 0.0068560235063663075 0.00881488736532811 0.00881488736532811 0.2703232125367287 0.04505386875612145 0.0 0.0 0.059745347698334964 0.04113614103819784 0.0068560235063663075 0.14691943127962084 0.00315955766192733 0.001579778830963665 0.017377567140600316 0.0 0.0 0.23380726698262244 0.00315955766192733 0.0 0.0 0.0 0.07740916271721959 0.00631911532385466 0.026856240126382307 0.007898894154818325 0.00631911532385466 0.00315955766192733 0.00315955766192733 0.01579778830963665 0.01579778830963665 0.26066350710900477 0.04265402843601896 0.0 0.0 0.061611374407582936 0.04897314375987362 0.017377567140600316 0.13406593406593406 0.006593406593406593 0.0 0.006593406593406593 0.0 0.004395604395604396 0.25054945054945055 0.0 0.0 0.0 0.006593406593406593 0.1010989010989011 0.002197802197802198 0.013186813186813187 0.008791208791208791 0.006593406593406593 0.002197802197802198 0.01098901098901099 0.024175824175824177 0.01098901098901099 0.2725274725274725 0.03296703296703297 0.0 0.0 0.046153846153846156 0.04395604395604396 0.015384615384615385 0.1076923076923077 0.0 0.003076923076923077 0.003076923076923077 0.0 0.003076923076923077 0.27076923076923076 0.0 0.0 0.0 0.003076923076923077 0.08615384615384615 0.0 0.024615384615384615 0.006153846153846154 0.006153846153846154 0.003076923076923077 0.003076923076923077 0.03076923076923077 0.015384615384615385 0.28923076923076924 0.021538461538461538 0.0 0.0 0.021538461538461538 0.05846153846153846 0.043076923076923075 0.0912280701754386 0.0035087719298245615 0.0 0.02456140350877193 0.0 0.0035087719298245615 0.24912280701754386 0.0 0.0 0.0 0.0035087719298245615 0.07368421052631578 0.0 0.03859649122807018 0.014035087719298246 0.0035087719298245615 0.010526315789473684 0.0035087719298245615 0.028070175438596492 0.014035087719298246 0.22807017543859648 0.021052631578947368 0.0 0.0 0.0456140350877193 0.12280701754385964 0.021052631578947368 0.12734082397003746 0.0 0.003745318352059925 0.03745318352059925 0.0 0.003745318352059925 0.23595505617977527 0.0 0.0 0.0 0.0 0.06741573033707865 0.0 0.026217228464419477 0.0149812734082397 0.00749063670411985 0.003745318352059925 0.003745318352059925 0.033707865168539325 0.033707865168539325 0.24344569288389514 0.003745318352059925 0.003745318352059925 0.0 0.018726591760299626 0.0898876404494382 0.04119850187265917 0.1388888888888889 0.0 0.0 0.06349206349206349 0.0 0.003968253968253968 0.25793650793650796 0.0 0.0 0.0 0.003968253968253968 0.0873015873015873 0.0 0.047619047619047616 0.0 0.0 0.007936507936507936 0.011904761904761904 0.03968253968253968 0.011904761904761904 0.1865079365079365 0.007936507936507936 0.0 0.0 0.015873015873015872 0.08333333333333333 0.031746031746031744 0.10483870967741936 0.0 0.0 0.05241935483870968 0.0 0.0 0.20161290322580644 0.0 0.0 0.0 0.0 0.10080645161290322 0.0 0.056451612903225805 0.004032258064516129 0.004032258064516129 0.0 0.016129032258064516 0.036290322580645164 0.028225806451612902 0.18951612903225806 0.020161290322580645 0.0 0.0 0.012096774193548387 0.13306451612903225 0.04032258064516129 0.13877551020408163 0.00816326530612245 0.0 0.07346938775510205 0.0 0.0 0.12653061224489795 0.004081632653061225 0.0 0.0 0.0 0.07755102040816327 0.00816326530612245 0.09795918367346938 0.004081632653061225 0.0 0.004081632653061225 0.004081632653061225 0.044897959183673466 0.02857142857142857 0.16326530612244897 0.024489795918367346 0.0 0.0 0.0163265306122449 0.1306122448979592 0.044897959183673466 0.17154811715481172 0.0 0.0 0.0794979079497908 0.0 0.0 0.12133891213389121 0.0 0.0 0.0 0.0 0.08368200836820083 0.0 0.1087866108786611 0.0 0.0 0.0 0.012552301255230125 0.06694560669456066 0.02510460251046025 0.14225941422594143 0.016736401673640166 0.0041841004184100415 0.0 0.0041841004184100415 0.14225941422594143 0.02092050209205021 0.1903485254691689 0.002680965147453083 0.0 0.08310991957104558 0.0 0.0 0.07238605898123325 0.0 0.0 0.0 0.0 0.05630026809651475 0.00804289544235925 0.1903485254691689 0.010723860589812333 0.002680965147453083 0.005361930294906166 0.0 0.040214477211796246 0.032171581769437 0.09919571045576407 0.01876675603217158 0.002680965147453083 0.0 0.005361930294906166 0.15281501340482573 0.02680965147453083 0.2894736842105263 0.004048582995951417 0.0 0.038461538461538464 0.0 0.0 0.05060728744939271 0.0 0.0 0.0 0.006072874493927126 0.06477732793522267 0.0 0.19230769230769232 0.016194331983805668 0.0 0.006072874493927126 0.004048582995951417 0.030364372469635626 0.016194331983805668 0.05263157894736842 0.008097165991902834 0.0020242914979757085 0.0 0.010121457489878543 0.1902834008097166 0.018218623481781375 0.31521739130434784 0.0 0.0036231884057971015 0.028985507246376812 0.0 0.0012077294685990338 0.01932367149758454 0.0 0.0 0.0 0.0 0.050724637681159424 0.0024154589371980675 0.20893719806763286 0.036231884057971016 0.0024154589371980675 0.007246376811594203 0.0012077294685990338 0.020531400966183576 0.016908212560386472 0.030193236714975844 0.008454106280193236 0.0012077294685990338 0.0 0.012077294685990338 0.21859903381642512 0.014492753623188406 0.3009931245225363 0.0 0.0 0.02750190985485103 0.0 0.0015278838808250573 0.026737967914438502 0.0 0.0 0.0 0.0 0.02826585179526356 0.0 0.17570664629488159 0.0481283422459893 0.0007639419404125286 0.007639419404125287 0.0 0.01757066462948816 0.0106951871657754 0.019098548510313215 0.0053475935828877 0.0 0.0 0.0038197097020626434 0.31856378915202443 0.007639419404125287 0.36483072258716526 0.0025265285497726125 0.001010611419909045 0.026781202627589692 0.0 0.00404244567963618 0.01010611419909045 0.0 0.0 0.0 0.0005053057099545225 0.025265285497726123 0.0005053057099545225 0.13239009600808488 0.0449722081859525 0.0005053057099545225 0.0035371399696816574 0.001010611419909045 0.010611419909044972 0.01010611419909045 0.01869631126831733 0.0055583628094997475 0.0 0.0 0.003031834259727135 0.32844871147043964 0.0055583628094997475 0.37163561076604557 0.004140786749482402 0.0024154589371980675 0.014492753623188406 0.0 0.0024154589371980675 0.006901311249137336 0.0003450655624568668 0.0003450655624568668 0.0 0.0006901311249137336 0.01828847481021394 0.001725327812284334 0.10869565217391304 0.04623878536922015 0.0 0.004485852311939268 0.0006901311249137336 0.016563146997929608 0.004830917874396135 0.013112491373360938 0.003450655624568668 0.0003450655624568668 0.0 0.005175983436853002 0.35955831608005523 0.013457556935817806 0.38326693227091635 0.007702523240371846 0.0026560424966799467 0.014077025232403718 0.0007968127490039841 0.0018592297476759628 0.0031872509960159364 0.0005312084993359894 0.0002656042496679947 0.0 0.0010624169986719787 0.017264276228419653 0.0005312084993359894 0.09614873837981408 0.05258964143426295 0.0015936254980079682 0.005577689243027889 0.0005312084993359894 0.011686586985391767 0.0045152722443559095 0.01195219123505976 0.0015936254980079682 0.0 0.0 0.0045152722443559095 0.36175298804780875 0.014342629482071713 0.3984126984126984 0.009297052154195011 0.0015873015873015873 0.02108843537414966 0.0013605442176870747 0.006575963718820862 0.002494331065759637 0.00022675736961451248 0.0 0.00022675736961451248 0.0018140589569160999 0.018820861678004536 0.0006802721088435374 0.08344671201814059 0.044444444444444446 0.002494331065759637 0.006122448979591836 0.0006802721088435374 0.012698412698412698 0.0020408163265306124 0.009297052154195011 0.0006802721088435374 0.0 0.0 0.0031746031746031746 0.35011337868480724 0.022222222222222223 0.384988403963736 0.01454775458570525 0.003795066413662239 0.013493569470799072 0.0035842293906810036 0.007590132827324478 0.0010541851149061775 0.001265022137887413 0.0002108370229812355 0.0006325110689437065 0.0014758591608686486 0.017921146953405017 0.0002108370229812355 0.08517815728441915 0.055660974067046176 0.0035842293906810036 0.007590132827324478 0.0002108370229812355 0.012439384355892895 0.0018975332068311196 0.010963525195024247 0.0006325110689437065 0.0006325110689437065 0.0 0.0035842293906810036 0.341134303183639 0.025722116803710733 0.3901213897028045 0.014650481372959398 0.002092925910422771 0.013604018417748012 0.0023022185014650483 0.006697362913352867 0.0027208036835496023 0.0008371703641691084 0.0 0.0 0.0031393888656341567 0.02030138133110088 0.0002092925910422771 0.09250732524068649 0.047928003348681456 0.006069485140226036 0.00858099623273336 0.0 0.015487651737128506 0.0029300962745918793 0.006697362913352867 0.0006278777731268313 0.0008371703641691084 0.0 0.0029300962745918793 0.32858936793637505 0.0301381331100879 0.3825200862237899 0.010777973740936704 0.0031354105428179502 0.018420536939055456 0.003331373701744072 0.008034489515970997 0.00411522633744856 0.0 0.0003919263178522438 0.0001959631589261219 0.0025475210660395845 0.016852831667646482 0.0005878894767783657 0.0842641583382324 0.050950421320791695 0.00823045267489712 0.010582010582010581 0.0001959631589261219 0.013717421124828532 0.0013717421124828531 0.008622378992749364 0.0013717421124828531 0.0001959631589261219 0.0 0.0027434842249657062 0.3319615912208505 0.0348814422888497 0.38335287221570924 0.019148104728409537 0.0033216100039077765 0.019148104728409537 0.004103165298944901 0.006447831184056272 0.0021492770613520907 0.00019538882375928098 0.0005861664712778429 0.0009769441187964048 0.005080109417741305 0.01992966002344666 0.00019538882375928098 0.07971864009378664 0.04552559593591247 0.013091051191871825 0.013481828839390387 0.00019538882375928098 0.019148104728409537 0.0009769441187964048 0.008010941774130519 0.0 0.00019538882375928098 0.00019538882375928098 0.0021492770613520907 0.3085189527159046 0.0441578741695975 0.36925229908036783 0.018992403038784487 0.0023990403838464614 0.016593362654938024 0.005797680927628949 0.009596161535385846 0.001599360255897641 0.0009996001599360256 0.0005997600959616154 0.0005997600959616154 0.004398240703718513 0.021191523390643743 0.0005997600959616154 0.08036785285885646 0.0585765693722511 0.013594562175129948 0.014394242303078768 0.0005997600959616154 0.015193922431027589 0.0011995201919232307 0.0069972011195521796 0.00019992003198720512 0.00039984006397441024 0.00039984006397441024 0.001599360255897641 0.3074770091963215 0.04638144742103159 0.38449701865743413 0.022119638391998462 0.0028851702250432777 0.016926331986920562 0.005385651086747451 0.007116753221773418 0.0021157914983650702 0.001154068090017311 0.00038468936333910367 0.0015387574533564147 0.004039238315060588 0.016349297941911905 0.0 0.08520869397961146 0.04577803423735334 0.016156953260242354 0.013656472398538181 0.00019234468166955183 0.015002885170225043 0.0015387574533564147 0.008078476630121177 0.0005770340450086555 0.00038468936333910367 0.0 0.0015387574533564147 0.2954414310444316 0.05193306405077899 0.3808938089380894 0.02234522345223452 0.004305043050430504 0.015580155801558016 0.007175071750717507 0.00943009430094301 0.0016400164001640015 0.001025010250102501 0.0004100041000410004 0.0016400164001640015 0.004100041000410004 0.017015170151701516 0.0004100041000410004 0.07462074620746208 0.04879048790487905 0.018040180401804017 0.014555145551455515 0.0004100041000410004 0.013325133251332513 0.0018450184501845018 0.005330053300533005 0.0 0.0012300123001230013 0.0002050020500205002 0.0012300123001230013 0.2995079950799508 0.05494054940549405 0.36338389233069857 0.02478102969450972 0.004913480025635548 0.01794488357188635 0.010040589617603077 0.009613330484939116 0.0010681478316599017 0.000640888698995941 0.0010681478316599017 0.002349925229651784 0.005554368724631489 0.015167699209570605 0.0 0.07968382824182867 0.0489211706900235 0.019867549668874173 0.015167699209570605 0.0 0.01815851313821833 0.0021362956633198035 0.009613330484939116 0.000640888698995941 0.001281777397991882 0.0 0.0027771843623157445 0.2804956205938902 0.06472975859859005 0.3771712158808933 0.026618542747575007 0.003158132190390255 0.020076697496052336 0.006767426122264832 0.011955786149334537 0.0015790660951951275 0.0015790660951951275 0.0009023234829686443 0.0022558087074216106 0.007444168734491315 0.018723212271599367 0.0006767426122264832 0.0805323708549515 0.04849988720956463 0.024137153169411233 0.010602300924881571 0.00045116174148432213 0.017369727047146403 0.002932551319648094 0.006090683510038349 0.0011279043537108053 0.0011279043537108053 0.0 0.0015790660951951275 0.2682156553124295 0.05842544552221972 0.36959963809092966 0.021488351051798235 0.004523863379325944 0.017416874010404884 0.006333408731056322 0.010178692603483374 0.002940511196561864 0.0013571590137977834 0.001130965844831486 0.002261931689662972 0.006107215562090025 0.016738294503505995 0.0 0.0735127799140466 0.05089346301741687 0.028952725627686044 0.012440624293146347 0.0 0.01696448767247229 0.0015833521827640805 0.0054286360551911335 0.0009047726758651889 0.002035738520696675 0.0 0.002035738520696675 0.2827414612078715 0.06242931463469803 0.373134328358209 0.024197195838986885 0.005201266395296246 0.017186793306196293 0.009497964721845319 0.011759384893713252 0.0018091361374943465 0.0004522840343735866 0.0018091361374943465 0.0024875621890547263 0.006105834464043419 0.018995929443690638 0.0009045680687471732 0.07394843962008141 0.04794210764360018 0.027137042062415198 0.016508367254635913 0.0002261420171867933 0.01786521935775667 0.0006784260515603799 0.005201266395296246 0.0002261420171867933 0.002261420171867933 0.0 0.0020352781546811396 0.2670737222976029 0.06535504296698326 0.3598677517802645 0.023397761953204477 0.00254323499491353 0.018819938962360123 0.0076297049847405905 0.010427263479145472 0.001525940996948118 0.000254323499491353 0.001780264496439471 0.002288911495422177 0.006358087487283825 0.013987792472024415 0.002034587995930824 0.08646998982706001 0.04959308240081384 0.03229908443540183 0.01703967446592065 0.002034587995930824 0.01780264496439471 0.001780264496439471 0.007375381485249237 0.000508646998982706 0.002288911495422177 0.000508646998982706 0.001271617497456765 0.2627161749745677 0.06739572736520855 0.35495135944125716 0.022449488650536295 0.004489897730107259 0.01845846844599651 0.005737091544025941 0.009229234222998255 0.002494387627837366 0.001746071339486156 0.0007483162883512097 0.005737091544025941 0.009728111748565728 0.01621351958094288 0.001746071339486156 0.07433275130955351 0.06061361935644799 0.037166375654776755 0.016462958343726616 0.001746071339486156 0.019705662259915192 0.0009977550511349464 0.004739336492890996 0.0004988775255674732 0.002993265153404839 0.0002494387627837366 0.002993265153404839 0.24719381391868298 0.07657770017460713 0.34494288102535525 0.02117581499024798 0.004736695458344943 0.015045973808860406 0.009473390916689885 0.008916132627472834 0.0022290331568682086 0.0005572582892170521 0.0019504040122596824 0.0033435497353023124 0.008358874338255782 0.018110894399554194 0.0025076623014767345 0.07940930621342993 0.049595987740317635 0.03928670938980217 0.013931457230426303 0.0025076623014767345 0.01699637782112009 0.0025076623014767345 0.005572582892170521 0.0005572582892170521 0.004179437169127891 0.0 0.0030649205906937865 0.2566174421844525 0.08442463081638339 0.33719327267714366 0.022883926109732562 0.006892748828232699 0.01626688723462917 0.009925558312655087 0.011304108078301628 0.0011028398125172319 0.00027570995312930797 0.0008271298593879239 0.0046870692031982355 0.010201268265784396 0.02178108629721533 0.0030328094844223876 0.07333884753239592 0.05017921146953405 0.03970223325062035 0.013785497656465398 0.0033085194375516956 0.02040253653156879 0.0024813895781637717 0.008271298593879239 0.0005514199062586159 0.0030328094844223876 0.00027570995312930797 0.0008271298593879239 0.2597187758478081 0.07775020678246485 0.3332383124287343 0.026510832383124287 0.003135689851767389 0.016248574686431014 0.008266818700114024 0.01539338654503991 0.0017103762827822121 0.00028506271379703536 0.0019954389965792475 0.002565564424173318 0.009407069555302166 0.02080957810718358 0.003990877993158495 0.0709806157354618 0.05216647662485747 0.03734321550741163 0.011972633979475485 0.002280501710376283 0.023090079817559863 0.0014253135689851768 0.00798175598631699 0.0008551881413911061 0.004846066134549601 0.0005701254275940707 0.002565564424173318 0.25826681870011403 0.08209806157354618 0.34919614147909966 0.026366559485530548 0.0045016077170418 0.01414790996784566 0.011254019292604502 0.010932475884244373 0.0012861736334405145 0.0003215434083601286 0.001607717041800643 0.0022508038585209 0.009967845659163987 0.017363344051446947 0.00482315112540193 0.07395498392282958 0.04662379421221865 0.05048231511254019 0.012540192926045015 0.005787781350482315 0.02090032154340836 0.0012861736334405145 0.0045016077170418 0.001607717041800643 0.005787781350482315 0.0009646302250803858 0.0012861736334405145 0.23729903536977492 0.08295819935691319 0.32667332667332666 0.02664002664002664 0.00666000666000666 0.019647019647019648 0.009324009324009324 0.00999000999000999 0.003663003663003663 0.001998001998001998 0.0 0.003663003663003663 0.008991008991008992 0.017316017316017316 0.01098901098901099 0.07192807192807193 0.056943056943056944 0.041625041625041624 0.015651015651015652 0.006993006993006993 0.019314019314019316 0.001332001332001332 0.006993006993006993 0.000333000333000333 0.00666000666000666 0.000666000666000666 0.002331002331002331 0.2311022311022311 0.09257409257409258 0.328219764537995 0.023902961113093115 0.00463788797716732 0.02176239743132358 0.013200142704245452 0.008205494113449875 0.0024973242953977882 0.0017838030681412772 0.0007135212272565109 0.003210845522654299 0.00927577595433464 0.01890831252229754 0.012843382090617196 0.07420620763467713 0.04388155547627542 0.04637887977167321 0.01569746699964324 0.007491972886193364 0.019265073135925792 0.0017838030681412772 0.00784873349982162 0.00035676061362825543 0.009632536567962896 0.0010702818408847663 0.0014270424545130217 0.23724580806278986 0.08455226542989654 0.3333333333333333 0.020507084265473527 0.005219985085756898 0.014914243102162566 0.011931394481730051 0.010439970171513796 0.002609992542878449 0.0011185682326621924 0.002609992542878449 0.004101416853094705 0.010439970171513796 0.013422818791946308 0.011931394481730051 0.07680835197613721 0.04809843400447427 0.04548844146159582 0.013049962714392245 0.008575689783743476 0.013795674869500374 0.002982848620432513 0.005965697240865026 0.0003728560775540641 0.005965697240865026 0.0018642803877703207 0.0003728560775540641 0.23154362416107382 0.10253542132736763 0.3167655786350148 0.02410979228486647 0.0051928783382789315 0.013353115727002967 0.013724035608308606 0.011498516320474777 0.00370919881305638 0.001112759643916914 0.00185459940652819 0.004821958456973294 0.008531157270029673 0.017804154302670624 0.01483679525222552 0.07381305637982195 0.05007418397626113 0.04970326409495549 0.015949554896142432 0.011498516320474777 0.019658753709198812 0.001112759643916914 0.0051928783382789315 0.0 0.006305637982195846 0.000741839762611276 0.0025964391691394658 0.23071216617210683 0.09532640949554896 0.33208800332088 0.026567040265670402 0.0049813200498132005 0.017434620174346202 0.008302200083022002 0.0103777501037775 0.0029057700290577005 0.0012453300124533001 0.0020755500207555004 0.0029057700290577005 0.008717310087173101 0.0157741801577418 0.014528850145288501 0.0660024906600249 0.04690743046907431 0.048567870485678705 0.0161892901618929 0.009547530095475302 0.021585720215857203 0.00041511000415110004 0.0033208800332088003 0.0012453300124533001 0.0078870900788709 0.0008302200083022001 0.0012453300124533001 0.24159402241594022 0.0867579908675799 0.30463038180341184 0.020714865962632008 0.007717303005686434 0.021933387489845652 0.012185215272136474 0.008935824532900082 0.0020308692120227455 0.0 0.0020308692120227455 0.0036555645816409425 0.006904955320877335 0.022745735174654752 0.01949634443541836 0.06904955320877336 0.04914703493095045 0.04833468724614135 0.018277822908204712 0.012997562956945572 0.020308692120227456 0.004061738424045491 0.006904955320877335 0.00040617384240454913 0.00974817221770918 0.0016246953696181965 0.0016246953696181965 0.23354995938261575 0.09098294069861901 0.2868470149253731 0.026119402985074626 0.0032649253731343282 0.011194029850746268 0.010727611940298507 0.01166044776119403 0.0032649253731343282 0.0013992537313432835 0.0018656716417910447 0.004197761194029851 0.010727611940298507 0.021921641791044777 0.02005597014925373 0.07602611940298508 0.05223880597014925 0.05223880597014925 0.017723880597014924 0.012593283582089552 0.01958955223880597 0.0032649253731343282 0.0032649253731343282 0.0009328358208955224 0.011194029850746268 0.0018656716417910447 0.0004664179104477612 0.240205223880597 0.09514925373134328 0.3016032064128257 0.031062124248496994 0.005511022044088177 0.015531062124248497 0.009519038076152305 0.010521042084168337 0.001503006012024048 0.00250501002004008 0.0035070140280561123 0.001503006012024048 0.008016032064128256 0.023547094188376753 0.02404809619238477 0.07414829659318638 0.04158316633266533 0.0435871743486974 0.016533066132264528 0.01503006012024048 0.020541082164328657 0.002004008016032064 0.00501002004008016 0.0 0.009519038076152305 0.001503006012024048 0.00250501002004008 0.22695390781563127 0.10270541082164329 0.28751210067763794 0.026137463697967087 0.005324298160696999 0.020813165537270088 0.011616650532429816 0.010648596321393998 0.000968054211035818 0.000484027105517909 0.003872216844143272 0.001452081316553727 0.012584704743465635 0.02371732817037754 0.022749273959341725 0.07841239109390126 0.05421103581800581 0.047918683446272994 0.021781219748305904 0.013068731848983543 0.02420135527589545 0.001452081316553727 0.004356243949661181 0.001452081316553727 0.007744433688286544 0.001452081316553727 0.000484027105517909 0.21878025169409487 0.0968054211035818 0.2929125138427464 0.03709856035437431 0.008305647840531562 0.013842746400885935 0.010520487264673311 0.01107419712070875 0.0016611295681063123 0.0011074197120708748 0.004429678848283499 0.0022148394241417496 0.01273532668881506 0.01937984496124031 0.027131782945736434 0.05703211517165006 0.04595791805094131 0.05204872646733112 0.018272425249169437 0.016057585825027684 0.02159468438538206 0.0027685492801771874 0.004429678848283499 0.0 0.006644518272425249 0.0005537098560354374 0.0011074197120708748 0.22978959025470652 0.10132890365448505 0.30303030303030304 0.030303030303030304 0.006060606060606061 0.012672176308539946 0.015426997245179064 0.007713498622589532 0.0022038567493112946 0.001652892561983471 0.0027548209366391185 0.0027548209366391185 0.008264462809917356 0.018732782369146005 0.03526170798898071 0.06391184573002755 0.0440771349862259 0.049586776859504134 0.015977961432506887 0.01928374655647383 0.023691460055096418 0.0027548209366391185 0.006060606060606061 0.0011019283746556473 0.009366391184573003 0.0011019283746556473 0.003305785123966942 0.2159779614325069 0.09696969696969697 0.298444976076555 0.02751196172248804 0.008373205741626795 0.019138755980861243 0.006578947368421052 0.008971291866028708 0.0017942583732057417 0.0029904306220095694 0.0035885167464114833 0.0035885167464114833 0.008971291866028708 0.017344497607655503 0.026913875598086126 0.06698564593301436 0.0430622009569378 0.04844497607655503 0.02033492822966507 0.02332535885167464 0.025717703349282296 0.0035885167464114833 0.0017942583732057417 0.0 0.009569377990430622 0.0017942583732057417 0.0011961722488038277 0.2332535885167464 0.0867224880382775 0.2958015267175573 0.030534351145038167 0.00826972010178117 0.015267175572519083 0.006361323155216285 0.00826972010178117 0.002544529262086514 0.002544529262086514 0.0031806615776081423 0.004452926208651399 0.00826972010178117 0.018447837150127225 0.035623409669211195 0.058524173027989825 0.047073791348600506 0.058524173027989825 0.019720101781170483 0.024173027989821884 0.019083969465648856 0.002544529262086514 0.0019083969465648854 0.0006361323155216285 0.008905852417302799 0.0019083969465648854 0.0019083969465648854 0.22073791348600508 0.09478371501272265 0.28193548387096773 0.027741935483870966 0.00967741935483871 0.012903225806451613 0.0064516129032258064 0.007741935483870968 0.0006451612903225806 0.001935483870967742 0.005161290322580645 0.0006451612903225806 0.005806451612903226 0.026451612903225806 0.03612903225806452 0.0703225806451613 0.02903225806451613 0.06322580645161291 0.02258064516129032 0.026451612903225806 0.02967741935483871 0.0032258064516129032 0.0032258064516129032 0.0012903225806451613 0.01032258064516129 0.0006451612903225806 0.0 0.23806451612903226 0.07870967741935483 0.29070631970260224 0.02899628252788104 0.0052044609665427505 0.012639405204460967 0.011895910780669145 0.0052044609665427505 0.001486988847583643 0.0022304832713754648 0.0052044609665427505 0.005947955390334572 0.007434944237918215 0.02453531598513011 0.02973977695167286 0.06765799256505577 0.0379182156133829 0.051301115241635685 0.016356877323420074 0.02825278810408922 0.021561338289962824 0.001486988847583643 0.005947955390334572 0.001486988847583643 0.008921933085501859 0.0 0.0022304832713754648 0.2319702602230483 0.09368029739776952 0.2903225806451613 0.025659824046920823 0.010263929618768328 0.013929618768328446 0.01466275659824047 0.005865102639296188 0.0007331378299120235 0.001466275659824047 0.0036656891495601175 0.001466275659824047 0.007331378299120235 0.01906158357771261 0.04325513196480939 0.06451612903225806 0.027126099706744868 0.05571847507331378 0.01686217008797654 0.03152492668621701 0.024193548387096774 0.0036656891495601175 0.005131964809384164 0.0 0.015395894428152493 0.0021994134897360706 0.001466275659824047 0.2287390029325513 0.08577712609970674 0.28203125 0.0265625 0.0078125 0.01171875 0.01328125 0.00390625 0.00234375 0.00234375 0.0015625 0.003125 0.00859375 0.02734375 0.0453125 0.06015625 0.0328125 0.0578125 0.01953125 0.040625 0.02421875 0.00234375 0.00078125 0.0 0.01171875 0.00078125 0.00234375 0.23828125 0.07265625 0.28807658833768496 0.024369016536118365 0.005221932114882507 0.012184508268059183 0.011314186248912098 0.0026109660574412533 0.0034812880765883376 0.0017406440382941688 0.0017406440382941688 0.0008703220191470844 0.006092254134029591 0.026979982593559618 0.04699738903394256 0.07745865970409051 0.03220191470844212 0.053959965187119235 0.017406440382941687 0.03220191470844212 0.020887728459530026 0.0034812880765883376 0.0026109660574412533 0.0008703220191470844 0.017406440382941687 0.0008703220191470844 0.0026109660574412533 0.23759791122715404 0.06875543951261967 0.27 0.024545454545454544 0.00909090909090909 0.008181818181818182 0.00909090909090909 0.006363636363636364 0.0018181818181818182 0.0018181818181818182 0.004545454545454545 0.006363636363636364 0.005454545454545455 0.02 0.053636363636363635 0.06818181818181818 0.01818181818181818 0.06 0.02090909090909091 0.05 0.034545454545454546 0.0036363636363636364 0.0036363636363636364 0.0 0.016363636363636365 0.0018181818181818182 0.0036363636363636364 0.20454545454545456 0.09363636363636364 0.2702702702702703 0.023166023166023165 0.009652509652509652 0.009652509652509652 0.01447876447876448 0.006756756756756757 0.0028957528957528956 0.0009652509652509653 0.0028957528957528956 0.005791505791505791 0.007722007722007722 0.03474903474903475 0.04343629343629344 0.07625482625482626 0.023166023166023165 0.07915057915057915 0.02027027027027027 0.032818532818532815 0.025096525096525095 0.006756756756756757 0.0028957528957528956 0.0 0.007722007722007722 0.003861003861003861 0.0009652509652509653 0.20366795366795368 0.08494208494208494 0.2782782782782783 0.016016016016016016 0.001001001001001001 0.013013013013013013 0.013013013013013013 0.008008008008008008 0.002002002002002002 0.002002002002002002 0.001001001001001001 0.002002002002002002 0.006006006006006006 0.02902902902902903 0.03903903903903904 0.06606606606606606 0.018018018018018018 0.06606606606606606 0.018018018018018018 0.037037037037037035 0.026026026026026026 0.006006006006006006 0.002002002002002002 0.001001001001001001 0.011011011011011011 0.003003003003003003 0.001001001001001001 0.22722722722722724 0.10710710710710711 0.2955056179775281 0.02696629213483146 0.008988764044943821 0.014606741573033709 0.010112359550561797 0.006741573033707865 0.0 0.0011235955056179776 0.007865168539325843 0.0022471910112359553 0.0011235955056179776 0.017977528089887642 0.04269662921348315 0.04719101123595506 0.02247191011235955 0.06741573033707865 0.02247191011235955 0.038202247191011236 0.03258426966292135 0.006741573033707865 0.0033707865168539327 0.0 0.019101123595505618 0.0011235955056179776 0.0033707865168539327 0.21235955056179776 0.08764044943820225 0.2705479452054795 0.02054794520547945 0.012557077625570776 0.010273972602739725 0.003424657534246575 0.0091324200913242 0.005707762557077625 0.0045662100456621 0.0045662100456621 0.00228310502283105 0.012557077625570776 0.02511415525114155 0.04908675799086758 0.05136986301369863 0.02054794520547945 0.0502283105022831 0.02054794520547945 0.03995433789954338 0.02511415525114155 0.005707762557077625 0.001141552511415525 0.0 0.014840182648401826 0.00228310502283105 0.00228310502283105 0.2522831050228311 0.08333333333333333 0.2727272727272727 0.02751196172248804 0.004784688995215311 0.004784688995215311 0.004784688995215311 0.0023923444976076554 0.0023923444976076554 0.0035885167464114833 0.0035885167464114833 0.0023923444976076554 0.0011961722488038277 0.034688995215311005 0.05741626794258373 0.05263157894736842 0.0215311004784689 0.05861244019138756 0.0215311004784689 0.05143540669856459 0.03349282296650718 0.007177033492822967 0.0011961722488038277 0.0011961722488038277 0.02033492822966507 0.0011961722488038277 0.0 0.22129186602870812 0.0861244019138756 0.2845953002610966 0.016971279373368148 0.0039164490861618795 0.01174934725848564 0.013054830287206266 0.005221932114882507 0.0013054830287206266 0.0039164490861618795 0.0039164490861618795 0.006527415143603133 0.0013054830287206266 0.037859007832898174 0.0639686684073107 0.05221932114882506 0.009138381201044387 0.06266318537859007 0.018276762402088774 0.05352480417754569 0.03263707571801567 0.005221932114882507 0.0013054830287206266 0.0 0.010443864229765013 0.0013054830287206266 0.0026109660574412533 0.21148825065274152 0.08485639686684072 0.25183374083129584 0.014669926650366748 0.006112469437652812 0.017114914425427872 0.004889975550122249 0.007334963325183374 0.0024449877750611247 0.0012224938875305623 0.0024449877750611247 0.004889975550122249 0.008557457212713936 0.03667481662591687 0.0550122249388753 0.0647921760391198 0.019559902200488997 0.05256723716381418 0.017114914425427872 0.05256723716381418 0.02444987775061125 0.0024449877750611247 0.0012224938875305623 0.0012224938875305623 0.007334963325183374 0.0012224938875305623 0.0012224938875305623 0.2396088019559902 0.10146699266503667 0.2739938080495356 0.015479876160990712 0.0046439628482972135 0.01238390092879257 0.017027863777089782 0.0046439628482972135 0.0015479876160990713 0.0015479876160990713 0.0030959752321981426 0.0 0.007739938080495356 0.04024767801857585 0.06037151702786378 0.04489164086687306 0.020123839009287926 0.043343653250773995 0.020123839009287926 0.05417956656346749 0.03869969040247678 0.0015479876160990713 0.0030959752321981426 0.0 0.018575851393188854 0.0030959752321981426 0.0 0.21671826625386997 0.09287925696594428 0.24871355060034306 0.018867924528301886 0.00686106346483705 0.005145797598627788 0.012006861063464836 0.0017152658662092624 0.0017152658662092624 0.0017152658662092624 0.00686106346483705 0.0 0.005145797598627788 0.03773584905660377 0.04974271012006861 0.04631217838765009 0.02058319039451115 0.06174957118353345 0.036020583190394515 0.06518010291595197 0.03773584905660377 0.003430531732418525 0.005145797598627788 0.0 0.008576329331046312 0.0017152658662092624 0.0 0.22469982847341338 0.09262435677530018 0.2571428571428571 0.01804511278195489 0.006015037593984963 0.007518796992481203 0.007518796992481203 0.0015037593984962407 0.0015037593984962407 0.004511278195488722 0.0030075187969924814 0.0 0.0030075187969924814 0.039097744360902256 0.058646616541353384 0.0481203007518797 0.019548872180451128 0.03609022556390978 0.022556390977443608 0.06466165413533835 0.03609022556390978 0.0030075187969924814 0.0015037593984962407 0.0 0.010526315789473684 0.0030075187969924814 0.0 0.23458646616541354 0.11278195488721804 0.2505353319057816 0.014989293361884369 0.004282655246252677 0.006423982869379015 0.004282655246252677 0.01284796573875803 0.0 0.004282655246252677 0.0021413276231263384 0.004282655246252677 0.006423982869379015 0.05139186295503212 0.032119914346895075 0.0835117773019272 0.021413276231263382 0.04068522483940043 0.014989293361884369 0.055674518201284794 0.044967880085653104 0.0021413276231263384 0.0021413276231263384 0.0 0.014989293361884369 0.004282655246252677 0.0 0.20342612419700215 0.11777301927194861 0.22845691382765532 0.014028056112224449 0.014028056112224449 0.008016032064128256 0.004008016032064128 0.014028056112224449 0.0 0.0 0.012024048096192385 0.0 0.0 0.03406813627254509 0.056112224448897796 0.04809619238476954 0.01002004008016032 0.04809619238476954 0.01603206412825651 0.07615230460921844 0.04809619238476954 0.004008016032064128 0.004008016032064128 0.0 0.012024048096192385 0.0 0.0 0.22845691382765532 0.12024048096192384 0.2605932203389831 0.00847457627118644 0.0 0.01059322033898305 0.00211864406779661 0.00211864406779661 0.00211864406779661 0.00211864406779661 0.00423728813559322 0.006355932203389831 0.00423728813559322 0.04025423728813559 0.059322033898305086 0.04025423728813559 0.01059322033898305 0.0423728813559322 0.01694915254237288 0.057203389830508475 0.038135593220338986 0.01059322033898305 0.00211864406779661 0.0 0.012711864406779662 0.0 0.0 0.2457627118644068 0.12076271186440678 0.25389755011135856 0.011135857461024499 0.0022271714922048997 0.013363028953229399 0.004454342984409799 0.0066815144766146995 0.0 0.0 0.0066815144766146995 0.0022271714922048997 0.0 0.053452115812917596 0.044543429844097995 0.035634743875278395 0.015590200445434299 0.0467706013363029 0.015590200445434299 0.066815144766147 0.0400890868596882 0.0066815144766146995 0.0022271714922048997 0.0 0.013363028953229399 0.0 0.0022271714922048997 0.2182628062360802 0.13808463251670378 0.23732718894009217 0.0 0.0 0.009216589861751152 0.0069124423963133645 0.002304147465437788 0.0 0.002304147465437788 0.0069124423963133645 0.002304147465437788 0.004608294930875576 0.055299539170506916 0.06221198156682028 0.04838709677419355 0.013824884792626729 0.03456221198156682 0.020737327188940093 0.052995391705069124 0.0576036866359447 0.002304147465437788 0.0 0.0 0.0 0.002304147465437788 0.002304147465437788 0.2511520737327189 0.12442396313364056 0.2365038560411311 0.002570694087403599 0.0 0.007712082262210797 0.0 0.002570694087403599 0.0 0.0 0.005141388174807198 0.002570694087403599 0.002570694087403599 0.05398457583547558 0.05398457583547558 0.038560411311053984 0.012853470437017995 0.04884318766066838 0.02056555269922879 0.061696658097686374 0.056555269922879174 0.005141388174807198 0.002570694087403599 0.002570694087403599 0.012853470437017995 0.0 0.0 0.2416452442159383 0.12853470437017994 0.23575129533678757 0.0025906735751295338 0.007772020725388601 0.010362694300518135 0.0025906735751295338 0.007772020725388601 0.0 0.0025906735751295338 0.0051813471502590676 0.0 0.0 0.08549222797927461 0.03626943005181347 0.02849740932642487 0.007772020725388601 0.038860103626943004 0.031088082901554404 0.06476683937823834 0.04145077720207254 0.007772020725388601 0.0 0.0 0.007772020725388601 0.0 0.0 0.25647668393782386 0.11917098445595854 0.1972972972972973 0.013513513513513514 0.008108108108108109 0.002702702702702703 0.002702702702702703 0.0 0.0 0.0 0.008108108108108109 0.002702702702702703 0.002702702702702703 0.1 0.08108108108108109 0.032432432432432434 0.005405405405405406 0.04054054054054054 0.013513513513513514 0.07567567567567568 0.051351351351351354 0.0 0.002702702702702703 0.002702702702702703 0.010810810810810811 0.002702702702702703 0.0 0.20270270270270271 0.14054054054054055 0.24866310160427807 0.00267379679144385 0.0053475935828877 0.0053475935828877 0.0 0.00267379679144385 0.0 0.0 0.0053475935828877 0.0 0.00267379679144385 0.09090909090909091 0.05614973262032086 0.03208556149732621 0.0106951871657754 0.034759358288770054 0.0106951871657754 0.09358288770053476 0.045454545454545456 0.0 0.00267379679144385 0.0 0.0 0.0 0.0 0.19786096256684493 0.15240641711229946 0.2303206997084548 0.0029154518950437317 0.0029154518950437317 0.0 0.0 0.0029154518950437317 0.0 0.0 0.0029154518950437317 0.0 0.0 0.09912536443148688 0.0728862973760933 0.04081632653061224 0.011661807580174927 0.03498542274052478 0.011661807580174927 0.05539358600583091 0.061224489795918366 0.0029154518950437317 0.0 0.0 0.02040816326530612 0.0 0.0 0.21282798833819241 0.13411078717201166 0.2222222222222222 0.010101010101010102 0.0 0.010101010101010102 0.006734006734006734 0.003367003367003367 0.0 0.0 0.010101010101010102 0.0 0.0 0.0707070707070707 0.04040404040404041 0.050505050505050504 0.013468013468013467 0.030303030303030304 0.013468013468013467 0.06397306397306397 0.05723905723905724 0.0 0.0 0.0 0.013468013468013467 0.0 0.0 0.24915824915824916 0.13468013468013468 0.19272727272727272 0.007272727272727273 0.007272727272727273 0.0036363636363636364 0.0036363636363636364 0.0036363636363636364 0.0 0.0036363636363636364 0.0 0.0 0.0 0.11636363636363636 0.07636363636363637 0.01818181818181818 0.0036363636363636364 0.02181818181818182 0.01090909090909091 0.08363636363636363 0.05454545454545454 0.007272727272727273 0.007272727272727273 0.0 0.0036363636363636364 0.0 0.0036363636363636364 0.22181818181818183 0.14909090909090908 0.16049382716049382 0.0 0.0 0.00411522633744856 0.0 0.0 0.00411522633744856 0.00411522633744856 0.0 0.0 0.00411522633744856 0.102880658436214 0.053497942386831275 0.037037037037037035 0.00411522633744856 0.0411522633744856 0.0 0.04938271604938271 0.08641975308641975 0.00411522633744856 0.00411522633744856 0.0 0.01646090534979424 0.0 0.0 0.25925925925925924 0.1646090534979424 0.18947368421052632 0.007017543859649123 0.0 0.0 0.014035087719298246 0.0 0.0 0.0 0.0035087719298245615 0.0 0.0 0.03508771929824561 0.056140350877192984 0.042105263157894736 0.0035087719298245615 0.031578947368421054 0.017543859649122806 0.08070175438596491 0.05263157894736842 0.007017543859649123 0.0035087719298245615 0.0 0.014035087719298246 0.0035087719298245615 0.0035087719298245615 0.2807017543859649 0.1543859649122807 0.2 0.00425531914893617 0.0 0.00851063829787234 0.00425531914893617 0.00425531914893617 0.0 0.00425531914893617 0.00851063829787234 0.0 0.00425531914893617 0.059574468085106386 0.03829787234042553 0.02127659574468085 0.00851063829787234 0.04680851063829787 0.01702127659574468 0.10212765957446808 0.05531914893617021 0.00425531914893617 0.00425531914893617 0.0 0.00425531914893617 0.0 0.0 0.2170212765957447 0.1829787234042553 0.16666666666666666 0.014705882352941176 0.0 0.004901960784313725 0.0 0.014705882352941176 0.0 0.0 0.00980392156862745 0.0 0.0 0.058823529411764705 0.04411764705882353 0.0196078431372549 0.0 0.024509803921568627 0.0 0.08333333333333333 0.06372549019607843 0.00980392156862745 0.0 0.0 0.00980392156862745 0.004901960784313725 0.0 0.3480392156862745 0.12254901960784313 0.1708542713567839 0.0 0.0 0.005025125628140704 0.0 0.0 0.0 0.0 0.005025125628140704 0.0 0.0 0.08040201005025126 0.035175879396984924 0.035175879396984924 0.0 0.020100502512562814 0.01507537688442211 0.07035175879396985 0.05527638190954774 0.010050251256281407 0.010050251256281407 0.0 0.035175879396984924 0.0 0.0 0.23115577889447236 0.22110552763819097 0.1452513966480447 0.0 0.0 0.00558659217877095 0.00558659217877095 0.0 0.00558659217877095 0.0 0.00558659217877095 0.00558659217877095 0.0 0.1340782122905028 0.07262569832402235 0.0335195530726257 0.00558659217877095 0.027932960893854747 0.00558659217877095 0.11731843575418995 0.0446927374301676 0.0 0.00558659217877095 0.0 0.00558659217877095 0.00558659217877095 0.0 0.2122905027932961 0.1564245810055866 0.16071428571428573 0.0 0.0 0.023809523809523808 0.0 0.0 0.0 0.0 0.005952380952380952 0.0 0.005952380952380952 0.10119047619047619 0.023809523809523808 0.017857142857142856 0.005952380952380952 0.02976190476190476 0.005952380952380952 0.09523809523809523 0.06547619047619048 0.005952380952380952 0.005952380952380952 0.0 0.011904761904761904 0.005952380952380952 0.0 0.23809523809523808 0.19047619047619047 0.23636363636363636 0.006060606060606061 0.0 0.0 0.0 0.0 0.006060606060606061 0.0 0.0 0.0 0.0 0.10303030303030303 0.030303030303030304 0.01818181818181818 0.0 0.012121212121212121 0.012121212121212121 0.048484848484848485 0.04242424242424243 0.006060606060606061 0.006060606060606061 0.0 0.0 0.0 0.0 0.23636363636363636 0.23636363636363636 0.16666666666666666 0.0 0.0 0.0 0.0 0.0 0.0 0.0 0.0 0.0 0.013888888888888888 0.0763888888888889 0.034722222222222224 0.020833333333333332 0.0 0.027777777777777776 0.006944444444444444 0.13194444444444445 0.05555555555555555 0.006944444444444444 0.006944444444444444 0.0 0.0 0.0 0.0 0.2847222222222222 0.16666666666666666 0.19626168224299065 0.0 0.0 0.009345794392523364 0.0 0.0 0.0 0.0 0.018691588785046728 0.0 0.0 0.08411214953271028 0.04672897196261682 0.037383177570093455 0.028037383177570093 0.0 0.009345794392523364 0.102803738317757 0.11214953271028037 0.0 0.0 0.0 0.0 0.0 0.0 0.22429906542056074 0.1308411214953271 0.13186813186813187 0.0 0.0 0.0 0.01098901098901099 0.0 0.01098901098901099 0.0 0.01098901098901099 0.0 0.01098901098901099 0.07692307692307693 0.06593406593406594 0.01098901098901099 0.0 0.02197802197802198 0.01098901098901099 0.08791208791208792 0.08791208791208792 0.01098901098901099 0.01098901098901099 0.0 0.0 0.0 0.0 0.31868131868131866 0.12087912087912088 0.10526315789473684 0.0 0.013157894736842105 0.0 0.0 0.0 0.0 0.0 0.0 0.0 0.0 0.10526315789473684 0.05263157894736842 0.039473684210526314 0.0 0.039473684210526314 0.013157894736842105 0.09210526315789473 0.039473684210526314 0.0 0.0 0.0 0.0 0.0 0.0 0.3026315789473684 0.19736842105263158 0.13636363636363635 0.015151515151515152 0.0 0.0 0.0 0.0 0.0 0.0 0.015151515151515152 0.0 0.0 0.12121212121212122 0.09090909090909091 0.045454545454545456 0.015151515151515152 0.015151515151515152 0.045454545454545456 0.09090909090909091 0.015151515151515152 0.0 0.0 0.0 0.0 0.0 0.0 0.2727272727272727 0.12121212121212122 0.27906976744186046 0.023255813953488372 0.0 0.0 0.0 0.0 0.0 0.0 0.0 0.0 0.0 0.09302325581395349 0.046511627906976744 0.023255813953488372 0.0 0.046511627906976744 0.0 0.06976744186046512 0.046511627906976744 0.0 0.0 0.0 0.0 0.023255813953488372 0.0 0.16279069767441862 0.18604651162790697 0.25 0.0 0.0 0.0 0.0 0.0 0.0 0.0 0.0 0.0 0.0 0.16666666666666666 0.027777777777777776 0.0 0.027777777777777776 0.027777777777777776 0.0 0.05555555555555555 0.05555555555555555 0.0 0.027777777777777776 0.0 0.0 0.0 0.0 0.2222222222222222 0.1388888888888889 0.25925925925925924 0.0 0.0 0.0 0.0 0.0 0.0 0.0 0.0 0.0 0.0 0.1111111111111111 0.0 0.0 0.0 0.0 0.0 0.2222222222222222 0.037037037037037035 0.037037037037037035 0.0 0.0 0.0 0.0 0.0 0.25925925925925924 0.07407407407407407 0.15384615384615385 0.0 0.0 0.0 0.0 0.038461538461538464 0.0 0.07692307692307693 0.0 0.0 0.0 0.23076923076923078 0.0 0.07692307692307693 0.0 0.0 0.0 0.0 0.038461538461538464 0.0 0.0 0.0 0.0 0.0 0.0 0.38461538461538464 0.0 0.3333333333333333 0.0 0.0 0.0 0.0 0.0 0.0 0.0 0.0 0.0 0.0 0.05555555555555555 0.05555555555555555 0.0 0.0 0.05555555555555555 0.05555555555555555 0.0 0.05555555555555555 0.0 0.0 0.0 0.0 0.0 0.0 0.16666666666666666 0.2222222222222222 0.1111111111111111 0.0 0.0 0.0 0.0 0.0 0.0 0.0 0.1111111111111111 0.0 0.0 0.1111111111111111 0.0 0.0 0.1111111111111111 0.0 0.0 0.4444444444444444 0.0 0.0 0.0 0.0 0.0 0.0 0.0 0.0 0.1111111111111111 0.16666666666666666 0.0 0.0 0.0 0.0 0.0 0.0 0.0 0.0 0.0 0.0 0.16666666666666666 0.0 0.16666666666666666 0.0 0.0 0.0 0.16666666666666666 0.16666666666666666 0.0 0.0 0.0 0.0 0.0 0.0 0.16666666666666666 0.0 0.125 0.0 0.0 0.0 0.0 0.0 0.0 0.0 0.0 0.0 0.0 0.0 0.125 0.125 0.0 0.0 0.0 0.125 0.25 0.0 0.0 0.0 0.0 0.0 0.0 0.25 0.0 0.39807897545357523 0.012806830309498399 0.0021344717182497333 0.0096051227321238 0.004268943436499467 0.0064034151547491995 0.026680896478121666 0.0032017075773745998 0.0010672358591248667 0.0010672358591248667 0.0021344717182497333 0.026680896478121666 0.0010672358591248667 0.07043756670224119 0.017075773745997867 0.007470651013874066 0.012806830309498399 0.005336179295624333 0.0192102454642476 0.0 0.02774813233724653 0.0010672358591248667 0.0021344717182497333 0.0 0.0021344717182497333 0.31483457844183566 0.02454642475987193 </TABLE>
    </DEFINITION>
    <DEFINITION>
      <FOR>Victim Age</FOR>
      <TABLE>0.015243700813438265 0.008398915415647114 0.0067521989286422855 0.004186231069373719 0.003009060247338139 0.0021493287480986705 0.0018847959791019112 0.0017657562330533694 0.0016665564446795846 0.0016401031677799086 0.0016202632101051519 0.0015805832947556379 0.002466768070894782 0.0032669796971099797 0.005475828318232921 0.008656834865418954 0.013087758746114675 0.019165399113815224 0.024899146881819986 0.02916473778189273 0.03136697308379075 0.03159843925666292 0.03374776800476159 0.033846967793135375 0.033079822763044775 0.034382646650353815 0.032259771179154816 0.03095694729184578 0.02931684412406587 0.029237484293366842 0.02924409761259176 0.026003571192381458 0.026512796772700218 0.023735202698234245 0.023986508828781165 0.023199523841015805 0.02056742278949805 0.019859797632431717 0.01853713378744792 0.017736922161232724 0.017829508630381588 0.01593148601282984 0.016281991931750544 0.014178956418226307 0.013200185172938297 0.013663117518682627 0.01194365452020369 0.01200317439322796 0.011057469744064546 0.010396137821572646 0.01025064479862443 0.008894914357516038 0.009020567422789498 0.008465048607896304 0.007598703789431916 0.007274651147410886 0.0068513987170160705 0.0066067059056940675 0.005885854110177898 0.005793267641029032 0.005528734872032273 0.005065802526287944 0.005409695125983731 0.004272204219297666 0.0038555651081277694 0.004397857284571126 0.0030884200780371667 0.0033000462932345743 0.0031214866741617617 0.002969380331988625 0.00287018054361484 0.002572581178493486 0.002552741220818729 0.002446928113220025 0.002473381390119701 0.0022683684941472125 0.001964155809800939 0.0018186627868527214 0.0016070365716553139 0.0018847959791019112 0.0015541300178559619 0.0013491171218834733 0.0013160505257588783 0.0011837841412604987 0.0011110376297863898 0.0010911976721116328 0.0009523179683883341 0.0007076251570663315 0.0006018120494676278 0.000502612261093843 0.00043647906884465316 0.00028437272667151644 0.00023807949209708352 0.00017855961907281264 0.00017194629984789366 0.00011903974604854176 5.951987302427088e-05 3.967991534951392e-05 5.2906553799351895e-05 0.00619668011374909 </TABLE>
    </DEFINITION>
    <DEFINITION>
      <FOR>Victim Race</FOR>
      <GIVEN>Perpetrator Race</GIVEN>
      <GIVEN>Relationship</GIVEN>
      <TABLE>0.6623616236162362 0.08487084870848709 0.0036900369003690036 0.24907749077490776 0.46153846153846156 0.15384615384615385 0.0 0.38461538461538464 0.3 0.0 0.0 0.7 1.0 0.0 0.0 0.0 0.0 0.0 0.0 1.0 0.8888888888888888 0.0 0.0 0.1111111111111111 0.9347826086956522 0.021739130434782608 0.0 0.043478260869565216 0.6 0.0 0.0 0.4 0.5333333333333333 0.0 0.0 0.4666666666666667 0.4 0.0 0.0 0.6 0.8 0.0 0.0 0.2 0.8690476190476191 0.011904761904761904 0.0 0.11904761904761904 0.868421052631579 0.02631578947368421 0.0 0.10526315789473684 0.7393364928909952 0.018957345971563982 0.009478672985781991 0.23222748815165878 0.7394366197183099 0.028169014084507043 0.007042253521126761 0.22535211267605634 0.5925925925925926 0.07407407407407407 0.0 0.3333333333333333 0.9 0.0 0.0 0.1 0.9166666666666666 0.0 0.0 0.08333333333333333 0.3793103448275862 0.1724137931034483 0.0 0.4482758620689655 0.9565217391304348 0.0 0.0 0.043478260869565216 0.9423076923076923 0.009615384615384616 0.0 0.04807692307692308 0.875 0.0 0.0 0.125 0.5 0.0 0.0 0.5 0.6666666666666666 0.0 0.0 0.3333333333333333 0.25 0.0 0.0 0.75 0.3960880195599022 0.1845965770171149 0.004889975550122249 0.41442542787286063 0.8450704225352113 0.0035211267605633804 0.0035211267605633804 0.14788732394366197 0.0025379618875553834 0.8866090248204069 0.0020647825525874305 0.10878823073945025 0.0 0.9664391353811149 0.0 0.0335608646188851 0.004694835680751174 0.7981220657276995 0.0 0.19718309859154928 0.0 0.9968619246861925 0.0 0.0031380753138075313 0.00141643059490085 0.9773371104815864 0.0 0.021246458923512748 0.0053475935828877 0.8966131907308378 0.0053475935828877 0.09269162210338681 0.0013869625520110957 0.9819694868238558 0.0 0.016643550624133148 0.0 0.5277777777777778 0.0 0.4722222222222222 0.0 0.32653061224489793 0.0 0.673469387755102 0.0 1.0 0.0 0.0 0.0 0.8924731182795699 0.005376344086021506 0.10215053763440861 0.0019749835418038184 0.9697169190256748 0.0 0.028308097432521395 0.002178649237472767 0.9912854030501089 0.0 0.006535947712418301 0.0031227480182560653 0.8902233965889983 0.000720634158059092 0.10593322123468653 0.00798175598631699 0.8388445458000761 0.005701254275940707 0.1474724439376663 0.0006153846153846154 0.9796923076923076 0.0006153846153846154 0.019076923076923078 0.0 0.950530035335689 0.0 0.04946996466431095 0.0031545741324921135 0.9716088328075709 0.0 0.025236593059936908 0.007194244604316547 0.7656731757451182 0.0041109969167523125 0.22302158273381295 0.0 0.987012987012987 0.0 0.012987012987012988 0.0009541984732824427 0.9742366412213741 0.0009541984732824427 0.02385496183206107 0.0 0.9375 0.0 0.0625 0.0 0.954337899543379 0.0 0.045662100456621 0.0 0.7894736842105263 0.0 0.21052631578947367 0.0 0.9121951219512195 0.0 0.08780487804878048 0.02496995593537188 0.6052877553745494 0.004206169047936974 0.36553611964214183 0.006490496059341678 0.8961520630505332 0.0018544274455261937 0.09550301344459898 0.0019342359767891683 0.05609284332688588 0.4951644100580271 0.44680851063829785 0.0 0.13513513513513514 0.5675675675675675 0.2972972972972973 0.0 0.0 0.25 0.75 0.0 0.0 0.9767441860465116 0.023255813953488372 0.0 0.08333333333333333 0.4166666666666667 0.5 0.0 0.0 0.6666666666666666 0.3333333333333333 0.0 0.034482758620689655 0.8275862068965517 0.13793103448275862 0.25 0.25 0.25 0.25 0.0 0.0 0.0 1.0 0.0 0.0 0.3333333333333333 0.6666666666666666 0.0 0.0 0.625 0.375 0.0 0.012048192771084338 0.9036144578313253 0.08433734939759036 0.0 0.0 0.9375 0.0625 0.02962962962962963 0.037037037037037035 0.48148148148148145 0.45185185185185184 0.0 0.0 0.7096774193548387 0.2903225806451613 0.0 0.0 0.6521739130434783 0.34782608695652173 0.0 0.0 0.5789473684210527 0.42105263157894735 0.0 0.0 0.8 0.2 0.0 0.045454545454545456 0.4090909090909091 0.5454545454545454 0.0 0.0 1.0 0.0 0.0 0.0 0.7837837837837838 0.21621621621621623 0.0 0.0 0.6666666666666666 0.3333333333333333 0.0 0.14285714285714285 0.42857142857142855 0.42857142857142855 0.0 0.0 1.0 0.0 0.0 0.0 0.5 0.5 0.02666666666666667 0.09777777777777778 0.19111111111111112 0.6844444444444444 0.016129032258064516 0.04838709677419355 0.7580645161290323 0.1774193548387097 0.005283703324001419 0.05532116241473128 0.007925554986002128 0.9314695792752652 0.006730769230769231 0.06634615384615385 0.006730769230769231 0.9201923076923076 0.007518796992481203 0.03258145363408521 0.002506265664160401 0.9573934837092731 0.0 0.0034940600978336828 0.0006988120195667365 0.9958071278825996 0.0 0.06164383561643835 0.003424657534246575 0.934931506849315 0.008210180623973728 0.016420361247947456 0.006568144499178982 0.9688013136288999 0.0044943820224719105 0.010674157303370787 0.0005617977528089888 0.9842696629213483 0.017241379310344827 0.034482758620689655 0.008620689655172414 0.9396551724137931 0.03468208092485549 0.017341040462427744 0.0 0.9479768786127167 0.0 0.02 0.005 0.975 0.00946372239747634 0.0015772870662460567 0.0031545741324921135 0.9858044164037855 0.0014326647564469914 0.014326647564469915 0.0014326647564469914 0.9828080229226361 0.0007751937984496124 0.0007751937984496124 0.0 0.9984496124031008 0.0044914517531150396 0.044190089829035065 0.0055056505360765 0.9458128078817734 0.014837625979843226 0.020436730123180293 0.006998880179171333 0.9577267637178052 0.0026768642447418736 0.024091778202676863 0.0019120458891013384 0.97131931166348 0.005061460592913955 0.0072306579898770785 0.005784526391901663 0.9819233550253073 0.0038402457757296467 0.0007680491551459293 0.0007680491551459293 0.9946236559139785 0.010826771653543307 0.051181102362204724 0.004921259842519685 0.9330708661417323 0.0 0.0033783783783783786 0.0033783783783783786 0.9932432432432432 0.002644336712208021 0.01895107977082415 0.0 0.9784045835169678 0.0 0.0091324200913242 0.0045662100456621 0.9863013698630136 0.0 0.014150943396226415 0.0047169811320754715 0.9811320754716981 0.0 0.0 0.0 1.0 0.003115264797507788 0.009345794392523364 0.006230529595015576 0.9813084112149533 0.017909684022003325 0.14523900899748413 0.007718220971387147 0.8291330860091254 0.008922443376801648 0.006726149622512011 0.0030199039121482497 0.9813315030885381 </TABLE>
    </DEFINITION>
    <DEFINITION>
      <FOR>Victim Sex</FOR>
      <GIVEN>Relationship</GIVEN>
      <GIVEN>Weapon</GIVEN>
      <TABLE>0.23049378062570675 0.7695062193742932 0.39344262295081966 0.6065573770491803 0.3939393939393939 0.6060606060606061 0.4 0.6 0.35 0.65 0.35174418604651164 0.6482558139534884 0.1045016077170418 0.8954983922829582 0.11827956989247312 0.8817204301075269 0.10655007691684884 0.8934499230831512 0.15 0.85 0.2631578947368421 0.7368421052631579 0.08892238131122833 0.9110776186887717 0.0982095839915745 0.9017904160084255 0.5620300751879699 0.43796992481203006 0.5374149659863946 0.46258503401360546 0.10638297872340426 0.8936170212765957 0.5 0.5 0.0 1.0 0.5 0.5 0.5 0.5 0.0 1.0 0.02857142857142857 0.9714285714285714 0.0 1.0 0.01947502116850127 0.9805249788314987 0.005335365853658537 0.9946646341463414 0.0 1.0 0.0 1.0 0.016666666666666666 0.9833333333333333 0.2727272727272727 0.7272727272727273 0.0 1.0 0.05714285714285714 0.9428571428571428 0.0 1.0 0.0 1.0 0.5 0.5 0.5 0.5 0.0 1.0 0.125 0.875 0.5 0.5 0.24074074074074073 0.7592592592592593 0.10989010989010989 0.8901098901098901 0.0 1.0 0.125 0.875 0.0 1.0 0.0 1.0 0.0 1.0 0.005714285714285714 0.9942857142857143 0.0 1.0 0.0 1.0 0.2 0.8 0.5 0.5 0.04 0.96 0.045454545454545456 0.9545454545454546 0.0 1.0 0.020768431983385256 0.9792315680166147 0.0171875 0.9828125 0.5 0.5 0.02092050209205021 0.9790794979079498 0.018867924528301886 0.9811320754716981 0.0 1.0 0.125 0.875 0.04 0.96 0.5 0.5 0.0 1.0 0.5 0.5 0.5 0.5 0.0 1.0 0.0 1.0 0.5 0.5 0.019801980198019802 0.9801980198019802 0.0044444444444444444 0.9955555555555555 0.5 0.5 0.023809523809523808 0.9761904761904762 0.0 1.0 0.0 1.0 0.5 0.5 0.9894736842105263 0.010526315789473684 1.0 0.0 1.0 0.0 1.0 0.0 0.5 0.5 1.0 0.0 1.0 0.0 1.0 0.0 0.9622641509433962 0.03773584905660377 0.9820627802690582 0.017937219730941704 0.5 0.5 0.958904109589041 0.0410958904109589 0.978494623655914 0.021505376344086023 1.0 0.0 1.0 0.0 0.9932716568544996 0.00672834314550042 0.9465648854961832 0.05343511450381679 1.0 0.0 1.0 0.0 1.0 0.0 0.8083333333333333 0.19166666666666668 0.8571428571428571 0.14285714285714285 0.6666666666666666 0.3333333333333333 0.8818380743982495 0.11816192560175055 0.9010416666666666 0.09895833333333333 0.9333333333333333 0.06666666666666667 0.8852459016393442 0.11475409836065574 0.9014084507042254 0.09859154929577464 0.8909090909090909 0.10909090909090909 0.9606299212598425 0.03937007874015748 0.21052631578947367 0.7894736842105263 0.5 0.5 0.5 0.5 0.14285714285714285 0.8571428571428571 0.5 0.5 0.3333333333333333 0.6666666666666666 0.0 1.0 0.0 1.0 0.12987012987012986 0.8701298701298701 0.26666666666666666 0.7333333333333333 0.5 0.5 0.18181818181818182 0.8181818181818182 0.13333333333333333 0.8666666666666667 0.6666666666666666 0.3333333333333333 0.0 1.0 0.34375 0.65625 0.5 0.5 0.0 1.0 0.5 0.5 0.5 0.5 1.0 0.0 0.0 1.0 0.5 0.5 0.07758620689655173 0.9224137931034483 0.2916666666666667 0.7083333333333334 1.0 0.0 0.08333333333333333 0.9166666666666666 0.0 1.0 0.6666666666666666 0.3333333333333333 0.5 0.5 0.16666666666666666 0.8333333333333334 0.5 0.5 0.5 0.5 0.5 0.5 0.5 0.5 0.0 1.0 0.0 1.0 0.5 0.5 0.05853658536585366 0.9414634146341463 0.06451612903225806 0.9354838709677419 0.0 1.0 0.0 1.0 0.0 1.0 0.5 0.5 0.5 0.5 1.0 0.0 1.0 0.0 0.5 0.5 0.5 0.5 0.5 0.5 1.0 0.0 1.0 0.0 1.0 0.0 0.911578947368421 0.08842105263157894 0.9416666666666667 0.058333333333333334 0.5 0.5 0.9642857142857143 0.03571428571428571 0.9058823529411765 0.09411764705882353 0.9565217391304348 0.043478260869565216 1.0 0.0 0.47109826589595377 0.5289017341040463 0.631578947368421 0.3684210526315789 0.36363636363636365 0.6363636363636364 0.0 1.0 0.5 0.5 0.6607142857142857 0.3392857142857143 0.22058823529411764 0.7794117647058824 0.25 0.75 0.1835677276091784 0.8164322723908216 0.3305882352941176 0.6694117647058824 0.6666666666666666 0.3333333333333333 0.1824561403508772 0.8175438596491228 0.18309859154929578 0.8169014084507042 0.8043478260869565 0.1956521739130435 0.6153846153846154 0.38461538461538464 0.018115942028985508 0.9818840579710145 0.5 0.5 0.0 1.0 0.0 1.0 0.5 0.5 0.14285714285714285 0.8571428571428571 0.0967741935483871 0.9032258064516129 0.5 0.5 0.07445008460236886 0.9255499153976311 0.043835616438356165 0.9561643835616438 0.0 1.0 0.0625 0.9375 0.06844106463878327 0.9315589353612167 0.05263157894736842 0.9473684210526315 0.0625 0.9375 0.20641447368421054 0.7935855263157895 0.20833333333333334 0.7916666666666666 0.3333333333333333 0.6666666666666666 0.25 0.75 0.0 1.0 0.34782608695652173 0.6521739130434783 0.07932011331444759 0.9206798866855525 0.23529411764705882 0.7647058823529411 0.12495330593948449 0.8750466940605155 0.14897798742138366 0.8510220125786163 0.6 0.4 0.11251758087201125 0.8874824191279888 0.09142212189616253 0.9085778781038375 0.46808510638297873 0.5319148936170213 0.46808510638297873 0.5319148936170213 0.9968287526427061 0.003171247357293869 1.0 0.0 1.0 0.0 1.0 0.0 1.0 0.0 0.8837209302325582 0.11627906976744186 0.9763313609467456 0.023668639053254437 1.0 0.0 0.9771346909610575 0.022865309038942478 0.9809802487198245 0.019019751280175568 1.0 0.0 0.9354838709677419 0.06451612903225806 0.963254593175853 0.03674540682414698 0.9967213114754099 0.003278688524590164 1.0 0.0 0.07534246575342465 0.9246575342465754 0.0 1.0 0.0 1.0 0.0 1.0 0.5 0.5 0.03571428571428571 0.9642857142857143 0.039473684210526314 0.9605263157894737 0.0 1.0 0.01533494753833737 0.9846650524616626 0.004405286343612335 0.9955947136563876 0.0 1.0 0.028169014084507043 0.971830985915493 0.021021021021021023 0.978978978978979 0.1875 0.8125 0.125 0.875 0.32558139534883723 0.6744186046511628 0.3333333333333333 0.6666666666666666 0.6666666666666666 0.3333333333333333 0.0 1.0 0.5 0.5 0.6 0.4 0.25 0.75 0.5 0.5 0.2104733131923464 0.7895266868076536 0.20441988950276244 0.7955801104972375 0.5 0.5 0.19339622641509435 0.8066037735849056 0.18725099601593626 0.8127490039840638 0.75 0.25 0.6666666666666666 0.3333333333333333 0.9465648854961832 0.05343511450381679 0.75 0.25 1.0 0.0 1.0 0.0 1.0 0.0 0.9 0.1 0.9285714285714286 0.07142857142857142 1.0 0.0 0.8932291666666666 0.10677083333333333 0.9484978540772532 0.05150214592274678 1.0 0.0 0.8357142857142857 0.16428571428571428 0.8559322033898306 0.1440677966101695 0.9846153846153847 0.015384615384615385 1.0 0.0 0.3835227272727273 0.6164772727272727 0.2 0.8 0.0 1.0 0.5 0.5 0.0 1.0 0.5185185185185185 0.48148148148148145 0.1044776119402985 0.8955223880597015 0.0 1.0 0.16567544604927784 0.8343245539507221 0.3169230769230769 0.683076923076923 0.5 0.5 0.13114754098360656 0.8688524590163934 0.11716621253405994 0.8828337874659401 0.7543859649122807 0.24561403508771928 0.7058823529411765 0.29411764705882354 0.9772727272727273 0.022727272727272728 1.0 0.0 1.0 0.0 0.5 0.5 1.0 0.0 0.8823529411764706 0.11764705882352941 1.0 0.0 1.0 0.0 0.9312169312169312 0.06878306878306878 0.9456521739130435 0.05434782608695652 0.5 0.5 0.8863636363636364 0.11363636363636363 0.9833333333333333 0.016666666666666666 0.9090909090909091 0.09090909090909091 1.0 0.0 0.014194464158977998 0.985805535841022 0.03676470588235294 0.9632352941176471 0.05555555555555555 0.9444444444444444 0.0 1.0 0.0 1.0 0.19047619047619047 0.8095238095238095 0.15 0.85 0.25 0.75 0.1116564417177914 0.8883435582822086 0.0912863070539419 0.9087136929460581 0.2 0.8 0.11842105263157894 0.881578947368421 0.10752688172043011 0.8924731182795699 0.11363636363636363 0.8863636363636364 0.03409090909090909 0.9659090909090909 0.9939393939393939 0.006060606060606061 1.0 0.0 0.5 0.5 0.5 0.5 0.5 0.5 0.7142857142857143 0.2857142857142857 0.8888888888888888 0.1111111111111111 0.5 0.5 0.9855072463768116 0.014492753623188406 0.9523809523809523 0.047619047619047616 0.5 0.5 1.0 0.0 0.8888888888888888 0.1111111111111111 1.0 0.0 1.0 0.0 0.0125 0.9875 0.5 0.5 0.5 0.5 0.0 1.0 0.0 1.0 0.3333333333333333 0.6666666666666666 0.06666666666666667 0.9333333333333333 0.0 1.0 0.0410958904109589 0.958904109589041 0.011834319526627219 0.9881656804733728 0.5 0.5 0.05405405405405406 0.9459459459459459 0.011235955056179775 0.9887640449438202 0.0 1.0 0.0 1.0 1.0 0.0 0.5 0.5 0.5 0.5 0.5 0.5 0.5 0.5 1.0 0.0 1.0 0.0 0.5 0.5 0.8666666666666667 0.13333333333333333 1.0 0.0 0.5 0.5 0.9 0.1 0.6666666666666666 0.3333333333333333 1.0 0.0 0.5 0.5 0.009523809523809525 0.9904761904761905 0.0 1.0 0.5 0.5 0.5 0.5 0.0 1.0 0.25 0.75 0.0 1.0 0.0 1.0 0.10471204188481675 0.8952879581151832 0.0851063829787234 0.9148936170212766 0.0 1.0 0.0 1.0 0.05 0.95 0.0 1.0 0.0 1.0 0.20357142857142857 0.7964285714285714 0.4074074074074074 0.5925925925925926 0.42857142857142855 0.5714285714285714 0.5714285714285714 0.42857142857142855 0.2857142857142857 0.7142857142857143 0.4236453201970443 0.5763546798029556 0.09782608695652174 0.9021739130434783 0.08 0.92 0.07616124411704522 0.9238387558829548 0.14306730415593968 0.8569326958440603 1.0 0.0 0.10894941634241245 0.8910505836575876 0.08603145235892692 0.913968547641073 0.6260162601626016 0.37398373983739835 0.544 0.456 0.9901380670611439 0.009861932938856016 0.9583333333333334 0.041666666666666664 1.0 0.0 1.0 0.0 1.0 0.0 0.9508196721311475 0.04918032786885246 0.9603174603174603 0.03968253968253968 1.0 0.0 0.9716753716351949 0.028324628364805142 0.9732540861812778 0.02674591381872214 1.0 0.0 0.9643916913946587 0.03560830860534125 0.96579476861167 0.03420523138832998 0.98989898989899 0.010101010101010102 0.9879518072289156 0.012048192771084338 </TABLE>
    </DEFINITION>
    <DEFINITION>
      <FOR>Weapon</FOR>
      <GIVEN>Relationship</GIVEN>
      <TABLE>0.10683149777518272 0.0012281796766464655 0.002657700283890712 0.0003020113958966718 0.00040268186119556246 0.006926128012563674 0.025046811766363985 0.0018724706545593655 0.49735236676263916 0.2134213864336481 0.0003825477681357843 0.053435882980651134 0.0764692854410373 0.010711337507801962 0.002959711679787384 0.032855644879412796 0.0 0.0031457532331352674 0.0 0.0 0.004893393918210416 0.01223348479552604 0.0006990562740300594 0.41279272981475007 0.45858091576371895 0.0003495281370150297 0.026913666550157287 0.04194337644180356 0.003844809507165327 0.0017476406850751485 0.16666666666666666 0.004761904761904762 0.0015873015873015873 0.0 0.0 0.004761904761904762 0.012698412698412698 0.0 0.2571428571428571 0.43333333333333335 0.004761904761904762 0.025396825396825397 0.020634920634920634 0.05873015873015873 0.009523809523809525 0.07122507122507123 0.000814000814000814 0.000814000814000814 0.002035002035002035 0.0 0.010175010175010175 0.026862026862026864 0.002035002035002035 0.39194139194139194 0.26048026048026046 0.0 0.09727309727309727 0.12942612942612944 0.003663003663003663 0.003256003256003256 0.024703557312252964 0.0 0.001976284584980237 0.0 0.0 0.007905138339920948 0.022727272727272728 0.0 0.39920948616600793 0.44466403162055335 0.0 0.041501976284584984 0.05632411067193676 0.0009881422924901185 0.0 0.16033755274261605 0.0008438818565400844 0.0016877637130801688 0.0008438818565400844 0.0 0.008438818565400843 0.020253164556962026 0.0016877637130801688 0.4472573839662447 0.1881856540084388 0.0 0.06160337552742616 0.07848101265822785 0.026160337552742614 0.004219409282700422 0.45347063310450036 0.04996186117467582 0.014492753623188406 0.0019069412662090007 0.0011441647597254005 0.04576659038901602 0.010678871090770405 0.0011441647597254005 0.17429443173150266 0.07322654462242563 0.005720823798627002 0.02326468344774981 0.02707856598016781 0.020976353928299007 0.09687261632341723 0.12101910828025478 0.0 0.0 0.044585987261146494 0.0 0.01910828025477707 0.03184713375796178 0.006369426751592357 0.49044585987261147 0.09554140127388536 0.0 0.07006369426751592 0.09554140127388536 0.01910828025477707 0.006369426751592357 0.13445378151260504 0.0 0.008403361344537815 0.0 0.0 0.004201680672268907 0.004201680672268907 0.0 0.48739495798319327 0.20168067226890757 0.004201680672268907 0.05042016806722689 0.07142857142857142 0.025210084033613446 0.008403361344537815 0.019867549668874173 0.0 0.0 0.0 0.0 0.0033112582781456954 0.019867549668874173 0.0 0.6788079470198676 0.10264900662251655 0.0033112582781456954 0.06622516556291391 0.10596026490066225 0.0 0.0 0.05778301886792453 0.003537735849056604 0.0 0.0 0.0 0.0047169811320754715 0.0330188679245283 0.0023584905660377358 0.5601415094339622 0.14150943396226415 0.0 0.0660377358490566 0.10023584905660378 0.027122641509433963 0.003537735849056604 0.18306878306878308 0.0050264550264550265 0.00291005291005291 0.00026455026455026457 0.0 0.014814814814814815 0.01798941798941799 0.0010582010582010583 0.3574074074074074 0.22486772486772486 0.0007936507936507937 0.07539682539682539 0.09391534391534391 0.01216931216931217 0.010317460317460317 0.15307820299500832 0.0 0.0022185246810870773 0.0005546311702717693 0.0 0.01552967276760954 0.017193566278424846 0.0 0.3277870216306156 0.20244037714919577 0.0005546311702717693 0.115363283416528 0.14586799778147533 0.010537992235163616 0.00887409872434831 0.10656384190693191 0.00210323372184734 0.004995180089387433 0.0007010779072824468 0.0001752694768206117 0.004031197966874069 0.030935062658837963 0.0014897905529751994 0.4691963894487775 0.22294277451581807 0.00043817369205152924 0.06230829900972745 0.07764437823153097 0.012356498115853124 0.0041188327052843745 0.1476510067114094 0.001404713594506009 0.004214140783518027 0.0003121585765568909 0.00046823786483533636 0.006711409395973154 0.026377399719057282 0.0012486343062275637 0.4368659278913688 0.21336038707663493 0.0010925550179491181 0.04354612142968628 0.059466208834087715 0.04760418292492586 0.009676915873263617 0.03381978225619643 0.0002316423442205235 0.0032429928190873293 0.000926569376882094 0.0 0.006485985638174659 0.017604818160759785 0.0016214964095436647 0.5740097289784573 0.21033124855223534 0.0032429928190873293 0.06578642575862868 0.07713690062543432 0.003706277507528376 0.001853138753764188 0.06424302788844621 0.00149402390438247 0.00149402390438247 0.00099601593625498 0.0 0.0049800796812749 0.013944223107569721 0.0 0.4945219123505976 0.1802788844621514 0.0 0.10557768924302789 0.125 0.00597609561752988 0.00149402390438247 0.23532934131736527 0.0023952095808383233 0.006586826347305389 0.0011976047904191617 0.0005988023952095808 0.017964071856287425 0.008383233532934131 0.0023952095808383233 0.22994011976047904 0.27904191616766466 0.0023952095808383233 0.08383233532934131 0.07065868263473053 0.038922155688622756 0.02035928143712575 0.11518324607329843 0.0016361256544502618 0.0003272251308900524 0.0 0.0003272251308900524 0.01767015706806283 0.021924083769633507 0.000981675392670157 0.3851439790575916 0.21269633507853403 0.0 0.09980366492146597 0.12009162303664922 0.018651832460732983 0.00556282722513089 0.09282700421940929 0.004219409282700422 0.002109704641350211 0.0 0.002109704641350211 0.035864978902953586 0.016877637130801686 0.002109704641350211 0.3987341772151899 0.1940928270042194 0.0 0.09282700421940929 0.12658227848101267 0.023206751054852322 0.008438818565400843 0.407460960092539 0.03932909196067091 0.015615962984384037 0.0002891844997108155 0.001156737998843262 0.024291497975708502 0.01156737998843262 0.002313475997686524 0.23568536726431463 0.06969346443030654 0.00578368999421631 0.04395604395604396 0.05378831694621168 0.012724117987275883 0.07634470792365529 0.532258064516129 0.0064516129032258064 0.0 0.0 0.0 0.02258064516129032 0.02903225806451613 0.0 0.22258064516129034 0.06774193548387097 0.0 0.04838709677419355 0.02903225806451613 0.012903225806451613 0.02903225806451613 0.12195121951219512 0.0 0.0 0.001524390243902439 0.001524390243902439 0.004573170731707317 0.022865853658536585 0.001524390243902439 0.33384146341463417 0.2576219512195122 0.0 0.11280487804878049 0.13567073170731708 0.004573170731707317 0.001524390243902439 0.12941176470588237 0.0 0.0 0.0 0.0 0.011764705882352941 0.011764705882352941 0.0 0.35294117647058826 0.15294117647058825 0.0 0.11764705882352941 0.1411764705882353 0.08235294117647059 0.0 0.3917910447761194 0.009328358208955223 0.0 0.0 0.0018656716417910447 0.007462686567164179 0.007462686567164179 0.0037313432835820895 0.35634328358208955 0.08768656716417911 0.0018656716417910447 0.04664179104477612 0.07462686567164178 0.0018656716417910447 0.009328358208955223 0.08512363194162952 0.0006840291852452372 0.00035468179975678963 0.00017734089987839482 0.00017734089987839482 0.005142886096473449 0.03729225780299959 0.0012667207134171058 0.6190464126469396 0.13776854479124442 0.00010133765707336846 0.045576611268747465 0.054773003648155655 0.00934839886501824 0.0031668017835427644 0.10359624029423785 0.002451982018798529 0.0025541479362484673 0.0003064977523498161 0.0004086636697997548 0.0062321209644462605 0.025745811197384554 0.0015324887617490805 0.5085819370657948 0.1375153248876175 0.0018389865140988966 0.06885982836125869 0.10155292194523907 0.030343277482631794 0.008479771148344912 </TABLE>
    </DEFINITION>
  </NETWORK>
</BIF>
