<?xml version='1.0' encoding='utf-8'?>
<BIF VERSION="0.3">
  <NETWORK>
    <NAME>UNTITLED</NAME>
    <VARIABLE TYPE="nature">
      <NAME>Perpetrator Age</NAME>
      <OUTCOME>0</OUTCOME>
      <OUTCOME>2</OUTCOME>
      <OUTCOME>3</OUTCOME>
      <OUTCOME>4</OUTCOME>
      <OUTCOME>5</OUTCOME>
      <OUTCOME>6</OUTCOME>
      <OUTCOME>7</OUTCOME>
      <OUTCOME>8</OUTCOME>
      <OUTCOME>9</OUTCOME>
      <OUTCOME>10</OUTCOME>
      <OUTCOME>11</OUTCOME>
      <OUTCOME>12</OUTCOME>
      <OUTCOME>13</OUTCOME>
      <OUTCOME>14</OUTCOME>
      <OUTCOME>15</OUTCOME>
      <OUTCOME>16</OUTCOME>
      <OUTCOME>17</OUTCOME>
      <OUTCOME>18</OUTCOME>
      <OUTCOME>19</OUTCOME>
      <OUTCOME>20</OUTCOME>
      <OUTCOME>21</OUTCOME>
      <OUTCOME>22</OUTCOME>
      <OUTCOME>23</OUTCOME>
      <OUTCOME>24</OUTCOME>
      <OUTCOME>25</OUTCOME>
      <OUTCOME>26</OUTCOME>
      <OUTCOME>27</OUTCOME>
      <OUTCOME>28</OUTCOME>
      <OUTCOME>29</OUTCOME>
      <OUTCOME>30</OUTCOME>
      <OUTCOME>31</OUTCOME>
      <OUTCOME>32</OUTCOME>
      <OUTCOME>33</OUTCOME>
      <OUTCOME>34</OUTCOME>
      <OUTCOME>35</OUTCOME>
      <OUTCOME>36</OUTCOME>
      <OUTCOME>37</OUTCOME>
      <OUTCOME>38</OUTCOME>
      <OUTCOME>39</OUTCOME>
      <OUTCOME>40</OUTCOME>
      <OUTCOME>41</OUTCOME>
      <OUTCOME>42</OUTCOME>
      <OUTCOME>43</OUTCOME>
      <OUTCOME>44</OUTCOME>
      <OUTCOME>45</OUTCOME>
      <OUTCOME>46</OUTCOME>
      <OUTCOME>47</OUTCOME>
      <OUTCOME>48</OUTCOME>
      <OUTCOME>49</OUTCOME>
      <OUTCOME>50</OUTCOME>
      <OUTCOME>51</OUTCOME>
      <OUTCOME>52</OUTCOME>
      <OUTCOME>53</OUTCOME>
      <OUTCOME>54</OUTCOME>
      <OUTCOME>55</OUTCOME>
      <OUTCOME>56</OUTCOME>
      <OUTCOME>57</OUTCOME>
      <OUTCOME>58</OUTCOME>
      <OUTCOME>59</OUTCOME>
      <OUTCOME>60</OUTCOME>
      <OUTCOME>61</OUTCOME>
      <OUTCOME>62</OUTCOME>
      <OUTCOME>63</OUTCOME>
      <OUTCOME>64</OUTCOME>
      <OUTCOME>65</OUTCOME>
      <OUTCOME>66</OUTCOME>
      <OUTCOME>67</OUTCOME>
      <OUTCOME>68</OUTCOME>
      <OUTCOME>69</OUTCOME>
      <OUTCOME>70</OUTCOME>
      <OUTCOME>71</OUTCOME>
      <OUTCOME>72</OUTCOME>
      <OUTCOME>73</OUTCOME>
      <OUTCOME>74</OUTCOME>
      <OUTCOME>75</OUTCOME>
      <OUTCOME>76</OUTCOME>
      <OUTCOME>77</OUTCOME>
      <OUTCOME>78</OUTCOME>
      <OUTCOME>79</OUTCOME>
      <OUTCOME>80</OUTCOME>
      <OUTCOME>81</OUTCOME>
      <OUTCOME>82</OUTCOME>
      <OUTCOME>83</OUTCOME>
      <OUTCOME>84</OUTCOME>
      <OUTCOME>85</OUTCOME>
      <OUTCOME>86</OUTCOME>
      <OUTCOME>87</OUTCOME>
      <OUTCOME>88</OUTCOME>
      <OUTCOME>89</OUTCOME>
      <OUTCOME>90</OUTCOME>
      <OUTCOME>91</OUTCOME>
      <OUTCOME>92</OUTCOME>
      <OUTCOME>93</OUTCOME>
      <OUTCOME>94</OUTCOME>
      <OUTCOME>95</OUTCOME>
      <OUTCOME>96</OUTCOME>
      <OUTCOME>97</OUTCOME>
      <OUTCOME>98</OUTCOME>
      <OUTCOME>99</OUTCOME>
      <PROPERTY />
    </VARIABLE>
    <VARIABLE TYPE="nature">
      <NAME>Perpetrator Race</NAME>
      <OUTCOME>Asian_Pacific Islander</OUTCOME>
      <OUTCOME>Black</OUTCOME>
      <OUTCOME>Native American_Alaska Native</OUTCOME>
      <OUTCOME>White</OUTCOME>
      <PROPERTY />
    </VARIABLE>
    <VARIABLE TYPE="nature">
      <NAME>Perpetrator Sex</NAME>
      <OUTCOME>Female</OUTCOME>
      <OUTCOME>Male</OUTCOME>
      <PROPERTY />
    </VARIABLE>
    <VARIABLE TYPE="nature">
      <NAME>Relationship</NAME>
      <OUTCOME>Acquaintance</OUTCOME>
      <OUTCOME>Boyfriend</OUTCOME>
      <OUTCOME>Boyfriend_Girlfriend</OUTCOME>
      <OUTCOME>Brother</OUTCOME>
      <OUTCOME>Common_Law Husband</OUTCOME>
      <OUTCOME>Common_Law Wife</OUTCOME>
      <OUTCOME>Daughter</OUTCOME>
      <OUTCOME>Employee</OUTCOME>
      <OUTCOME>Employer</OUTCOME>
      <OUTCOME>Ex_Husband</OUTCOME>
      <OUTCOME>Ex_Wife</OUTCOME>
      <OUTCOME>Family</OUTCOME>
      <OUTCOME>Father</OUTCOME>
      <OUTCOME>Friend</OUTCOME>
      <OUTCOME>Girlfriend</OUTCOME>
      <OUTCOME>Husband</OUTCOME>
      <OUTCOME>In_Law</OUTCOME>
      <OUTCOME>Mother</OUTCOME>
      <OUTCOME>Neighbor</OUTCOME>
      <OUTCOME>Sister</OUTCOME>
      <OUTCOME>Son</OUTCOME>
      <OUTCOME>Stepdaughter</OUTCOME>
      <OUTCOME>Stepfather</OUTCOME>
      <OUTCOME>Stepmother</OUTCOME>
      <OUTCOME>Stepson</OUTCOME>
      <OUTCOME>Stranger</OUTCOME>
      <OUTCOME>Wife</OUTCOME>
      <PROPERTY />
    </VARIABLE>
    <VARIABLE TYPE="nature">
      <NAME>Victim Age</NAME>
      <OUTCOME>0</OUTCOME>
      <OUTCOME>1</OUTCOME>
      <OUTCOME>2</OUTCOME>
      <OUTCOME>3</OUTCOME>
      <OUTCOME>4</OUTCOME>
      <OUTCOME>5</OUTCOME>
      <OUTCOME>6</OUTCOME>
      <OUTCOME>7</OUTCOME>
      <OUTCOME>8</OUTCOME>
      <OUTCOME>9</OUTCOME>
      <OUTCOME>10</OUTCOME>
      <OUTCOME>11</OUTCOME>
      <OUTCOME>12</OUTCOME>
      <OUTCOME>13</OUTCOME>
      <OUTCOME>14</OUTCOME>
      <OUTCOME>15</OUTCOME>
      <OUTCOME>16</OUTCOME>
      <OUTCOME>17</OUTCOME>
      <OUTCOME>18</OUTCOME>
      <OUTCOME>19</OUTCOME>
      <OUTCOME>20</OUTCOME>
      <OUTCOME>21</OUTCOME>
      <OUTCOME>22</OUTCOME>
      <OUTCOME>23</OUTCOME>
      <OUTCOME>24</OUTCOME>
      <OUTCOME>25</OUTCOME>
      <OUTCOME>26</OUTCOME>
      <OUTCOME>27</OUTCOME>
      <OUTCOME>28</OUTCOME>
      <OUTCOME>29</OUTCOME>
      <OUTCOME>30</OUTCOME>
      <OUTCOME>31</OUTCOME>
      <OUTCOME>32</OUTCOME>
      <OUTCOME>33</OUTCOME>
      <OUTCOME>34</OUTCOME>
      <OUTCOME>35</OUTCOME>
      <OUTCOME>36</OUTCOME>
      <OUTCOME>37</OUTCOME>
      <OUTCOME>38</OUTCOME>
      <OUTCOME>39</OUTCOME>
      <OUTCOME>40</OUTCOME>
      <OUTCOME>41</OUTCOME>
      <OUTCOME>42</OUTCOME>
      <OUTCOME>43</OUTCOME>
      <OUTCOME>44</OUTCOME>
      <OUTCOME>45</OUTCOME>
      <OUTCOME>46</OUTCOME>
      <OUTCOME>47</OUTCOME>
      <OUTCOME>48</OUTCOME>
      <OUTCOME>49</OUTCOME>
      <OUTCOME>50</OUTCOME>
      <OUTCOME>51</OUTCOME>
      <OUTCOME>52</OUTCOME>
      <OUTCOME>53</OUTCOME>
      <OUTCOME>54</OUTCOME>
      <OUTCOME>55</OUTCOME>
      <OUTCOME>56</OUTCOME>
      <OUTCOME>57</OUTCOME>
      <OUTCOME>58</OUTCOME>
      <OUTCOME>59</OUTCOME>
      <OUTCOME>60</OUTCOME>
      <OUTCOME>61</OUTCOME>
      <OUTCOME>62</OUTCOME>
      <OUTCOME>63</OUTCOME>
      <OUTCOME>64</OUTCOME>
      <OUTCOME>65</OUTCOME>
      <OUTCOME>66</OUTCOME>
      <OUTCOME>67</OUTCOME>
      <OUTCOME>68</OUTCOME>
      <OUTCOME>69</OUTCOME>
      <OUTCOME>70</OUTCOME>
      <OUTCOME>71</OUTCOME>
      <OUTCOME>72</OUTCOME>
      <OUTCOME>73</OUTCOME>
      <OUTCOME>74</OUTCOME>
      <OUTCOME>75</OUTCOME>
      <OUTCOME>76</OUTCOME>
      <OUTCOME>77</OUTCOME>
      <OUTCOME>78</OUTCOME>
      <OUTCOME>79</OUTCOME>
      <OUTCOME>80</OUTCOME>
      <OUTCOME>81</OUTCOME>
      <OUTCOME>82</OUTCOME>
      <OUTCOME>83</OUTCOME>
      <OUTCOME>84</OUTCOME>
      <OUTCOME>85</OUTCOME>
      <OUTCOME>86</OUTCOME>
      <OUTCOME>87</OUTCOME>
      <OUTCOME>88</OUTCOME>
      <OUTCOME>89</OUTCOME>
      <OUTCOME>90</OUTCOME>
      <OUTCOME>91</OUTCOME>
      <OUTCOME>92</OUTCOME>
      <OUTCOME>93</OUTCOME>
      <OUTCOME>94</OUTCOME>
      <OUTCOME>95</OUTCOME>
      <OUTCOME>96</OUTCOME>
      <OUTCOME>97</OUTCOME>
      <OUTCOME>98</OUTCOME>
      <OUTCOME>99</OUTCOME>
      <OUTCOME>998</OUTCOME>
      <PROPERTY />
    </VARIABLE>
    <VARIABLE TYPE="nature">
      <NAME>Victim Race</NAME>
      <OUTCOME>Asian_Pacific Islander</OUTCOME>
      <OUTCOME>Black</OUTCOME>
      <OUTCOME>Native American_Alaska Native</OUTCOME>
      <OUTCOME>White</OUTCOME>
      <PROPERTY />
    </VARIABLE>
    <VARIABLE TYPE="nature">
      <NAME>Victim Sex</NAME>
      <OUTCOME>Female</OUTCOME>
      <OUTCOME>Male</OUTCOME>
      <PROPERTY />
    </VARIABLE>
    <VARIABLE TYPE="nature">
      <NAME>Weapon</NAME>
      <OUTCOME>Blunt Object</OUTCOME>
      <OUTCOME>Drowning</OUTCOME>
      <OUTCOME>Drugs</OUTCOME>
      <OUTCOME>Explosives</OUTCOME>
      <OUTCOME>Fall</OUTCOME>
      <OUTCOME>Fire</OUTCOME>
      <OUTCOME>Firearm</OUTCOME>
      <OUTCOME>Gun</OUTCOME>
      <OUTCOME>Handgun</OUTCOME>
      <OUTCOME>Knife</OUTCOME>
      <OUTCOME>Poison</OUTCOME>
      <OUTCOME>Rifle</OUTCOME>
      <OUTCOME>Shotgun</OUTCOME>
      <OUTCOME>Strangulation</OUTCOME>
      <OUTCOME>Suffocation</OUTCOME>
      <PROPERTY />
    </VARIABLE>
    <DEFINITION>
      <FOR>Perpetrator Age</FOR>
      <GIVEN>Perpetrator Sex</GIVEN>
      <GIVEN>Victim Sex</GIVEN>
      <TABLE>0.011982881597717546 0.0 0.0 0.0 0.0 0.0002853067047075606 0.0 0.0 0.0011412268188302425 0.0005706134094151213 0.0014265335235378032 0.0019971469329529245 0.005135520684736091 0.011697574893009986 0.013409415121255349 0.021968616262482168 0.03138373751783167 0.029101283880171185 0.04136947218259629 0.045934379457917264 0.037660485021398 0.04251069900142653 0.04821683309557775 0.039942938659058486 0.0442225392296719 0.038801711840228244 0.04051355206847361 0.034236804564907276 0.033095577746077035 0.03537803138373752 0.025677603423680456 0.025962910128388018 0.025106990014265335 0.023965763195435093 0.026818830242510697 0.01825962910128388 0.016262482168330955 0.019686162624821684 0.019400855920114122 0.014265335235378032 0.015977175463623396 0.015121255349500713 0.010841654778887305 0.015121255349500713 0.007132667617689016 0.007417974322396576 0.009985734664764621 0.005420827389443652 0.009985734664764621 0.006562054208273894 0.005991440798858773 0.0048502139800285305 0.00456490727532097 0.0048502139800285305 0.005420827389443652 0.00456490727532097 0.0025677603423680455 0.0025677603423680455 0.003994293865905849 0.0034236804564907277 0.002282453637660485 0.003138373751783167 0.0011412268188302425 0.0019971469329529245 0.0014265335235378032 0.0019971469329529245 0.0011412268188302425 0.0008559201141226819 0.0005706134094151213 0.0011412268188302425 0.0014265335235378032 0.0002853067047075606 0.0008559201141226819 0.0011412268188302425 0.0005706134094151213 0.0011412268188302425 0.0005706134094151213 0.0008559201141226819 0.0 0.0008559201141226819 0.0005706134094151213 0.0008559201141226819 0.0 0.0 0.0005706134094151213 0.0002853067047075606 0.0 0.0005706134094151213 0.0 0.0 0.0 0.0 0.0 0.0 0.0 0.0 0.0 0.0 0.0 0.010493744114085834 0.0 0.0 0.0001345351809498184 6.72675904749092e-05 0.0001345351809498184 6.72675904749092e-05 0.0 6.72675904749092e-05 0.0001345351809498184 0.00033633795237454595 0.001009013857123638 0.002018027714247276 0.003968787838019642 0.007601237723664739 0.011233687609309834 0.014462531952105475 0.020314812323422575 0.02583075474236513 0.030943091618458228 0.029597739808960043 0.0307412888470335 0.03471007668505314 0.03672810439930042 0.037266245123099694 0.03867886452307279 0.037266245123099694 0.03538275258980223 0.03437373873267859 0.03834252657069824 0.03282658415175568 0.03269204897080587 0.029530472218485135 0.029328669447060408 0.02892506390421095 0.026907036189963675 0.026368895466164402 0.024418135342392035 0.02078568545674694 0.019507601237723663 0.01991120678057312 0.019574868828198574 0.01742230593300148 0.014731602314005112 0.015067940266379658 0.013857123637831294 0.012915377371182564 0.013453518094981838 0.010493744114085834 0.011031884837885107 0.009215659895062558 0.007870308085564375 0.008139378447464011 0.007803040495089466 0.007332167361765102 0.005381407237992735 0.0051123368760930986 0.0065922238665411005 0.004775998923718552 0.004372393380869097 0.0038342526570698237 0.003161576752320732 0.002152562895197094 0.00248890084757164 0.0023543656666218217 0.002421633257096731 0.0014798869904480022 0.0015471545809229114 0.0019507601237723664 0.0014798869904480022 0.0012780842190232746 0.0007399434952240011 0.001076281447598547 0.0005381407237992735 0.0008744786761738194 0.0009417462666487286 0.0007399434952240011 0.00033633795237454595 0.0004708731333243643 0.0005381407237992735 0.00033633795237454595 0.0004708731333243643 0.0001345351809498184 0.0 0.0 0.00020180277142472757 0.0001345351809498184 0.0 0.0 6.72675904749092e-05 0.0 0.0 0.0 0.0 0.0 0.0 0.0 0.0 0.0 0.014345249907861537 0.0 0.00019845207382417147 0.0001134011850423837 0.00017010177756357554 0.0001134011850423837 0.00017010177756357554 0.0002268023700847674 0.0002268023700847674 0.00042525444390893887 0.0003402035551271511 0.0008221585915572818 0.0019278201457205227 0.003940691180222834 0.007654579990360899 0.013324639242480084 0.01766223457035126 0.022226632268307202 0.02545856604201514 0.028293595668074732 0.030419867887619426 0.031043574405352537 0.03280129277350948 0.03379355314263034 0.03353840047628498 0.03005131403623168 0.031553879738043265 0.031071924701613133 0.03132707736795849 0.029966263147449893 0.028974002778329032 0.027584838261559833 0.02594052107844527 0.024097751821506534 0.025742069004621098 0.023729197970118788 0.023247242933688655 0.022028180194483032 0.02163127604683469 0.02120602160292575 0.01933490204972642 0.01743543220026649 0.017010177756357554 0.016669974201230404 0.01766223457035126 0.0132112380574377 0.01383494457517081 0.013324639242480084 0.012304028577098631 0.012162277095795652 0.01105661554163241 0.00995095398746917 0.009100445099651291 0.00813653502679103 0.00799478354548805 0.006945822583846001 0.007427777620276132 0.005755110140900972 0.006492217843676466 0.0058401610296827606 0.004904601253083095 0.004025742069004621 0.004195843846568197 0.005046352734386074 0.004224194142828793 0.0031185325886655514 0.003940691180222834 0.0031185325886655514 0.002948430811101976 0.0027499787372778045 0.002523176367193037 0.0031185325886655514 0.002324724293368866 0.0022963739971082696 0.0020412213307629064 0.002069571627023502 0.0020412213307629064 0.0016159668868539676 0.0017293680718963513 0.00153091599807218 0.0017010177756357555 0.0012474130354662206 0.0015025657018115839 0.0010489609616420492 0.0013608142205086043 0.0009922603691208574 0.0008505088878178777 0.0006804071102543022 0.00048195503643013067 0.0005953562214725144 0.00014175148130297961 0.00028350296260595923 0.00014175148130297961 8.505088878178777e-05 8.505088878178777e-05 5.670059252119185e-05 2.8350296260595925e-05 5.670059252119185e-05 5.670059252119185e-05 0.03837310556028452 9.784065670648781e-06 7.827252536519025e-05 4.8920328353243906e-05 5.870439402389269e-05 0.0001076247223771366 7.827252536519025e-05 0.00012719285371843415 0.0002152494447542732 0.0002935219701194634 0.0005870439402389268 0.0011838719461485026 0.002690618059428415 0.006467267408298845 0.012895398553915093 0.02217069280969014 0.033197334820511314 0.04568180261625916 0.048118034968250706 0.052070797499192814 0.04654280039527625 0.0453491443834571 0.04186601700470614 0.03859813907070944 0.043822830138835894 0.03666089406792098 0.03317776668917002 0.033040789769780934 0.028579255823965092 0.03396049194282192 0.02570274051679435 0.024303619125891573 0.022914281800659447 0.020937900535188392 0.02240551038578571 0.018012464899664408 0.0172493077773538 0.015674073204379347 0.014441280929877601 0.014392360601524358 0.012279002416664221 0.011046210142162474 0.010684199712348469 0.00954924809455321 0.00971557721095424 0.007905525061884215 0.00803271791560265 0.007093447611220366 0.007083663545549718 0.006437915211286898 0.005674758088976294 0.005469292709892669 0.004833328441300498 0.004353909223438708 0.0046865674562407665 0.004295204829414815 0.0035124795757629124 0.0036494564951519955 0.0029352197011946342 0.0028471631101587955 0.002455800483332844 0.002592777402721927 0.0022111988415666247 0.002054653790836244 0.0018002680833993758 0.0015948027043157513 0.0014969620476092637 0.0013991213909027758 0.0012230082088310976 0.0012914966685256392 0.0010468950267594197 0.0011055994207833124 0.0009294862387116342 0.0006848845969454147 0.0006653164656041171 0.0005576917432269805 0.0003717944954846537 0.0004402829551791952 0.00036201042981400493 0.000313090101460761 0.00019568131341297562 0.00022503351042492197 0.0001467609850597317 0.00018589724774232684 8.805659103583903e-05 5.870439402389269e-05 6.848845969454146e-05 8.805659103583903e-05 6.848845969454146e-05 2.9352197011946344e-05 9.784065670648781e-06 0.0 0.0 9.784065670648781e-06 1.9568131341297562e-05 1.9568131341297562e-05 0.0 0.0 1.9568131341297562e-05 </TABLE>
    </DEFINITION>
    <DEFINITION>
      <FOR>Perpetrator Race</FOR>
      <GIVEN>Relationship</GIVEN>
      <GIVEN>Victim Race</GIVEN>
      <TABLE>0.6549295774647887 0.1073943661971831 0.0017605633802816902 0.23591549295774647 0.002038193982896894 0.9329168328237848 0.0012849483805219548 0.06376002481279631 0.005791505791505791 0.0945945945945946 0.5096525096525096 0.38996138996138996 0.005209295452026453 0.09598403960542358 0.008534377655447593 0.8902722872871024 0.65 0.0 0.0 0.35 0.002229654403567447 0.9565217391304348 0.002787068004459309 0.038461538461538464 0.0 0.0 0.75 0.25 0.009615384615384616 0.05673076923076923 0.010576923076923078 0.9230769230769231 0.42857142857142855 0.14285714285714285 0.0 0.42857142857142855 0.0 0.9247311827956989 0.0 0.07526881720430108 0.0 0.0 0.6666666666666666 0.3333333333333333 0.01580135440180587 0.09480812641083522 0.013544018058690745 0.8758465011286681 1.0 0.0 0.0 0.0 0.0 0.9948132780082988 0.0 0.005186721991701245 0.0 0.0 0.9767441860465116 0.023255813953488372 0.0 0.0020891364902506965 0.0006963788300835655 0.9972144846796658 0.0 1.0 0.0 0.0 0.0 0.9734265734265735 0.0013986013986013986 0.025174825174825177 0.0 0.0 0.8333333333333334 0.16666666666666666 0.006688963210702341 0.05016722408026756 0.020066889632107024 0.9230769230769231 0.5 0.1875 0.0 0.3125 0.0 0.9806201550387597 0.0 0.01937984496124031 0.0 0.2727272727272727 0.36363636363636365 0.36363636363636365 0.0015337423312883436 0.07975460122699386 0.003067484662576687 0.9156441717791411 0.9052631578947369 0.010526315789473684 0.0 0.08421052631578947 0.002702702702702703 0.9675675675675676 0.0013513513513513514 0.02837837837837838 0.0 0.0 0.96 0.04 0.002243409983174425 0.006730229949523275 0.002243409983174425 0.9887829500841279 0.6 0.0 0.0 0.4 0.0 0.8260869565217391 0.0 0.17391304347826086 0.0 0.0 0.0 1.0 0.015384615384615385 0.13076923076923078 0.0 0.8538461538461538 0.5714285714285714 0.0 0.0 0.42857142857142855 0.0 0.8421052631578947 0.0 0.15789473684210525 0.25 0.25 0.25 0.25 0.03365384615384615 0.15865384615384615 0.004807692307692308 0.8028846153846154 1.0 0.0 0.0 0.0 0.0 0.9591836734693877 0.0 0.04081632653061224 0.0 0.0 0.5 0.5 0.014925373134328358 0.0 0.009950248756218905 0.9751243781094527 0.7272727272727273 0.0 0.0 0.2727272727272727 0.0 0.9940476190476191 0.0 0.005952380952380952 0.0 0.125 0.625 0.25 0.0060882800608828 0.030441400304414 0.0045662100456621 0.958904109589041 0.9240506329113924 0.0379746835443038 0.0 0.0379746835443038 0.0006613756613756613 0.9788359788359788 0.0006613756613756613 0.01984126984126984 0.0 0.0 0.9615384615384616 0.038461538461538464 0.004675081813931743 0.020102851799906497 0.0032725572697522207 0.9719495091164095 0.9428571428571428 0.02857142857142857 0.0 0.02857142857142857 0.002150537634408602 0.9935483870967742 0.0 0.004301075268817204 0.0 0.0 1.0 0.0 0.003076923076923077 0.002307692307692308 0.0007692307692307692 0.9938461538461538 0.7669902912621359 0.06310679611650485 0.019417475728155338 0.15048543689320387 0.0009844942160964804 0.9224710804824021 0.0012306177701206006 0.07531380753138076 0.01834862385321101 0.027522935779816515 0.6055045871559633 0.3486238532110092 0.006841664339569953 0.062273108070371404 0.008517173973750349 0.9223680536163082 0.5769230769230769 0.12637362637362637 0.0 0.2967032967032967 0.0017331022530329288 0.9666377816291161 0.0 0.03162911611785095 0.011764705882352941 0.17647058823529413 0.5176470588235295 0.29411764705882354 0.008236808236808236 0.10038610038610038 0.004633204633204633 0.8867438867438867 0.8 0.025 0.0 0.175 0.0023880597014925373 0.96 0.0 0.037611940298507465 0.0 0.047619047619047616 0.7142857142857143 0.23809523809523808 0.006891271056661562 0.011868300153139357 0.0030627871362940277 0.9781776416539051 0.8372093023255814 0.0 0.0 0.16279069767441862 0.0 0.9819168173598554 0.0 0.018083182640144666 0.0 0.0 0.5789473684210527 0.42105263157894735 0.002840909090909091 0.019886363636363636 0.005681818181818182 0.9715909090909091 0.8461538461538461 0.02564102564102564 0.0 0.1282051282051282 0.0 0.9967637540453075 0.0 0.003236245954692557 0.0 0.0 0.9230769230769231 0.07692307692307693 0.00228310502283105 0.0060882800608828 0.00228310502283105 0.989345509893455 0.275 0.175 0.0 0.55 0.005793742757821553 0.8725376593279258 0.0011587485515643105 0.1205098493626883 0.0 0.17391304347826086 0.391304347826087 0.43478260869565216 0.0060408921933085506 0.10223048327137546 0.0055762081784386614 0.8861524163568774 1.0 0.0 0.0 0.0 0.0 0.9935897435897436 0.0 0.00641025641025641 0.0 0.0 0.5 0.5 0.003355704697986577 0.006711409395973154 0.0 0.9899328859060402 0.9333333333333333 0.009523809523809525 0.0 0.05714285714285714 0.000925925925925926 0.9583333333333334 0.0 0.040740740740740744 0.0 0.03333333333333333 0.9666666666666667 0.0 0.0021891418563922942 0.010945709281961471 0.0035026269702276708 0.9833625218914186 1.0 0.0 0.0 0.0 0.0 0.9746835443037974 0.0 0.02531645569620253 0.0 0.0 0.6666666666666666 0.3333333333333333 0.004484304932735426 0.02242152466367713 0.004484304932735426 0.968609865470852 1.0 0.0 0.0 0.0 0.0 0.967741935483871 0.004608294930875576 0.027649769585253458 0.0 0.0 0.6 0.4 0.0069124423963133645 0.02304147465437788 0.0069124423963133645 0.9631336405529954 1.0 0.0 0.0 0.0 0.0 1.0 0.0 0.0 0.0 0.0 1.0 0.0 0.014492753623188406 0.057971014492753624 0.0 0.927536231884058 0.5 0.0 0.0 0.5 0.0 0.984375 0.0 0.015625 0.0 0.0 0.6666666666666666 0.3333333333333333 0.008823529411764706 0.052941176470588235 0.008823529411764706 0.9294117647058824 0.2884297520661157 0.33801652892561984 0.0049586776859504135 0.3685950413223141 0.011735367463693707 0.7172509901716297 0.001760305119554056 0.2692533372451225 0.016025641025641024 0.22435897435897437 0.14423076923076922 0.6153846153846154 0.01315597134921795 0.21922964478877358 0.005627832188276568 0.7619865516737319 0.7507788161993769 0.04361370716510903 0.003115264797507788 0.20249221183800623 0.00049800796812749 0.973605577689243 0.00149402390438247 0.02440239043824701 0.013513513513513514 0.05405405405405406 0.6351351351351351 0.2972972972972973 0.005618729096989967 0.027558528428093646 0.001471571906354515 0.9653511705685619 </TABLE>
    </DEFINITION>
    <DEFINITION>
      <FOR>Perpetrator Sex</FOR>
      <GIVEN>Victim Sex</GIVEN>
      <TABLE>0.09038630151116613 0.9096136984888339 0.12698060184671103 0.873019398153289 </TABLE>
    </DEFINITION>
    <DEFINITION>
      <FOR>Relationship</FOR>
      <GIVEN>Perpetrator Sex</GIVEN>
      <GIVEN>Victim Sex</GIVEN>
      <TABLE>0.2676176890156919 0.0014265335235378032 0.021968616262482168 0.0008559201141226819 0.0002853067047075606 0.0002853067047075606 0.32211126961483594 0.0005706134094151213 0.002282453637660485 0.0002853067047075606 0.0005706134094151213 0.05706134094151213 0.0025677603423680455 0.08815977175463624 0.0094151212553495 0.0048502139800285305 0.010556348074179744 0.06276747503566334 0.024536376604850214 0.028530670470756064 0.013124108416547788 0.005991440798858773 0.0008559201141226819 0.003994293865905849 0.0 0.06476462196861626 0.00456490727532097 0.17328131306336608 0.18579308489169918 6.72675904749092e-05 0.013318982914032019 0.06726759047490918 0.0007399434952240011 0.00417059060944437 0.0004708731333243643 0.0005381407237992735 0.018834925332974574 0.00020180277142472757 0.01742230593300148 0.013117180142607291 0.03760258307547424 0.0015471545809229114 0.2850127808421902 0.007870308085564375 0.0008072110856989103 0.007130364590340374 0.00020180277142472757 0.08435355845553612 6.72675904749092e-05 0.005583210009417462 0.0001345351809498184 0.002152562895197094 0.06962195614153101 0.0026907036189963676 0.16840075978793978 0.001162362146684433 2.8350296260595925e-05 0.0013324639242480083 0.00031185325886655516 0.032971394551073056 0.038754854988234624 0.0006804071102543022 0.0009922603691208574 0.00039690414764834294 0.02248178493465257 0.02585547018966348 0.0027499787372778045 0.03767754373033198 0.17838006407166954 0.0017293680718963513 0.011481869985541349 0.03747909165650781 0.01774728545913305 0.00995095398746917 0.0049896521418648825 0.008051484138009242 0.0004536047401695348 0.0017860686644175431 0.0008221585915572818 0.12131091769908996 0.2720210926204179 0.4037688220963339 0.0007240208596280099 0.005479076775563318 0.021740193920181592 8.805659103583903e-05 0.00019568131341297562 0.0008316455820051464 0.0012327922745017466 0.0018589724774232684 7.827252536519025e-05 0.0005576917432269805 0.02384376803937108 0.014813075425362254 0.09141252556087157 0.0010958153551126634 0.0003228741671314098 0.014323872141829817 0.0011838719461485026 0.022111988415666247 0.00024460164176621954 0.019793164851722486 5.870439402389269e-05 0.005449724578551371 7.827252536519025e-05 0.0046865674562407665 0.3618049644349213 0.0022209829072372734 </TABLE>
    </DEFINITION>
    <DEFINITION>
      <FOR>Victim Age</FOR>
      <GIVEN>Relationship</GIVEN>
      <TABLE>0.0028192894601947872 0.0039036315602697055 0.0035684712747920035 0.0019123851583139465 0.0012026339655376364 0.0007097511927763101 0.0005323133945822325 0.000670320570955404 0.000690035881865857 0.0005125980836717795 0.000690035881865857 0.0008280430582390284 0.001399787074642167 0.0028192894601947872 0.005145696147628248 0.007846693742360317 0.014549899451914356 0.021923425732423802 0.02908008359291826 0.0354875596388155 0.03669019360435314 0.03769567446078625 0.03937147588817476 0.039292614644532944 0.037222506998935374 0.040258664879145145 0.037419660108039904 0.03436378691691968 0.033732896967785184 0.03302314577500887 0.03335830606048657 0.028528054887425575 0.028567485509246482 0.02493986830172312 0.024861007058081305 0.02359922715981231 0.021844564488781987 0.019813887465005325 0.018414100390363158 0.01786207168487047 0.017073459248452348 0.016265131501123773 0.01496392098103387 0.012499507117227238 0.012065770277197272 0.01198690903355546 0.010587121958913292 0.010941997555301447 0.009936516698868341 0.009384487993375655 0.008753598044241157 0.007787547809628958 0.00786640905327077 0.007215803793225819 0.006565198533180868 0.00593430858404637 0.005579432987658215 0.005500571744016403 0.0051851267694491545 0.00477110524032964 0.004534521509404203 0.004337368400299673 0.004120499980284689 0.0035290406529710975 0.002957296636567959 0.003410748787508379 0.002326406687433461 0.0022672607547021017 0.0024446985528961793 0.0022475454437916485 0.002050392334687118 0.0018532392255825873 0.0017940932928512284 0.0014392176964630732 0.0018335239146721344 0.0015575095619257916 0.0013209258310003548 0.001044911478254012 0.0007886124364181223 0.0011237727218958242 0.0009266196127912937 0.000670320570955404 0.000670320570955404 0.0005125980836717795 0.0005520287054926856 0.0007688971255076693 0.0004731674618508734 0.0004140215291195142 0.0002365837309254367 0.00015772248728362445 0.00017743779819407753 0.0002365837309254367 0.00017743779819407753 0.0001380071763731714 7.886124364181223e-05 0.00011829186546271835 1.9715310910453057e-05 1.9715310910453057e-05 1.9715310910453057e-05 0.008595875556957533 3.943062182090611e-05 0.0006939625260235947 0.00034698126301179735 0.0 0.0006939625260235947 0.001040943789035392 0.0 0.00034698126301179735 0.0 0.0 0.0 0.0006939625260235947 0.0 0.00034698126301179735 0.0006939625260235947 0.0 0.0 0.0017349063150589867 0.004163775156141568 0.010062456627342124 0.01457321304649549 0.023941707147814018 0.024288688410825817 0.019083969465648856 0.03435114503816794 0.03296321998612075 0.040249826509368494 0.03816793893129771 0.040249826509368494 0.04198473282442748 0.03296321998612075 0.03747397640527411 0.031922276197085354 0.031228313671061762 0.026717557251908396 0.02914642609299098 0.03261623872310895 0.02879944482997918 0.027758501040943788 0.023247744621790422 0.01943095072866065 0.02255378209576683 0.02220680083275503 0.017696044413601664 0.01943095072866065 0.021859819569743234 0.018736988202637056 0.023247744621790422 0.019083969465648856 0.015961138098542677 0.016655100624566273 0.014920194309507287 0.013532269257460098 0.012144344205412909 0.01179736294240111 0.009715475364330326 0.009715475364330326 0.008327550312283136 0.005898681471200555 0.008327550312283136 0.00659264399722415 0.007980569049271339 0.004510756419153366 0.004163775156141568 0.0034698126301179735 0.003816793893129771 0.004163775156141568 0.0024288688410825814 0.0024288688410825814 0.0013879250520471894 0.0017349063150589867 0.0 0.00034698126301179735 0.00034698126301179735 0.0017349063150589867 0.00034698126301179735 0.00034698126301179735 0.001040943789035392 0.0006939625260235947 0.0 0.0006939625260235947 0.00034698126301179735 0.001040943789035392 0.0 0.0 0.0 0.00034698126301179735 0.0 0.0 0.0 0.0 0.00034698126301179735 0.00034698126301179735 0.0 0.0 0.0 0.0 0.0 0.0 0.0 0.005551700208188758 0.0 0.001564945226917058 0.0 0.0 0.001564945226917058 0.0 0.001564945226917058 0.0 0.001564945226917058 0.0 0.0 0.0 0.0 0.0 0.0 0.004694835680751174 0.0 0.003129890453834116 0.010954616588419406 0.01564945226917058 0.010954616588419406 0.028169014084507043 0.01564945226917058 0.025039123630672927 0.026604068857589983 0.018779342723004695 0.023474178403755867 0.03286384976525822 0.03755868544600939 0.023474178403755867 0.03129890453834116 0.03755868544600939 0.01564945226917058 0.028169014084507043 0.026604068857589983 0.03912363067292645 0.018779342723004695 0.02190923317683881 0.03286384976525822 0.02190923317683881 0.02190923317683881 0.02190923317683881 0.018779342723004695 0.0297339593114241 0.010954616588419406 0.017214397496087636 0.017214397496087636 0.023474178403755867 0.017214397496087636 0.02190923317683881 0.02034428794992175 0.025039123630672927 0.010954616588419406 0.02190923317683881 0.01564945226917058 0.009389671361502348 0.01564945226917058 0.01564945226917058 0.001564945226917058 0.012519561815336464 0.017214397496087636 0.006259780907668232 0.004694835680751174 0.00782472613458529 0.004694835680751174 0.006259780907668232 0.00782472613458529 0.003129890453834116 0.010954616588419406 0.0 0.001564945226917058 0.0 0.0 0.004694835680751174 0.004694835680751174 0.003129890453834116 0.001564945226917058 0.0 0.003129890453834116 0.0 0.0 0.0 0.0 0.0 0.0 0.0 0.0 0.0 0.0 0.0 0.001564945226917058 0.0 0.0 0.0 0.0 0.0 0.0 0.0 0.0 0.0 0.004694835680751174 0.0 0.0024291497975708503 0.002834008097165992 0.002834008097165992 0.004453441295546558 0.0012145748987854252 0.0004048582995951417 0.002834008097165992 0.004453441295546558 0.006477732793522267 0.005263157894736842 0.0072874493927125505 0.007692307692307693 0.012550607287449392 0.007692307692307693 0.009716599190283401 0.014574898785425101 0.02145748987854251 0.01700404858299595 0.02145748987854251 0.03805668016194332 0.02631578947368421 0.026720647773279354 0.038461538461538464 0.03967611336032389 0.03360323886639676 0.03562753036437247 0.031174089068825912 0.0340080971659919 0.03603238866396761 0.031174089068825912 0.03076923076923077 0.030364372469635626 0.029959514170040485 0.02186234817813765 0.02388663967611336 0.02348178137651822 0.017813765182186234 0.024291497975708502 0.024696356275303644 0.016194331983805668 0.014574898785425101 0.01700404858299595 0.022267206477732792 0.010121457489878543 0.012550607287449392 0.017408906882591092 0.010121457489878543 0.00931174089068826 0.012955465587044534 0.009716599190283401 0.008097165991902834 0.006882591093117409 0.008097165991902834 0.006072874493927126 0.005668016194331984 0.0036437246963562753 0.004048582995951417 0.005263157894736842 0.005263157894736842 0.0036437246963562753 0.0016194331983805667 0.0036437246963562753 0.005668016194331984 0.0032388663967611335 0.0012145748987854252 0.0020242914979757085 0.0012145748987854252 0.0016194331983805667 0.0020242914979757085 0.0024291497975708503 0.0016194331983805667 0.0012145748987854252 0.0016194331983805667 0.0004048582995951417 0.0008097165991902834 0.0 0.0012145748987854252 0.0004048582995951417 0.0004048582995951417 0.0 0.0008097165991902834 0.0004048582995951417 0.0004048582995951417 0.0004048582995951417 0.0016194331983805667 0.0 0.0 0.0004048582995951417 0.0 0.0 0.0 0.0 0.0 0.0 0.0 0.0 0.0 0.0 0.0 0.004048582995951417 0.0 0.0 0.0 0.0 0.0 0.0 0.0 0.0 0.0 0.0 0.0 0.0 0.0 0.0 0.0 0.0 0.0 0.0 0.0 0.002938295788442703 0.005876591576885406 0.01665034280117532 0.010773751224289911 0.01665034280117532 0.02056807051909892 0.02840352595494613 0.02840352595494613 0.034280117531831536 0.04603330068560235 0.029382957884427033 0.02742409402546523 0.04113614103819784 0.029382957884427033 0.023506366307541625 0.034280117531831536 0.03525954946131244 0.02840352595494613 0.03623898139079334 0.02742409402546523 0.03819784524975514 0.031341821743388835 0.03721841332027424 0.019588638589618023 0.029382957884427033 0.022526934378060724 0.01860920666013712 0.023506366307541625 0.01860920666013712 0.02742409402546523 0.010773751224289911 0.009794319294809012 0.009794319294809012 0.015670910871694418 0.019588638589618023 0.01665034280117532 0.012732615083251714 0.009794319294809012 0.014691478942213516 0.012732615083251714 0.00881488736532811 0.002938295788442703 0.0039177277179236044 0.009794319294809012 0.0039177277179236044 0.010773751224289911 0.0068560235063663075 0.004897159647404506 0.0019588638589618022 0.0019588638589618022 0.0009794319294809011 0.0019588638589618022 0.002938295788442703 0.0 0.0009794319294809011 0.0009794319294809011 0.0 0.0 0.0019588638589618022 0.0009794319294809011 0.0 0.0039177277179236044 0.0009794319294809011 0.0 0.0 0.0009794319294809011 0.0 0.0 0.0 0.0 0.0009794319294809011 0.0 0.0 0.0 0.0 0.0 0.0 0.0 0.0 0.0 0.0 0.004897159647404506 0.0 0.002510460251046025 0.0008368200836820083 0.0 0.0 0.0016736401673640166 0.0008368200836820083 0.0008368200836820083 0.0008368200836820083 0.0008368200836820083 0.0 0.0 0.0 0.0 0.0 0.0008368200836820083 0.0016736401673640166 0.0066945606694560665 0.005857740585774059 0.005857740585774059 0.024267782426778243 0.0301255230125523 0.026778242677824266 0.03430962343096234 0.027615062761506277 0.0401673640167364 0.031799163179916316 0.038493723849372385 0.03765690376569038 0.045188284518828455 0.03765690376569038 0.04351464435146443 0.03430962343096234 0.03096234309623431 0.026778242677824266 0.035146443514644354 0.04686192468619247 0.028451882845188285 0.02510460251046025 0.019246861924686193 0.023430962343096235 0.02594142259414226 0.02092050209205021 0.019246861924686193 0.021757322175732216 0.017573221757322177 0.019246861924686193 0.016736401673640166 0.011715481171548118 0.012552301255230125 0.010878661087866108 0.0100418410041841 0.005857740585774059 0.0066945606694560665 0.0041841004184100415 0.002510460251046025 0.005857740585774059 0.005857740585774059 0.0066945606694560665 0.00502092050209205 0.0066945606694560665 0.0016736401673640166 0.0033472803347280333 0.00502092050209205 0.002510460251046025 0.0008368200836820083 0.0008368200836820083 0.00502092050209205 0.005857740585774059 0.0008368200836820083 0.002510460251046025 0.0008368200836820083 0.0008368200836820083 0.002510460251046025 0.0 0.0008368200836820083 0.0008368200836820083 0.0008368200836820083 0.0008368200836820083 0.0 0.0 0.0008368200836820083 0.002510460251046025 0.0 0.0 0.0 0.0 0.0 0.0 0.0 0.0 0.0 0.0 0.0 0.0 0.0008368200836820083 0.0 0.0 0.0 0.0 0.0066945606694560665 0.0 0.340522133938706 0.14150586454786226 0.09572455542943625 0.05599697313658721 0.04351116155883466 0.03329549754067348 0.02686341278849792 0.02383654937570942 0.024971623155505107 0.018917896329928113 0.01172909572455543 0.010972379871358306 0.01021566401816118 0.009458948164964056 0.006053726825576996 0.01324252743094968 0.007567158531971245 0.007567158531971245 0.004540295119182747 0.004540295119182747 0.0018917896329928112 0.004918653045781309 0.007945516458569807 0.004540295119182747 0.003026863412788498 0.004161937192584185 0.003026863412788498 0.0018917896329928112 0.0026485054861899358 0.004918653045781309 0.003026863412788498 0.0022701475595913734 0.0037835792659856224 0.00340522133938706 0.001513431706394249 0.0022701475595913734 0.001513431706394249 0.004161937192584185 0.0026485054861899358 0.0026485054861899358 0.0037835792659856224 0.0026485054861899358 0.0018917896329928112 0.0026485054861899358 0.0011350737797956867 0.0007567158531971245 0.0011350737797956867 0.001513431706394249 0.0011350737797956867 0.001513431706394249 0.00037835792659856227 0.0007567158531971245 0.00037835792659856227 0.0011350737797956867 0.001513431706394249 0.0007567158531971245 0.0011350737797956867 0.0007567158531971245 0.0 0.0018917896329928112 0.0007567158531971245 0.00037835792659856227 0.0007567158531971245 0.00037835792659856227 0.00037835792659856227 0.00037835792659856227 0.0 0.0 0.00037835792659856227 0.0 0.0 0.0 0.0 0.0 0.0 0.0 0.0 0.0 0.00037835792659856227 0.0 0.0 0.0 0.0 0.00037835792659856227 0.0 0.00037835792659856227 0.0 0.0 0.00037835792659856227 0.0 0.0 0.0 0.0 0.0 0.0 0.0 0.0 0.0 0.0 0.01021566401816118 0.0007567158531971245 0.0 0.0 0.006289308176100629 0.012578616352201259 0.0 0.0 0.0 0.0 0.0 0.0 0.006289308176100629 0.0 0.0 0.0 0.0 0.0 0.0 0.006289308176100629 0.012578616352201259 0.006289308176100629 0.03773584905660377 0.025157232704402517 0.0 0.006289308176100629 0.031446540880503145 0.03773584905660377 0.031446540880503145 0.025157232704402517 0.0440251572327044 0.03773584905660377 0.012578616352201259 0.006289308176100629 0.0440251572327044 0.012578616352201259 0.006289308176100629 0.006289308176100629 0.006289308176100629 0.03773584905660377 0.03773584905660377 0.018867924528301886 0.018867924528301886 0.018867924528301886 0.0 0.018867924528301886 0.031446540880503145 0.006289308176100629 0.012578616352201259 0.018867924528301886 0.031446540880503145 0.025157232704402517 0.018867924528301886 0.018867924528301886 0.012578616352201259 0.018867924528301886 0.012578616352201259 0.012578616352201259 0.006289308176100629 0.012578616352201259 0.006289308176100629 0.025157232704402517 0.018867924528301886 0.018867924528301886 0.006289308176100629 0.006289308176100629 0.006289308176100629 0.018867924528301886 0.012578616352201259 0.0 0.006289308176100629 0.0 0.006289308176100629 0.0 0.006289308176100629 0.0 0.0 0.0 0.0 0.006289308176100629 0.006289308176100629 0.0 0.006289308176100629 0.0 0.0 0.0 0.0 0.0 0.0 0.0 0.0 0.0 0.0 0.0 0.0 0.0 0.012578616352201259 0.0 0.0 0.0 0.0 0.018867924528301886 0.0 0.0 0.0 0.0 0.0 0.0 0.0 0.0 0.0 0.0 0.0 0.0 0.0 0.0 0.0 0.0 0.0 0.0 0.004149377593360996 0.004149377593360996 0.0 0.004149377593360996 0.0 0.008298755186721992 0.012448132780082987 0.012448132780082987 0.008298755186721992 0.008298755186721992 0.024896265560165973 0.02074688796680498 0.02074688796680498 0.03319502074688797 0.029045643153526972 0.012448132780082987 0.029045643153526972 0.012448132780082987 0.029045643153526972 0.02074688796680498 0.0 0.008298755186721992 0.029045643153526972 0.02074688796680498 0.02074688796680498 0.02074688796680498 0.016597510373443983 0.029045643153526972 0.03319502074688797 0.03319502074688797 0.02074688796680498 0.024896265560165973 0.02074688796680498 0.03319502074688797 0.029045643153526972 0.02074688796680498 0.008298755186721992 0.008298755186721992 0.02074688796680498 0.012448132780082987 0.008298755186721992 0.029045643153526972 0.016597510373443983 0.012448132780082987 0.012448132780082987 0.008298755186721992 0.008298755186721992 0.016597510373443983 0.008298755186721992 0.004149377593360996 0.024896265560165973 0.008298755186721992 0.012448132780082987 0.012448132780082987 0.008298755186721992 0.008298755186721992 0.012448132780082987 0.008298755186721992 0.004149377593360996 0.012448132780082987 0.0 0.0 0.004149377593360996 0.008298755186721992 0.008298755186721992 0.004149377593360996 0.004149377593360996 0.004149377593360996 0.0 0.0 0.008298755186721992 0.004149377593360996 0.0 0.004149377593360996 0.0 0.0 0.0 0.0 0.0 0.004149377593360996 0.0 0.0 0.004149377593360996 0.0 0.0 0.0 0.0 0.0 0.0 0.0 0.0 0.0 0.0 0.0 0.0 0.0 0.0 0.0 0.0 0.0 0.0 0.0 0.0 0.0033003300330033004 0.009900990099009901 0.0 0.0033003300330033004 0.0165016501650165 0.009900990099009901 0.026402640264026403 0.026402640264026403 0.036303630363036306 0.033003300330033 0.033003300330033 0.036303630363036306 0.0297029702970297 0.07590759075907591 0.039603960396039604 0.056105610561056105 0.0297029702970297 0.0231023102310231 0.036303630363036306 0.0297029702970297 0.036303630363036306 0.0429042904290429 0.0231023102310231 0.0297029702970297 0.0297029702970297 0.009900990099009901 0.009900990099009901 0.013201320132013201 0.0165016501650165 0.019801980198019802 0.0231023102310231 0.0033003300330033004 0.026402640264026403 0.006600660066006601 0.013201320132013201 0.0033003300330033004 0.0231023102310231 0.019801980198019802 0.006600660066006601 0.006600660066006601 0.006600660066006601 0.006600660066006601 0.0165016501650165 0.013201320132013201 0.0 0.0 0.0 0.006600660066006601 0.0033003300330033004 0.009900990099009901 0.0033003300330033004 0.0033003300330033004 0.0033003300330033004 0.0 0.0033003300330033004 0.0 0.0 0.0 0.0 0.0 0.0 0.0 0.0 0.0 0.0033003300330033004 0.0 0.0 0.0 0.0 0.0 0.0 0.0 0.0 0.0 0.0 0.0 0.0 0.0 0.0 0.0 0.0033003300330033004 0.0 0.0011695906432748538 0.0 0.0023391812865497076 0.0 0.0035087719298245615 0.0011695906432748538 0.0011695906432748538 0.0 0.0011695906432748538 0.0 0.0 0.0 0.0 0.0035087719298245615 0.0 0.0 0.0011695906432748538 0.0023391812865497076 0.004678362573099415 0.010526315789473684 0.008187134502923977 0.017543859649122806 0.0152046783625731 0.0304093567251462 0.025730994152046785 0.025730994152046785 0.023391812865497075 0.0304093567251462 0.03859649122807018 0.031578947368421054 0.031578947368421054 0.029239766081871343 0.0456140350877193 0.03508771929824561 0.04327485380116959 0.03976608187134503 0.03625730994152047 0.031578947368421054 0.0304093567251462 0.03274853801169591 0.026900584795321637 0.02456140350877193 0.021052631578947368 0.026900584795321637 0.01871345029239766 0.031578947368421054 0.026900584795321637 0.017543859649122806 0.017543859649122806 0.016374269005847954 0.010526315789473684 0.011695906432748537 0.011695906432748537 0.012865497076023392 0.008187134502923977 0.007017543859649123 0.00935672514619883 0.007017543859649123 0.0011695906432748538 0.012865497076023392 0.0011695906432748538 0.0011695906432748538 0.008187134502923977 0.005847953216374269 0.0035087719298245615 0.0023391812865497076 0.0035087719298245615 0.0 0.0023391812865497076 0.0 0.0023391812865497076 0.0011695906432748538 0.0 0.0011695906432748538 0.0011695906432748538 0.0 0.0 0.0 0.0011695906432748538 0.0 0.0011695906432748538 0.0 0.0 0.0 0.0011695906432748538 0.0 0.0023391812865497076 0.0 0.0011695906432748538 0.0 0.0 0.0 0.0 0.0 0.0 0.0 0.0 0.0 0.0 0.0035087719298245615 0.0 0.02415966386554622 0.02153361344537815 0.02153361344537815 0.012867647058823529 0.01207983193277311 0.007352941176470588 0.0055147058823529415 0.004726890756302521 0.005777310924369748 0.006827731092436975 0.004989495798319327 0.005252100840336135 0.0055147058823529415 0.008403361344537815 0.011029411764705883 0.009978991596638655 0.013130252100840336 0.013918067226890757 0.017069327731092435 0.021796218487394957 0.022321428571428572 0.025472689075630252 0.022846638655462184 0.027048319327731093 0.028361344537815126 0.022584033613445378 0.022321428571428572 0.018644957983193277 0.022058823529411766 0.019695378151260504 0.022584033613445378 0.01444327731092437 0.017331932773109245 0.017069327731092435 0.02074579831932773 0.019695378151260504 0.014180672268907563 0.01365546218487395 0.013918067226890757 0.009453781512605041 0.012867647058823529 0.010241596638655462 0.014705882352941176 0.012342436974789915 0.012342436974789915 0.013130252100840336 0.009191176470588236 0.008928571428571428 0.007615546218487395 0.007615546218487395 0.010766806722689076 0.008665966386554622 0.006827731092436975 0.009191176470588236 0.008140756302521009 0.005777310924369748 0.009453781512605041 0.007878151260504201 0.004201680672268907 0.005777310924369748 0.007615546218487395 0.007615546218487395 0.008140756302521009 0.006827731092436975 0.006039915966386555 0.006827731092436975 0.0063025210084033615 0.004464285714285714 0.004989495798319327 0.0063025210084033615 0.0063025210084033615 0.0055147058823529415 0.008665966386554622 0.009716386554621849 0.008928571428571428 0.008928571428571428 0.005777310924369748 0.008403361344537815 0.006565126050420168 0.0026260504201680674 0.003676470588235294 0.0031512605042016808 0.004201680672268907 0.0063025210084033615 0.004464285714285714 0.004464285714285714 0.002888655462184874 0.0023634453781512603 0.001838235294117647 0.0021008403361344537 0.0021008403361344537 0.0010504201680672268 0.0015756302521008404 0.0007878151260504202 0.0015756302521008404 0.0002626050420168067 0.0002626050420168067 0.0002626050420168067 0.0 0.006565126050420168 0.0 0.003305785123966942 0.003305785123966942 0.0 0.0022038567493112946 0.0005509641873278236 0.0 0.0 0.0 0.0 0.0 0.0011019283746556473 0.0 0.001652892561983471 0.0 0.0011019283746556473 0.0 0.0005509641873278236 0.0027548209366391185 0.0011019283746556473 0.001652892561983471 0.0005509641873278236 0.0005509641873278236 0.001652892561983471 0.0005509641873278236 0.001652892561983471 0.0 0.0011019283746556473 0.0 0.001652892561983471 0.0 0.0022038567493112946 0.004407713498622589 0.003856749311294766 0.0049586776859504135 0.006060606060606061 0.007713498622589532 0.008264462809917356 0.01818181818181818 0.019834710743801654 0.017630853994490357 0.022589531680440773 0.019834710743801654 0.026446280991735537 0.023691460055096418 0.02699724517906336 0.025895316804407712 0.02699724517906336 0.03526170798898071 0.024793388429752067 0.03085399449035813 0.03085399449035813 0.02203856749311295 0.032506887052341595 0.032506887052341595 0.02975206611570248 0.03305785123966942 0.024793388429752067 0.021487603305785124 0.0209366391184573 0.023691460055096418 0.026446280991735537 0.02699724517906336 0.02534435261707989 0.021487603305785124 0.015977961432506887 0.021487603305785124 0.008264462809917356 0.015426997245179064 0.015977961432506887 0.011019283746556474 0.01487603305785124 0.011570247933884297 0.009366391184573003 0.01652892561983471 0.011570247933884297 0.013774104683195593 0.006611570247933884 0.012121212121212121 0.007162534435261708 0.008815426997245178 0.0049586776859504135 0.0049586776859504135 0.004407713498622589 0.007162534435261708 0.0022038567493112946 0.0027548209366391185 0.0027548209366391185 0.0027548209366391185 0.003305785123966942 0.0022038567493112946 0.003305785123966942 0.0011019283746556473 0.0005509641873278236 0.0 0.0 0.0005509641873278236 0.0 0.0 0.0005509641873278236 0.0005509641873278236 0.0 0.002166377816291161 0.00268630849220104 0.0030329289428076256 0.0014731369150779896 0.0005199306759098787 0.0006932409012131716 0.0009532062391681109 0.0006065857885615251 0.0010398613518197574 0.0012131715771230502 0.002166377816291161 0.0022530329289428075 0.006152512998266898 0.008232235701906412 0.015077989601386482 0.01993067590987868 0.022790294627383016 0.02755632582322357 0.03145580589254766 0.03214904679376083 0.03509532062391681 0.03864818024263431 0.037608318890814556 0.035788561525129985 0.03509532062391681 0.038821490467937605 0.032062391681109186 0.0330155979202773 0.031369150779896014 0.028422876949740036 0.029116117850953208 0.02980935875216638 0.02608318890814558 0.024956672443674176 0.023570190641247834 0.0220103986135182 0.020103986135181974 0.018890814558058924 0.018110918544194107 0.018110918544194107 0.01733102253032929 0.014124783362218372 0.014731369150779897 0.014384748700173311 0.012998266897746967 0.014038128249566724 0.00901213171577123 0.010051993067590987 0.009878682842287694 0.00805892547660312 0.009532062391681109 0.00805892547660312 0.0076256499133448875 0.006845753899480069 0.007972270363951473 0.006499133448873483 0.006932409012131715 0.005719237435008666 0.003639514731369151 0.00389948006932409 0.00389948006932409 0.0034662045060658577 0.0045927209705372615 0.0025129982668977468 0.002339688041594454 0.0027729636048526864 0.0034662045060658577 0.0020797227036395147 0.0016464471403812824 0.0013864818024263432 0.0018197573656845755 0.0013864818024263432 0.0009532062391681109 0.0010398613518197574 0.0010398613518197574 0.0012131715771230502 0.0012998266897746968 0.0004332755632582322 0.000779896013864818 0.0010398613518197574 0.0004332755632582322 0.0003466204506065858 0.0006065857885615251 0.0005199306759098787 0.00025996533795493934 0.00025996533795493934 0.00025996533795493934 0.0003466204506065858 8.665511265164645e-05 0.00025996533795493934 0.00025996533795493934 8.665511265164645e-05 0.0 0.0 0.0001733102253032929 0.0 0.0 8.665511265164645e-05 8.665511265164645e-05 0.00658578856152513 0.0 0.0015479876160990713 0.0009287925696594427 0.00046439628482972134 0.0007739938080495357 0.0006191950464396285 0.00030959752321981426 0.0006191950464396285 0.0006191950464396285 0.0 0.00015479876160990713 0.00015479876160990713 0.0 0.0006191950464396285 0.001238390092879257 0.0046439628482972135 0.009752321981424148 0.013777089783281734 0.021362229102167184 0.03065015479876161 0.031114551083591332 0.04086687306501548 0.03637770897832817 0.04102167182662539 0.036222910216718265 0.045356037151702784 0.03730650154798762 0.0369969040247678 0.035758513931888544 0.033281733746130034 0.03513931888544892 0.03297213622291022 0.030495356037151703 0.03761609907120743 0.02786377708978328 0.02848297213622291 0.028328173374613002 0.02260061919504644 0.02678018575851393 0.019040247678018575 0.020278637770897834 0.02089783281733746 0.017492260061919503 0.018730650154798762 0.0173374613003096 0.013003095975232198 0.0173374613003096 0.012848297213622292 0.01238390092879257 0.011455108359133126 0.011609907120743035 0.00696594427244582 0.007894736842105263 0.0058823529411764705 0.006501547987616099 0.0058823529411764705 0.0032507739938080495 0.0037151702786377707 0.0027863777089783283 0.0030959752321981426 0.0027863777089783283 0.0027863777089783283 0.00108359133126935 0.002476780185758514 0.0020123839009287925 0.0018575851393188853 0.0020123839009287925 0.0015479876160990713 0.0007739938080495357 0.0007739938080495357 0.00108359133126935 0.0009287925696594427 0.0007739938080495357 0.00046439628482972134 0.00030959752321981426 0.0006191950464396285 0.0006191950464396285 0.0006191950464396285 0.00015479876160990713 0.00015479876160990713 0.00015479876160990713 0.00030959752321981426 0.0 0.0 0.00015479876160990713 0.00015479876160990713 0.0 0.0 0.00046439628482972134 0.0 0.0 0.00015479876160990713 0.0 0.00015479876160990713 0.0 0.0 0.0 0.00015479876160990713 0.0 0.0 0.0030959752321981426 0.00015479876160990713 0.00045998160073597056 0.00045998160073597056 0.00022999080036798528 0.0009199632014719411 0.0006899724011039559 0.00045998160073597056 0.00022999080036798528 0.00045998160073597056 0.0 0.00022999080036798528 0.0 0.0 0.00022999080036798528 0.0 0.00045998160073597056 0.00022999080036798528 0.00022999080036798528 0.0 0.0013799448022079118 0.002529898804047838 0.004139834406623735 0.0068997240110395585 0.009659613615455382 0.015409383624655014 0.015869365225390984 0.019319227230910764 0.02046918123275069 0.021389144434222632 0.024609015639374426 0.029668813247470102 0.02828886844526219 0.029438822447102116 0.03449862005519779 0.03265869365225391 0.033348666053357866 0.030128794848206072 0.03679852805887764 0.02920883164673413 0.029898804047838085 0.02828886844526219 0.031048758049678014 0.026908923643054278 0.027598896044158234 0.025758969641214352 0.02000919963201472 0.02276908923643054 0.021619135234590615 0.020699172033118676 0.018859245630174794 0.021159153633854646 0.022539098436062558 0.015869365225390984 0.017479300827966882 0.01701931922723091 0.014259429622815088 0.01517939282428703 0.019089236430542778 0.015409383624655014 0.013799448022079117 0.010119595216191352 0.011269549218031279 0.011039558417663294 0.009889604415823367 0.006439742410303588 0.00827966881324747 0.005519779208831647 0.0043698252069917206 0.005519779208831647 0.004599816007359705 0.005059797608095676 0.0034498620055197792 0.0043698252069917206 0.0034498620055197792 0.0034498620055197792 0.002989880404783809 0.0027598896044158236 0.0020699172033118675 0.0013799448022079118 0.0022999080036798527 0.0020699172033118675 0.0027598896044158236 0.0011499540018399263 0.0009199632014719411 0.0011499540018399263 0.0011499540018399263 0.00045998160073597056 0.0009199632014719411 0.0 0.00045998160073597056 0.0006899724011039559 0.00022999080036798528 0.00045998160073597056 0.00022999080036798528 0.0 0.0 0.00022999080036798528 0.0 0.0 0.0 0.002529898804047838 0.0 0.0004943153732081067 0.0 0.0009886307464162135 0.0009886307464162135 0.0004943153732081067 0.0004943153732081067 0.0014829461196243204 0.0004943153732081067 0.0009886307464162135 0.0 0.0004943153732081067 0.0 0.0009886307464162135 0.0014829461196243204 0.002965892239248641 0.004943153732081068 0.0034602076124567475 0.006426099851705388 0.010380622837370242 0.01384083044982699 0.017795353435491844 0.020761245674740483 0.02718734552644587 0.034107760751359364 0.03559070687098369 0.03559070687098369 0.03509639149777558 0.03559070687098369 0.023232822540781017 0.02768166089965398 0.03608502224419179 0.034107760751359364 0.033119130004943154 0.024715768660405337 0.024715768660405337 0.021255561047948592 0.019278299555116164 0.023727137913989126 0.021749876421156698 0.01730103806228374 0.021255561047948592 0.019278299555116164 0.022738507167572912 0.019278299555116164 0.016312407315867524 0.022244191794364803 0.016312407315867524 0.014335145823035097 0.01680672268907563 0.015818091942659415 0.01730103806228374 0.010874938210578349 0.011369253583786456 0.012357884330202669 0.009886307464162136 0.011369253583786456 0.010874938210578349 0.008897676717745922 0.009886307464162136 0.008897676717745922 0.008897676717745922 0.006920415224913495 0.006920415224913495 0.006426099851705388 0.010380622837370242 0.007414730598121601 0.0034602076124567475 0.003954522985664854 0.003954522985664854 0.0034602076124567475 0.004448838358872961 0.003954522985664854 0.005931784478497282 0.002471576866040534 0.001977261492832427 0.001977261492832427 0.001977261492832427 0.0014829461196243204 0.0 0.002471576866040534 0.001977261492832427 0.0 0.0014829461196243204 0.0004943153732081067 0.0004943153732081067 0.0009886307464162135 0.0004943153732081067 0.0004943153732081067 0.0004943153732081067 0.0004943153732081067 0.0014829461196243204 0.0 0.0 0.0 0.0 0.0004943153732081067 0.0 0.0 0.0 0.005931784478497282 0.0 0.0023880597014925373 0.0011940298507462687 0.00417910447761194 0.0011940298507462687 0.0029850746268656717 0.0005970149253731343 0.0005970149253731343 0.0005970149253731343 0.001791044776119403 0.0023880597014925373 0.0005970149253731343 0.001791044776119403 0.0 0.0011940298507462687 0.0005970149253731343 0.0 0.0011940298507462687 0.0011940298507462687 0.0011940298507462687 0.001791044776119403 0.0005970149253731343 0.0 0.0005970149253731343 0.0005970149253731343 0.001791044776119403 0.0005970149253731343 0.0011940298507462687 0.0 0.0011940298507462687 0.0 0.0005970149253731343 0.004776119402985075 0.00417910447761194 0.005373134328358209 0.007164179104477612 0.004776119402985075 0.010746268656716417 0.01253731343283582 0.01253731343283582 0.01373134328358209 0.018507462686567163 0.01373134328358209 0.0191044776119403 0.016119402985074627 0.01791044776119403 0.016119402985074627 0.017313432835820895 0.021492537313432834 0.023283582089552238 0.022686567164179106 0.02447761194029851 0.022686567164179106 0.025671641791044777 0.031044776119402984 0.02208955223880597 0.03283582089552239 0.020298507462686566 0.02208955223880597 0.020298507462686566 0.020895522388059702 0.02626865671641791 0.02447761194029851 0.025671641791044777 0.020895522388059702 0.022686567164179106 0.02626865671641791 0.015522388059701492 0.022686567164179106 0.016119402985074627 0.01791044776119403 0.01373134328358209 0.014328358208955224 0.014925373134328358 0.01671641791044776 0.020895522388059702 0.011343283582089553 0.011343283582089553 0.01373134328358209 0.007164179104477612 0.01373134328358209 0.014328358208955224 0.010149253731343283 0.00835820895522388 0.01253731343283582 0.00955223880597015 0.004776119402985075 0.011343283582089553 0.006567164179104477 0.004776119402985075 0.00417910447761194 0.003582089552238806 0.001791044776119403 0.0011940298507462687 0.003582089552238806 0.0 0.0005970149253731343 0.0023880597014925373 0.0005970149253731343 0.0005970149253731343 0.003582089552238806 0.0 0.0022742040285899934 0.0029239766081871343 0.0029239766081871343 0.003248862897985705 0.0035737491877842753 0.003248862897985705 0.002599090318388564 0.0029239766081871343 0.003248862897985705 0.0029239766081871343 0.0035737491877842753 0.005198180636777128 0.004873294346978557 0.004873294346978557 0.005847953216374269 0.007472384665367121 0.00682261208576998 0.015919428200129954 0.014294996751137101 0.018193632228719947 0.01949317738791423 0.024366471734892786 0.024041585445094216 0.03216374269005848 0.025016244314489927 0.02599090318388564 0.02111760883690708 0.02761533463287849 0.025016244314489927 0.024691358024691357 0.02599090318388564 0.022742040285899934 0.02599090318388564 0.02014294996751137 0.024366471734892786 0.02631578947368421 0.02111760883690708 0.018843404808317088 0.018193632228719947 0.012020792722547108 0.017218973359324236 0.016894087069525665 0.016244314489928524 0.01364522417153996 0.01332033788174139 0.016244314489928524 0.012670565302144249 0.01397011046133853 0.01397011046133853 0.009746588693957114 0.014944769330734242 0.009421702404158544 0.010721247563352826 0.010396361273554255 0.007797270955165692 0.012345679012345678 0.008447043534762833 0.008447043534762833 0.009421702404158544 0.007147498375568551 0.009096816114359974 0.008447043534762833 0.00649772579597141 0.008122157244964262 0.007147498375568551 0.007797270955165692 0.00682261208576998 0.007797270955165692 0.005847953216374269 0.005847953216374269 0.008122157244964262 0.007147498375568551 0.005198180636777128 0.006172839506172839 0.005523066926575698 0.00682261208576998 0.005523066926575698 0.004873294346978557 0.00682261208576998 0.004873294346978557 0.004223521767381416 0.004223521767381416 0.0035737491877842753 0.002599090318388564 0.0035737491877842753 0.0022742040285899934 0.002599090318388564 0.003898635477582846 0.002599090318388564 0.0009746588693957114 0.0003248862897985705 0.000649772579597141 0.000649772579597141 0.0003248862897985705 0.0003248862897985705 0.0003248862897985705 0.0 0.0003248862897985705 0.000649772579597141 0.006172839506172839 0.0 0.012526096033402923 0.008350730688935281 0.018789144050104383 0.020876826722338204 0.010438413361169102 0.010438413361169102 0.008350730688935281 0.018789144050104383 0.006263048016701462 0.014613778705636743 0.014613778705636743 0.012526096033402923 0.025052192066805846 0.016701461377870562 0.029227557411273485 0.029227557411273485 0.04175365344467641 0.029227557411273485 0.03549060542797495 0.018789144050104383 0.018789144050104383 0.029227557411273485 0.014613778705636743 0.010438413361169102 0.012526096033402923 0.016701461377870562 0.018789144050104383 0.020876826722338204 0.027139874739039668 0.016701461377870562 0.006263048016701462 0.014613778705636743 0.008350730688935281 0.018789144050104383 0.018789144050104383 0.010438413361169102 0.008350730688935281 0.010438413361169102 0.010438413361169102 0.016701461377870562 0.006263048016701462 0.0020876826722338203 0.022964509394572025 0.014613778705636743 0.008350730688935281 0.006263048016701462 0.010438413361169102 0.010438413361169102 0.012526096033402923 0.008350730688935281 0.010438413361169102 0.0041753653444676405 0.010438413361169102 0.006263048016701462 0.008350730688935281 0.008350730688935281 0.016701461377870562 0.012526096033402923 0.012526096033402923 0.010438413361169102 0.012526096033402923 0.008350730688935281 0.0041753653444676405 0.0020876826722338203 0.0041753653444676405 0.0041753653444676405 0.0020876826722338203 0.0041753653444676405 0.010438413361169102 0.006263048016701462 0.0020876826722338203 0.0041753653444676405 0.006263048016701462 0.0 0.0 0.0020876826722338203 0.0 0.0041753653444676405 0.0020876826722338203 0.0041753653444676405 0.0020876826722338203 0.0041753653444676405 0.0041753653444676405 0.0 0.0020876826722338203 0.0020876826722338203 0.0020876826722338203 0.0 0.0020876826722338203 0.0 0.0 0.0 0.0 0.0020876826722338203 0.0 0.0 0.0 0.0 0.0 0.0020876826722338203 0.0 0.2992283509574164 0.1197484995713061 0.07973706773363819 0.04772792226350386 0.03543869677050586 0.02715061446127465 0.01886253215204344 0.01886253215204344 0.013432409259788511 0.013432409259788511 0.011431837667905115 0.010002857959416977 0.010860245784509859 0.007430694484138326 0.007430694484138326 0.007144898542440698 0.010860245784509859 0.010860245784509859 0.012860817376393255 0.011717633609602743 0.014861388968276651 0.009145470134324093 0.012575021434695627 0.011717633609602743 0.010288653901114605 0.012003429551300371 0.008288082309231209 0.013146613318090883 0.007716490425835953 0.00685910260074307 0.006573306659045442 0.008288082309231209 0.0054301228922549296 0.005715918833952558 0.008573878250928837 0.00800228636753358 0.00400114318376679 0.006001714775650186 0.006287510717347814 0.004572735067162046 0.00400114318376679 0.002572163475278651 0.004858531008859674 0.002000571591883395 0.002857959416976279 0.002572163475278651 0.002286367533581023 0.003429551300371535 0.0008573878250928837 0.0008573878250928837 0.0014289797084881394 0.002286367533581023 0.002000571591883395 0.0002857959416976279 0.0008573878250928837 0.0011431837667905116 0.0008573878250928837 0.0005715918833952558 0.0008573878250928837 0.0002857959416976279 0.0002857959416976279 0.0002857959416976279 0.0002857959416976279 0.0005715918833952558 0.0008573878250928837 0.0002857959416976279 0.0005715918833952558 0.0005715918833952558 0.0002857959416976279 0.0002857959416976279 0.0 0.0002857959416976279 0.0 0.0002857959416976279 0.0002857959416976279 0.0 0.0 0.0005715918833952558 0.0002857959416976279 0.0002857959416976279 0.0002857959416976279 0.0 0.0005715918833952558 0.0002857959416976279 0.0002857959416976279 0.0002857959416976279 0.0002857959416976279 0.0 0.0002857959416976279 0.0 0.0 0.0 0.0002857959416976279 0.0 0.0 0.0 0.0 0.0 0.0 0.008573878250928837 0.0014289797084881394 0.05448717948717949 0.15384615384615385 0.14743589743589744 0.08653846153846154 0.04807692307692308 0.022435897435897436 0.019230769230769232 0.003205128205128205 0.00641025641025641 0.016025641025641024 0.019230769230769232 0.01282051282051282 0.022435897435897436 0.01282051282051282 0.022435897435897436 0.022435897435897436 0.035256410256410256 0.03205128205128205 0.019230769230769232 0.009615384615384616 0.01282051282051282 0.009615384615384616 0.022435897435897436 0.0 0.003205128205128205 0.009615384615384616 0.0 0.009615384615384616 0.016025641025641024 0.01282051282051282 0.003205128205128205 0.00641025641025641 0.00641025641025641 0.00641025641025641 0.00641025641025641 0.009615384615384616 0.016025641025641024 0.003205128205128205 0.003205128205128205 0.003205128205128205 0.0 0.009615384615384616 0.003205128205128205 0.00641025641025641 0.0 0.009615384615384616 0.0 0.00641025641025641 0.0 0.003205128205128205 0.00641025641025641 0.00641025641025641 0.0 0.0 0.003205128205128205 0.0 0.0 0.003205128205128205 0.0 0.0 0.003205128205128205 0.0 0.003205128205128205 0.0 0.0 0.0 0.0 0.0 0.0 0.0 0.0 0.003205128205128205 0.0 0.003205128205128205 0.0 0.0 0.0 0.0 0.0 0.0 0.0 0.0 0.0 0.0 0.0 0.0 0.0 0.0 0.0 0.0 0.0 0.0 0.0 0.0 0.0 0.0 0.0 0.0 0.0 0.003205128205128205 0.0 0.0 0.0 0.0 0.0 0.0 0.0 0.0 0.0015174506828528073 0.0 0.0 0.0 0.0015174506828528073 0.0015174506828528073 0.0015174506828528073 0.0015174506828528073 0.0 0.0 0.0015174506828528073 0.0 0.0 0.004552352048558422 0.006069802731411229 0.0015174506828528073 0.0015174506828528073 0.004552352048558422 0.0030349013657056147 0.009104704097116844 0.009104704097116844 0.007587253414264037 0.013657056145675266 0.015174506828528073 0.013657056145675266 0.018209408194233688 0.02276176024279211 0.01669195751138088 0.025796661608497723 0.027314112291350532 0.030349013657056147 0.0409711684370258 0.024279210925644917 0.025796661608497723 0.028831562974203338 0.036418816388467376 0.036418816388467376 0.028831562974203338 0.024279210925644917 0.018209408194233688 0.027314112291350532 0.024279210925644917 0.021244309559939303 0.024279210925644917 0.018209408194233688 0.03186646433990895 0.02276176024279211 0.030349013657056147 0.027314112291350532 0.012139605462822459 0.018209408194233688 0.025796661608497723 0.019726858877086494 0.025796661608497723 0.012139605462822459 0.009104704097116844 0.018209408194233688 0.007587253414264037 0.010622154779969651 0.010622154779969651 0.009104704097116844 0.009104704097116844 0.009104704097116844 0.0 0.007587253414264037 0.004552352048558422 0.006069802731411229 0.0 0.010622154779969651 0.006069802731411229 0.0015174506828528073 0.006069802731411229 0.006069802731411229 0.0015174506828528073 0.0030349013657056147 0.010622154779969651 0.0015174506828528073 0.0030349013657056147 0.0 0.0 0.0 0.0 0.0 0.0 0.0 0.0 0.0 0.0 0.0 0.0 0.0 0.0 0.0030349013657056147 0.0 0.0 0.0 0.0 0.0 0.0 0.0 0.0 0.0 0.0 0.0 0.0 0.0 0.0 0.0 0.0 0.0 0.0 0.0 0.0 0.0 0.0 0.0 0.0 0.011494252873563218 0.022988505747126436 0.0 0.011494252873563218 0.0 0.0 0.0 0.0 0.022988505747126436 0.011494252873563218 0.0 0.011494252873563218 0.022988505747126436 0.034482758620689655 0.022988505747126436 0.034482758620689655 0.05747126436781609 0.022988505747126436 0.022988505747126436 0.04597701149425287 0.04597701149425287 0.034482758620689655 0.034482758620689655 0.011494252873563218 0.022988505747126436 0.034482758620689655 0.034482758620689655 0.011494252873563218 0.0 0.034482758620689655 0.011494252873563218 0.011494252873563218 0.022988505747126436 0.04597701149425287 0.034482758620689655 0.011494252873563218 0.022988505747126436 0.011494252873563218 0.011494252873563218 0.011494252873563218 0.022988505747126436 0.011494252873563218 0.022988505747126436 0.022988505747126436 0.011494252873563218 0.0 0.0 0.011494252873563218 0.0 0.0 0.011494252873563218 0.0 0.0 0.0 0.0 0.0 0.011494252873563218 0.0 0.011494252873563218 0.0 0.011494252873563218 0.011494252873563218 0.0 0.0 0.0 0.0 0.0 0.0 0.011494252873563218 0.0 0.0 0.0 0.0 0.0 0.0 0.0 0.011494252873563218 0.0 0.044444444444444446 0.07962962962962963 0.11851851851851852 0.07222222222222222 0.03888888888888889 0.012962962962962963 0.024074074074074074 0.009259259259259259 0.007407407407407408 0.005555555555555556 0.007407407407407408 0.001851851851851852 0.003703703703703704 0.011111111111111112 0.018518518518518517 0.009259259259259259 0.011111111111111112 0.027777777777777776 0.03148148148148148 0.025925925925925925 0.03148148148148148 0.025925925925925925 0.025925925925925925 0.020370370370370372 0.014814814814814815 0.014814814814814815 0.011111111111111112 0.024074074074074074 0.012962962962962963 0.016666666666666666 0.016666666666666666 0.009259259259259259 0.022222222222222223 0.020370370370370372 0.005555555555555556 0.016666666666666666 0.007407407407407408 0.012962962962962963 0.007407407407407408 0.001851851851851852 0.012962962962962963 0.005555555555555556 0.007407407407407408 0.001851851851851852 0.009259259259259259 0.001851851851851852 0.003703703703703704 0.011111111111111112 0.003703703703703704 0.005555555555555556 0.0 0.005555555555555556 0.003703703703703704 0.005555555555555556 0.005555555555555556 0.007407407407407408 0.001851851851851852 0.001851851851851852 0.005555555555555556 0.003703703703703704 0.0 0.003703703703703704 0.001851851851851852 0.0 0.0 0.0 0.0 0.0 0.0 0.001851851851851852 0.001851851851851852 0.0 0.0 0.0 0.0 0.0 0.0 0.001851851851851852 0.0 0.001851851851851852 0.0 0.0 0.0 0.0 0.0 0.0 0.0 0.0 0.0 0.0 0.0 0.0 0.0 0.0 0.0 0.0 0.0 0.0 0.0 0.003703703703703704 0.0 0.00044684854186265285 0.001011288805268109 0.0010348071495766698 0.000799623706491063 0.0005174035747883349 0.00047036688617121356 0.0008466603951081844 0.0005879586077140169 0.0005174035747883349 0.000799623706491063 0.000799623706491063 0.0008466603951081844 0.0014346190028222013 0.002281279397930386 0.00451552210724365 0.010395108184383819 0.016251175917215428 0.025940733772342427 0.03438381937911571 0.03918156161806209 0.04101599247412982 0.04012229539040452 0.04357949200376293 0.039816556914393224 0.0389934148635936 0.03915804327375353 0.03685324553151458 0.03358419567262465 0.030950141110065853 0.031396989651928504 0.030174035747883347 0.026222953904045155 0.025305738476011287 0.023118532455315147 0.02389463781749765 0.022577610536218252 0.018767638758231422 0.017615239887111948 0.017121354656632174 0.015851364063969895 0.016086547507055505 0.014722483537158984 0.01460489181561618 0.012888052681091252 0.011500470366886171 0.01145343367826905 0.010230479774223894 0.01004233301975541 0.009783631232361242 0.00867826904985889 0.009219190968955786 0.007761053621825023 0.00799623706491063 0.00764346190028222 0.0070084666039510815 0.005503292568203199 0.005503292568203199 0.005714957666980245 0.004774223894637817 0.005409219190968956 0.004703668861712135 0.004045155221072436 0.004938852304797742 0.0035512699905926623 0.0032455315145813735 0.0038099717779868296 0.0023047977422389464 0.002916274694261524 0.0027986829727187205 0.0024223894637817496 0.0026105362182502353 0.002398871119473189 0.0024459078080903106 0.0018814675446848542 0.0017638758231420509 0.00174035747883349 0.0018109125117591722 0.0015051740357478834 0.0015051740357478834 0.0019049858889934148 0.0012229539040451553 0.0018109125117591722 0.0010818438381937912 0.0009642521166509878 0.001011288805268109 0.0010348071495766698 0.0009642521166509878 0.0005879586077140169 0.0006820319849482596 0.0005879586077140169 0.00044684854186265285 0.00016462841015992474 0.00018814675446848542 0.00018814675446848542 0.00025870178739416746 7.055503292568203e-05 0.0 2.3518344308560677e-05 4.7036688617121355e-05 0.008490122295390404 0.00016462841015992474 0.000911115610447459 0.000911115610447459 0.0007086454747924681 0.0011135857461024498 0.0007086454747924681 0.0014172909495849362 0.0006074104069649726 0.0011135857461024498 0.0008098805426199635 0.0010123506782749544 0.0011135857461024498 0.0005061753391374772 0.0010123506782749544 0.000911115610447459 0.0012148208139299453 0.0010123506782749544 0.0011135857461024498 0.003948167645272322 0.005567928730512249 0.009921036647094554 0.012755618546264426 0.014679084834986839 0.018121077141121683 0.023284065600323953 0.02358777080380644 0.02733346831342377 0.02733346831342377 0.030775460619558614 0.026219882567321322 0.02804211378821624 0.029661874873456166 0.02733346831342377 0.03148410609435108 0.030977930755213608 0.028548289127353715 0.029256934602146182 0.026118647499493823 0.02844705405952622 0.02419518121077141 0.028143348856043734 0.026219882567321322 0.021259364243774042 0.023081595464668963 0.020753188904636566 0.02105689410811905 0.02024701356549909 0.018728487548086658 0.017918607005466693 0.014679084834986839 0.015084025106296821 0.01245191334278194 0.012856853614091921 0.011945738003644462 0.009414861307957077 0.008098805426199635 0.010629682121887021 0.008908685968819599 0.010933387325369508 0.007896335290544645 0.007390159951407168 0.007390159951407168 0.0066815144766146995 0.008402510629682123 0.006074104069649726 0.005466693662684754 0.007592630087062158 0.005567928730512249 0.0061753391374772225 0.005871633933994736 0.006276574205304718 0.005567928730512249 0.005061753391374772 0.004656813120064791 0.005264223527029763 0.005770398866167241 0.004859283255719781 0.004049402713099818 0.004150637780927313 0.004049402713099818 0.004454342984409799 0.004353107916582304 0.0026321117635148814 0.004454342984409799 0.0028345818991698723 0.003239522170479854 0.003948167645272322 0.0024296416278598906 0.0014172909495849362 0.0011135857461024498 0.0015185260174124316 0.0008098805426199635 0.0008098805426199635 0.0005061753391374772 0.00020247013565499088 0.0 0.00040494027130998176 0.00010123506782749544 0.0 0.0 0.004353107916582304 0.0 </TABLE>
    </DEFINITION>
    <DEFINITION>
      <FOR>Victim Race</FOR>
      <GIVEN>Relationship</GIVEN>
      <TABLE>0.011198296597137336 0.44495485193801504 0.010212531051614683 0.5336343204132329 0.006939625260235947 0.6224843858431645 0.009715475364330326 0.3608605135322693 0.010954616588419406 0.29107981220657275 0.004694835680751174 0.6932707355242567 0.010931174089068825 0.3902834008097166 0.017408906882591092 0.5813765182186235 0.0009794319294809011 0.7002938295788442 0.005876591576885406 0.29285014691478944 0.013389121338912133 0.43179916317991635 0.009205020920502092 0.5456066945606695 0.03594400302686341 0.27998486568293607 0.009458948164964056 0.6746121831252365 0.031446540880503145 0.14465408805031446 0.006289308176100629 0.8176100628930818 0.058091286307053944 0.07883817427385892 0.0 0.8630705394190872 0.006600660066006601 0.3234323432343234 0.006600660066006601 0.6633663366336634 0.025730994152046785 0.19649122807017544 0.00935672514619883 0.7684210526315789 0.02074579831932773 0.39705882352941174 0.020483193277310924 0.5617121848739496 0.01928374655647383 0.256198347107438 0.008264462809917356 0.7162534435261708 0.017850953206239167 0.3520797227036395 0.009445407279029462 0.6206239168110919 0.028173374613003097 0.3572755417956656 0.013157894736842105 0.6013931888544891 0.00919963201471941 0.3852345906163753 0.004829806807727691 0.6007359705611776 0.021255561047948592 0.27335640138408307 0.009391992090954029 0.6959960454770143 0.023283582089552238 0.18447761194029852 0.007761194029850746 0.7844776119402985 0.01299545159194282 0.28037686809616635 0.007472384665367121 0.6991552956465237 0.04801670146137787 0.325678496868476 0.0041753653444676405 0.6221294363256785 0.03000857387825093 0.30865961703343814 0.008573878250928837 0.6527579308373821 0.022435897435897436 0.2532051282051282 0.009615384615384616 0.7147435897435898 0.004552352048558422 0.3292867981790592 0.007587253414264037 0.6585735963581184 0.022988505747126436 0.1724137931034483 0.011494252873563218 0.7931034482758621 0.003703703703703704 0.35555555555555557 0.011111111111111112 0.6296296296296297 0.02845719661335842 0.32064910630291626 0.007337723424270932 0.6435559736594544 0.03249645677262604 0.20328001619761085 0.007491395019234663 0.7567321320105285 </TABLE>
    </DEFINITION>
    <DEFINITION>
      <FOR>Victim Sex</FOR>
      <TABLE>0.24881457289334044 0.7511854271066596 </TABLE>
    </DEFINITION>
    <DEFINITION>
      <FOR>Weapon</FOR>
      <GIVEN>Relationship</GIVEN>
      <GIVEN>Victim Sex</GIVEN>
      <TABLE>0.17926722884559465 0.0034893864495492877 0.007851119511485897 0.0008723466123873219 0.0010177377144518756 0.0178831055539401 0.01919162547252108 0.00159930212271009 0.38921198022681014 0.23407967432393137 0.0007269555103227683 0.03460308229136377 0.054812445478336726 0.04376272172143065 0.011631288165164292 0.09467658060395949 0.0008439011039138765 0.001847459173433081 0.00020527324149256454 0.0002965057932670377 0.005245871727032205 0.026252166773104643 0.0018930754493203174 0.5177675394580786 0.20823829942523492 0.00031931393121065595 0.05594836237569565 0.07950916887145333 0.005405528692637533 0.0015509533801660433 0.21739130434782608 0.0 0.0 0.0 0.0 0.0 0.021739130434782608 0.0 0.5 0.15217391304347827 0.0 0.0 0.043478260869565216 0.06521739130434782 0.0 0.029971791255289138 0.0 0.003173483779971791 0.0 0.0 0.004936530324400564 0.011988716502115656 0.0007052186177715092 0.41220028208744713 0.4633286318758815 0.0003526093088857546 0.027150916784203102 0.04160789844851904 0.0028208744710860366 0.001763046544428773 0.07692307692307693 0.0 0.0 0.0 0.0 0.0 0.01282051282051282 0.0 0.5 0.38461538461538464 0.0 0.02564102564102564 0.0 0.0 0.0 0.1800356506238859 0.0053475935828877 0.0017825311942959 0.0 0.0 0.0053475935828877 0.012477718360071301 0.0 0.22459893048128343 0.43493761140819964 0.0053475935828877 0.024955436720142603 0.023172905525846704 0.07130124777183601 0.0106951871657754 0.04 0.0 0.0 0.02 0.0 0.02 0.06 0.0 0.4 0.22 0.0 0.1 0.12 0.0 0.02 0.07190082644628099 0.0008264462809917355 0.0008264462809917355 0.001652892561983471 0.0 0.009917355371900827 0.026859504132231406 0.002066115702479339 0.39173553719008264 0.26074380165289257 0.0 0.09669421487603305 0.12975206611570247 0.004132231404958678 0.002892561983471074 0.08333333333333333 0.0 0.0 0.0 0.0 0.0 0.0 0.0 0.6666666666666666 0.16666666666666666 0.0 0.08333333333333333 0.0 0.0 0.0 0.024777006937561942 0.0 0.0019821605550049554 0.0 0.0 0.007928642220019821 0.022794846382556987 0.0 0.39643211100099107 0.44697720515361744 0.0 0.04162537165510406 0.05649157581764123 0.0009910802775024777 0.0 0.16494845360824742 0.000859106529209622 0.001718213058419244 0.000859106529209622 0.0 0.00859106529209622 0.020618556701030927 0.001718213058419244 0.4381443298969072 0.19072164948453607 0.0 0.06099656357388316 0.07903780068728522 0.027491408934707903 0.00429553264604811 0.06451612903225806 0.0 0.0 0.0 0.0 0.0 0.0 0.0 0.6451612903225806 0.12903225806451613 0.0 0.0967741935483871 0.06451612903225806 0.0 0.0 0.4775641025641026 0.049679487179487176 0.015224358974358974 0.002003205128205128 0.001201923076923077 0.03886217948717949 0.009615384615384616 0.0008012820512820513 0.16185897435897437 0.06931089743589744 0.00641025641025641 0.022035256410256412 0.02564102564102564 0.020432692307692308 0.09935897435897435 0.05442176870748299 0.047619047619047616 0.0 0.0 0.0 0.1564625850340136 0.027210884353741496 0.006802721088435374 0.3673469387755102 0.1292517006802721 0.006802721088435374 0.047619047619047616 0.047619047619047616 0.04081632653061224 0.06802721088435375 0.15384615384615385 0.0 0.0 0.038461538461538464 0.0 0.038461538461538464 0.0 0.0 0.38461538461538464 0.15384615384615385 0.0 0.07692307692307693 0.07692307692307693 0.07692307692307693 0.0 0.11278195488721804 0.0 0.0 0.045112781954887216 0.0 0.015037593984962405 0.03759398496240601 0.007518796992481203 0.5037593984962406 0.09022556390977443 0.0 0.07518796992481203 0.09774436090225563 0.007518796992481203 0.007518796992481203 0.2558139534883721 0.0 0.0 0.0 0.0 0.023255813953488372 0.0 0.0 0.23255813953488372 0.32558139534883723 0.023255813953488372 0.023255813953488372 0.0 0.09302325581395349 0.023255813953488372 0.10606060606060606 0.0 0.010101010101010102 0.0 0.0 0.0 0.005050505050505051 0.0 0.5404040404040404 0.17676767676767677 0.0 0.05555555555555555 0.08585858585858586 0.010101010101010102 0.010101010101010102 0.06666666666666667 0.0 0.0 0.0 0.0 0.0 0.0 0.0 0.8 0.13333333333333333 0.0 0.0 0.0 0.0 0.0 0.017361111111111112 0.0 0.0 0.0 0.0 0.003472222222222222 0.020833333333333332 0.0 0.6701388888888888 0.10069444444444445 0.006944444444444444 0.06944444444444445 0.1111111111111111 0.0 0.0 0.06289308176100629 0.0037735849056603774 0.0 0.0 0.0 0.005031446540880503 0.03647798742138365 0.0025157232704402514 0.5471698113207547 0.14465408805031446 0.0 0.06792452830188679 0.09811320754716982 0.027672955974842768 0.0037735849056603774 0.0 0.0 0.0 0.0 0.0 0.0 0.0 0.0 0.7 0.11666666666666667 0.0 0.03333333333333333 0.13333333333333333 0.016666666666666666 0.0 0.29676258992805754 0.01079136690647482 0.0035971223021582736 0.0 0.0 0.03327338129496403 0.013489208633093525 0.0008992805755395684 0.22482014388489208 0.25359712230215825 0.0017985611510791368 0.046762589928057555 0.05935251798561151 0.03327338129496403 0.02158273381294964 0.13798219584569732 0.0025964391691394658 0.0025964391691394658 0.000370919881305638 0.0 0.007047477744807121 0.019658753709198812 0.001112759643916914 0.41135014836795253 0.2129080118694362 0.000370919881305638 0.08716617210682492 0.10793768545994065 0.0033382789317507417 0.00556379821958457 0.04716981132075472 0.0 0.0 0.0 0.0 0.03773584905660377 0.02830188679245283 0.0 0.42452830188679247 0.1509433962264151 0.0 0.12264150943396226 0.16981132075471697 0.009433962264150943 0.009433962264150943 0.15974253949678174 0.0 0.0023405500292568754 0.0005851375073142189 0.0 0.014043300175541252 0.016968987712112346 0.0 0.32241076653013456 0.20596840257460503 0.0005851375073142189 0.1146869514335869 0.14335868929198362 0.010532475131655939 0.008777062609713282 0.15445665445665446 0.0030525030525030525 0.0115995115995116 0.001221001221001221 0.0 0.009768009768009768 0.017704517704517704 0.002442002442002442 0.41086691086691085 0.23443223443223443 0.0018315018315018315 0.04884004884004884 0.050061050061050064 0.040293040293040296 0.013431013431013432 0.0985659462734801 0.0019188042819632397 0.003938598262977176 0.000605938194304181 0.00020197939810139365 0.0030296909715209048 0.03342759038578065 0.0014138557867097556 0.47980206018986066 0.2200565542314684 0.00020197939810139365 0.06433043829529388 0.08230660472631791 0.007675217127852959 0.002524742476267421 0.1508300395256917 0.0014229249011857706 0.004268774703557313 0.00031620553359683795 0.0004743083003952569 0.006007905138339921 0.02640316205533597 0.0012648221343873518 0.43604743083003955 0.21280632411067193 0.0011067193675889327 0.041264822134387355 0.05849802371541502 0.04901185770750988 0.010276679841897233 0.022222222222222223 0.0 0.0 0.0 0.0 0.037037037037037035 0.02962962962962963 0.0 0.4740740740740741 0.1925925925925926 0.0 0.13333333333333333 0.1037037037037037 0.007407407407407408 0.0 0.14102564102564102 0.0 0.0 0.0 0.0 0.01282051282051282 0.038461538461538464 0.0 0.5128205128205128 0.05128205128205128 0.0 0.10256410256410256 0.08974358974358974 0.038461538461538464 0.01282051282051282 0.03161592505854801 0.000234192037470726 0.003278688524590164 0.000936768149882904 0.0 0.006791569086651054 0.01756440281030445 0.001639344262295082 0.5754098360655737 0.21288056206088993 0.003278688524590164 0.06463700234192038 0.07704918032786885 0.003044496487119438 0.001639344262295082 0.09502262443438914 0.0022624434389140274 0.004524886877828055 0.0 0.0 0.013574660633484163 0.01583710407239819 0.0 0.47285067873303166 0.16968325791855204 0.0 0.09502262443438914 0.10633484162895927 0.020361990950226245 0.004524886877828055 0.05502846299810247 0.001265022137887413 0.0006325110689437065 0.001265022137887413 0.0 0.002530044275774826 0.013915243516761544 0.0 0.5009487666034156 0.1834282099936749 0.0 0.10879190385831752 0.12966476913345984 0.0018975332068311196 0.0006325110689437065 0.24189364461738003 0.0019455252918287938 0.007133592736705577 0.0012970168612191958 0.0006485084306095979 0.017509727626459144 0.008430609597924773 0.0025940337224383916 0.22243839169909208 0.28793774319066145 0.0025940337224383916 0.07587548638132295 0.0654993514915694 0.04215304798962387 0.02204928664072633 0.15789473684210525 0.007518796992481203 0.0 0.0 0.0 0.022556390977443608 0.007518796992481203 0.0 0.3082706766917293 0.18796992481203006 0.0 0.17293233082706766 0.12781954887218044 0.007518796992481203 0.0 0.1896067415730337 0.0014044943820224719 0.0 0.0 0.0 0.03932584269662921 0.009831460674157303 0.0 0.2752808988764045 0.2907303370786517 0.0 0.056179775280898875 0.060393258426966294 0.060393258426966294 0.016853932584269662 0.09256128486897718 0.0016906170752324597 0.00042265426880811494 0.0 0.00042265426880811494 0.01098901098901099 0.0253592561284869 0.001267962806424345 0.4188503803888419 0.19019442096365174 0.0 0.1132713440405748 0.13693998309382924 0.005917159763313609 0.002113271344040575 0.0975609756097561 0.004434589800443459 0.0022172949002217295 0.0 0.0022172949002217295 0.03325942350332594 0.017738359201773836 0.0022172949002217295 0.3924611973392461 0.1973392461197339 0.0 0.08869179600886919 0.13082039911308205 0.022172949002217297 0.008869179600886918 0.03571428571428571 0.0 0.0 0.0 0.0 0.07142857142857142 0.0 0.0 0.4642857142857143 0.17857142857142858 0.0 0.17857142857142858 0.03571428571428571 0.03571428571428571 0.0 0.0945945945945946 0.02252252252252252 0.013513513513513514 0.0 0.0 0.07207207207207207 0.02702702702702703 0.009009009009009009 0.4099099099099099 0.0990990990990991 0.018018018018018018 0.08108108108108109 0.09009009009009009 0.02252252252252252 0.04054054054054054 0.4284406469331706 0.04028074458346048 0.015868172108635947 0.0003051571559353067 0.0015257857796765334 0.021361000915471468 0.010375343301800427 0.00183094293561184 0.22429050961245042 0.06713457430576747 0.004882514494964907 0.0411962160512664 0.05126640219713152 0.01281660054928288 0.07842538907537382 0.5409836065573771 0.006557377049180328 0.0 0.0 0.0 0.01639344262295082 0.02622950819672131 0.0 0.2262295081967213 0.06557377049180328 0.0 0.04918032786885246 0.02622950819672131 0.013114754098360656 0.029508196721311476 0.14285714285714285 0.0 0.0 0.0 0.0 0.2857142857142857 0.14285714285714285 0.0 0.14285714285714285 0.14285714285714285 0.0 0.0 0.14285714285714285 0.0 0.0 0.05263157894736842 0.0 0.0 0.0 0.0 0.05263157894736842 0.05263157894736842 0.0 0.47368421052631576 0.10526315789473684 0.0 0.21052631578947367 0.05263157894736842 0.0 0.0 0.1234375 0.0 0.0 0.0015625 0.0015625 0.003125 0.021875 0.0015625 0.33125 0.2609375 0.0 0.109375 0.1390625 0.0046875 0.0015625 0.14285714285714285 0.0 0.0 0.0 0.0 0.012987012987012988 0.025974025974025976 0.0 0.33766233766233766 0.16883116883116883 0.0 0.11688311688311688 0.1038961038961039 0.09090909090909091 0.0 0.0 0.0 0.0 0.0 0.0 0.0 0.1 0.0 0.4 0.0 0.0 0.1 0.4 0.0 0.0 0.06896551724137931 0.0 0.0 0.0 0.0 0.034482758620689655 0.0 0.0 0.6896551724137931 0.13793103448275862 0.0 0.0 0.06896551724137931 0.0 0.0 0.41487279843444225 0.009784735812133072 0.0 0.0 0.0019569471624266144 0.005870841487279843 0.007827788649706457 0.003913894324853229 0.33463796477495106 0.08414872798434442 0.0019569471624266144 0.04892367906066536 0.07436399217221135 0.0019569471624266144 0.009784735812133072 0.15667998224589436 0.0024411895250776743 0.0013315579227696406 0.000887705281846427 0.0004438526409232135 0.019529516200621395 0.03395472703062583 0.000887705281846427 0.4456280514869064 0.17887261429205503 0.000887705281846427 0.04638260097647581 0.04438526409232135 0.05215268530847759 0.015534842432312472 0.0733414005366444 0.00044720366180880727 0.00023675487978113327 7.891829326037775e-05 0.00013153048876729626 0.00315673173041511 0.03822276003577629 0.0013679170831798811 0.6511022254958699 0.1263481875098648 0.0 0.04490450886515494 0.055426947966538645 0.0037091597832377547 0.0015257536697006367 0.10519196753719696 0.0024971386952450316 0.0027052335865154513 0.00031214233690562894 0.00041618978254083863 0.00603475184684216 0.025699719071896786 0.0015607116845281449 0.5074393923629175 0.13713453334720632 0.0018728540214337738 0.06825512433669753 0.10155030693996463 0.030798043908022057 0.008531890542087191 0.03745318352059925 0.003745318352059925 0.0 0.0 0.0 0.011235955056179775 0.03745318352059925 0.0 0.5393258426966292 0.1348314606741573 0.0 0.0898876404494382 0.13108614232209737 0.011235955056179775 0.003745318352059925 </TABLE>
    </DEFINITION>
  </NETWORK>
</BIF>
